2075 100
</s> 0.01558 0.00095278 -0.016116 -0.0077077 0.0081601 0.0079972 0.02337 0.028446 0.015023 0.018908 0.011991 0.0156 0.011971 0.012269 -0.011409 -0.015059 -0.002275 0.024886 -0.028846 0.016998 -0.00052926 0.016902 -0.0056557 0.019848 -0.0061549 -0.0061457 -0.0066853 0.0077684 -0.0044677 0.0133 0.01358 -0.011052 0.01459 0.0050667 -0.016205 0.0088283 -0.004153 0.0098499 -0.004335 -0.01303 0.022742 0.0050233 -0.020438 0.0032114 0.014411 0.012382 0.0023769 -0.004082 0.014394 0.0045435 -0.0056835 0.017455 0.0011377 2.3851e-06 0.013742 -0.0024421 -0.018543 0.011917 0.014829 -0.0047797 -0.013497 0.034375 0.015377 -0.00017456 0.0066492 -0.016025 0.009324 0.023497 -0.0011279 -0.00076337 0.020309 -0.0084549 0.011523 -0.0050394 0.017659 0.012853 0.013196 -0.0030887 0.02121 0.0057676 -0.0036551 0.0058274 0.0034929 0.0068568 0.009141 -0.0049835 0.013939 2.0562e-05 -0.032405 -0.024617 0.0083926 -0.0022399 0.026694 0.0037658 -0.010603 -0.011505 0.011685 0.010367 -0.012991 -0.011568 
garlic -0.0096328 0.062687 0.0039936 -0.037335 -0.011288 0.03194 -0.015926 -0.0017804 -0.01233 0.0060043 0.0041195 4.411e-07 2.985e-05 0.017697 -0.054895 0.0037838 -0.006511 0.0026261 -0.040564 0.029373 0.049842 0.010308 -0.045569 -0.017371 0.0035011 -0.028457 -0.046304 -0.006762 -0.040282 0.0076216 -0.02847 -0.045296 0.022376 0.011366 -0.025029 0.029962 0.012112 -0.013644 -0.0001987 0.068564 -0.021135 0.081313 0.029226 0.023104 -0.0056576 0.026047 0.052494 -0.010159 0.010221 0.037066 0.026886 0.048355 -0.011038 0.011212 0.031436 -0.030101 -0.052639 0.037187 0.010843 -0.03712 0.046288 0.042179 0.037072 -0.039986 0.027887 -0.011469 -0.01168 0.02754 -0.0066067 -0.0082446 -0.011497 0.053182 -0.023989 0.0058885 0.053952 0.035229 0.013642 -0.022633 0.036253 0.0069302 -0.088724 0.010946 0.02808 0.024866 8.6868e-05 -0.01902 0.015422 0.0054678 0.01421 -0.035422 -0.00087362 -0.011577 -0.01137 -0.0073103 -0.020289 -0.034255 0.027441 0.031963 -0.02434 -0.065224 
pepper 0.023434 -0.010486 -0.040734 0.014789 -0.0090431 -0.036469 0.0022267 0.015139 -0.0040933 -0.018563 -0.0094747 0.043108 -0.013755 0.0074544 0.011983 -0.027972 -0.0186 -0.032923 0.026886 0.038969 0.0039636 0.032359 0.014733 -0.014175 -0.016759 0.029301 -0.02328 -0.020034 -0.020317 0.0056878 0.010326 -0.020256 -0.012355 -0.010309 0.017694 0.025545 0.0086947 0.014084 -0.032153 0.0011201 0.0060016 -0.023188 -0.016304 -0.05024 0.014895 -0.0039805 0.0083811 -0.021655 -0.017699 -0.012973 -0.091657 -0.0019455 0.010947 0.0060183 0.034152 0.011852 0.024545 -0.016356 -0.00063552 -0.028542 -0.03649 0.0063775 -0.0080269 0.0088844 -0.025181 0.022265 -0.009181 0.01265 -0.022193 0.036055 0.031648 0.007488 0.028524 -0.010552 0.0088117 0.045664 0.0059211 0.043084 -0.043168 -0.023728 0.024126 -0.0023676 -0.0070454 0.028843 0.030473 0.0028823 0.0092763 0.048506 -0.050803 -0.015683 0.027158 -0.0034425 -0.038635 -0.00039215 -0.050535 -0.019478 -0.0065366 0.015583 -0.017455 -0.013148 
butter 0.010181 -0.019868 0.0031572 0.013926 0.020468 -0.0052066 -0.0028997 -0.01538 0.021048 -0.00032809 -0.0018079 0.0076951 -0.0011612 0.0099228 0.011329 0.0045834 0.0088633 0.0086175 -0.012928 0.0004374 -0.024322 0.019638 0.018963 0.0065849 -0.0043054 0.018708 0.0045096 0.018156 0.010539 0.0066703 0.0045875 0.034321 0.001199 -0.00028034 0.0093184 0.020524 -0.00097717 -0.010685 -0.0047484 -0.0030454 0.011822 -0.0086337 -0.015167 0.017494 0.004826 0.0082829 0.014972 0.010038 0.017482 0.0040466 -0.011597 -0.0021071 -0.0098717 0.014193 -0.031736 0.0069488 -0.00065608 0.0073105 0.005434 0.013319 -0.011187 0.00017106 0.0076331 -0.011772 -0.0048905 0.01788 0.020563 -0.004539 -0.013567 -0.018024 0.0020059 -0.00825 0.01451 0.017227 -0.0060319 0.007078 0.018798 -0.0023293 0.0023516 -0.015759 0.037556 -0.0066106 -0.022736 -0.0026339 0.0024419 0.0028071 0.0018466 -0.0035034 -0.013869 -0.012927 0.0084957 0.0072839 -0.01738 0.0026748 -0.014273 -0.0052687 -0.004611 -0.013137 0.024966 0.017319 
onion -0.02277 -0.018578 -0.024474 0.01429 -0.09084 -0.078813 -0.012537 -0.020228 0.041318 -0.009813 -0.046475 -0.065691 0.060702 0.04482 0.059424 0.021102 0.0082265 -0.024928 -0.019153 0.026696 0.083229 0.029485 -0.024433 0.070429 -0.0045381 -0.01307 -0.085435 -0.014699 -0.011671 -0.010445 -0.0040068 -0.096281 0.059657 -0.01434 -0.043109 -0.0019823 0.010908 0.025966 -0.019309 0.03178 -0.026159 -0.016748 0.061449 -0.12938 0.027816 -0.0057215 -0.012125 -0.027967 -0.080851 -0.028776 -0.043497 0.0089163 0.036977 -0.040903 0.041945 0.051082 0.076748 -0.027762 0.021494 -0.091458 -0.020429 0.0041376 -0.056515 0.071337 -0.032522 0.075615 -0.043247 0.014388 0.0094437 0.032693 0.019567 0.079826 0.04161 -0.044261 0.022702 0.0035645 -0.0052933 0.01318 -0.018338 -0.074567 0.015419 0.0075675 -0.005092 0.0087185 0.0045544 -0.00091318 -0.042307 0.055297 -0.045173 0.011228 0.06624 0.010944 0.088184 -0.08614 -0.037142 0.00077701 0.007039 -0.0079057 -0.04084 -0.014888 
egg 0.0068112 0.033691 0.042593 -0.0080669 0.022808 0.023072 0.024726 -0.037205 0.032827 0.046675 0.027334 0.01354 -0.074061 -0.0073014 0.028127 0.0020339 -0.02192 0.034585 0.012671 -0.0015947 -0.028259 0.001416 0.011068 0.0050333 0.032806 0.032515 0.016727 0.013293 -0.0054879 0.0014382 -0.0046332 0.010032 -0.022734 -0.0045015 0.0047271 0.011156 -0.0016346 0.025839 -0.025125 0.024393 -0.025784 0.0045902 -0.0050826 0.012844 -0.012618 -0.050457 0.0002977 -0.019657 0.0067085 0.004068 0.0012918 0.028774 -0.012989 0.0033554 0.033526 0.0010773 0.0095117 -0.024422 4.1501e-05 0.010621 -0.039698 -0.027836 -0.041291 -0.01163 0.0085816 -0.0019294 0.00080663 -0.014271 -0.027673 0.03064 -0.0084468 -0.03299 -0.01056 -0.013512 0.0049663 0.016486 -0.019666 -0.02018 -0.0083225 0.016646 -0.0116 0.022555 0.027549 0.019882 0.0099024 -0.047073 0.022049 -0.0035157 0.020178 -0.012893 -0.012191 0.0034579 -0.010744 0.047145 0.0048599 -0.016447 0.012376 0.012172 0.0040815 -0.02653 
wheat -0.0046934 -0.029948 0.055523 0.022513 -0.023702 0.0040344 -0.002523 -0.011755 0.078115 0.027483 0.0008725 -0.034329 0.051442 0.029549 0.032167 0.020075 0.04221 0.053523 -0.07993 -0.039592 0.032933 -0.00038348 0.016742 0.032686 0.037106 0.00036595 0.030728 0.012272 0.010062 -0.027178 -0.00087685 -0.011439 0.010254 -0.00091021 -0.02064 -0.031994 -0.0056458 0.014342 0.025579 -0.0074146 -0.018611 0.014471 0.025325 -0.0024565 -0.034169 0.01485 -0.018248 0.011886 -0.02195 -0.014992 0.067055 0.022894 -0.012342 -0.023479 -0.037683 0.024439 0.0069307 -0.01787 0.0066813 0.012543 -0.0044952 -0.027437 -0.061452 0.015599 -0.015857 0.011696 0.012682 -0.022838 0.026308 -0.037771 -0.037738 -0.0028982 -0.0067219 0.0061749 0.010037 -0.056397 -0.010987 -0.058565 0.023416 -0.011235 -0.010838 0.0026014 -0.012409 -0.040957 -0.021433 -0.00051058 -0.051148 -0.045829 0.017665 0.014492 0.024056 0.0066967 0.061323 -0.0049434 0.04253 0.054218 0.016154 -0.012843 0.0012577 -0.0044885 
salt -0.004232 -0.023225 0.0098542 0.026097 -0.049185 -0.028038 0.0071245 0.02187 0.034364 0.027145 -0.028324 -0.019803 0.005246 0.015978 0.042237 -0.011782 0.010384 0.0076486 -0.0053385 -0.023257 0.015067 -0.02114 0.02481 0.046364 0.010262 0.011383 -0.013401 0.0088277 0.019349 -0.039832 0.021803 -0.01902 0.0039046 0.03025 0.0078003 -0.036265 -0.0050254 0.031562 -0.020418 -0.038243 0.019126 -0.04119 -0.00012885 -0.054351 0.02165 -0.014026 -0.026779 -0.0093891 -0.044503 -0.027793 0.00992 0.0087819 0.0040746 -0.022634 -0.0047231 0.031997 0.056828 -0.025761 0.02471 0.017691 -0.049774 -0.002762 -0.065008 0.059023 -0.010916 0.031204 -0.0055639 0.010535 0.031352 -0.00035127 0.0023613 -0.017721 -0.0011541 -0.052335 -0.034181 -0.047403 0.0020978 -0.0053305 -0.012592 -0.019965 0.051088 0.0068657 -0.045419 -0.021946 0.018845 0.010244 -0.020169 0.020397 -0.040093 -0.0040276 0.039793 0.026928 0.041704 0.0082382 0.023743 0.0022228 -0.0012571 2.8178e-05 0.0028484 0.01829 
milk 0.0071541 -0.015091 -0.0063331 -0.0078958 0.0071507 0.036485 0.031416 0.011773 0.0075829 0.021519 0.0017123 0.00087731 0.036289 -0.0003893 0.024183 -0.014679 0.021462 0.019295 -0.0026889 -0.015247 0.016093 -0.03163 0.0022166 0.019865 0.0078645 -0.01401 0.020092 0.0060435 0.013177 0.00023998 0.0064863 0.0052011 -0.0014555 -0.0011712 -0.0096879 -0.026565 -0.0022072 0.031649 0.010544 -0.054205 0.039239 0.0089014 -0.0082439 -0.0056144 0.0088877 0.033403 -0.027193 0.028308 0.007411 0.013284 0.023539 0.0039614 0.0051355 -0.033048 -0.0096289 0.024588 -0.0042399 0.017449 -0.0020323 -0.009797 0.0096146 0.03843 0.018875 0.030054 0.0080964 -0.0075314 0.0071182 -0.0066546 0.034561 -0.032844 0.015291 -0.016172 -0.0065671 0.011701 0.0024338 -0.0094247 0.005507 -0.012684 0.043112 -0.0043966 0.0051518 -0.00224 -0.01693 -0.050998 -0.0051835 -0.0046454 0.0057776 -0.008251 0.010017 -0.014662 0.0022026 0.034969 0.048533 0.0010211 0.00020124 0.015803 0.019572 -0.013328 0.019542 0.0067636 
chicken 0.001474 0.01338 0.01263 0.0099751 -0.0090411 -0.013319 -0.010663 0.0024386 0.0082289 0.0045365 -0.0055858 0.010248 -0.029209 0.0011132 -0.021813 0.0033093 0.001186 -0.014038 0.0095863 -0.0033767 -0.023087 -0.00095318 0.0085709 -0.011357 -0.0080607 -0.0025834 0.012496 -0.0019643 -0.00069398 4.5905e-05 0.014124 -0.0086393 -0.015311 0.012185 -0.0068934 0.003724 -0.0033585 -0.010171 0.0058344 -0.001158 -0.024203 -0.0032852 -0.0088811 0.0027108 -0.0039021 -0.021614 0.0020093 -0.010554 -0.015639 0.013237 0.00083771 -0.012629 -0.0016256 0.0066546 -0.006893 0.0015652 0.0043028 -0.017895 -0.00707 0.021802 -0.0079606 -0.023877 -0.02201 0.0071291 -0.0069464 -0.004202 0.00063568 0.0029846 0.011533 -0.0014086 -0.011131 0.0069811 -0.010228 -8.1001e-06 -0.014845 -0.0070128 0.006562 -0.013861 -0.0026835 0.0017278 0.00029273 0.0098304 -0.010232 0.016025 0.0031367 0.00057059 -0.011578 0.0084934 -0.010743 0.008598 -0.005081 -0.011124 0.012145 0.011051 0.020289 -0.0029183 -0.016623 0.0063446 -0.024336 0.0006151 
cream 0.022689 0.030362 0.0078478 -0.001999 -0.025092 -0.012889 0.01573 -0.0047268 -0.021556 -0.0012674 -0.033069 0.0073588 -0.017783 0.0036266 0.011821 -0.024042 -0.017195 0.0013194 0.060595 0.018525 -0.022893 0.015644 0.014925 0.009858 0.0037906 0.025396 -0.019599 -0.0049222 -0.014886 0.0030543 -0.017402 0.0062705 -0.011335 -0.018871 0.0044365 0.023137 0.016621 0.011322 -0.04528 0.0040181 0.019264 -0.027305 -0.0069231 -0.042937 0.0072538 0.021287 0.0053047 -0.026743 -0.023898 -0.00016329 -0.037794 -0.0044134 0.0019364 -0.016651 0.041742 0.016245 0.029037 -0.022487 -0.0058916 -0.048815 -0.053949 -0.00077532 -0.028506 0.01155 -0.0043826 -0.011121 -0.023603 0.00015558 -0.028035 0.051419 0.024037 -0.016319 0.025882 -0.012117 0.015703 0.04658 -0.035484 0.04947 -0.045329 0.025636 -0.0032539 0.0010748 0.030245 0.030622 0.01521 -0.0097859 0.019981 0.014235 0.021627 -0.018147 -0.0084164 -0.006632 -0.030661 0.020875 -0.020572 -0.017136 0.022597 0.019498 -0.0091723 -0.027146 
cheese 0.016302 -0.0067771 -0.042352 -0.0038013 0.042672 -0.055884 -0.013291 -0.02926 -0.019219 0.017846 -0.0086293 0.049622 -0.061277 -0.013555 -0.0013294 -0.0067312 -0.018946 -0.068641 0.095166 0.032559 -0.032135 0.049804 0.02157 0.024219 -0.0028423 0.044107 -0.018738 -0.014375 -0.016892 0.04804 0.022521 0.045733 -0.032596 -0.012037 0.030332 0.05946 0.013483 -0.0062672 -0.064128 0.036189 -0.019072 -0.031144 -0.015837 -0.015933 0.038413 -0.0080032 0.068152 -0.028954 -0.0058466 0.011436 -0.10672 -0.0062318 -0.016112 0.044559 0.0037892 0.0043222 0.05277 -0.030792 -0.021562 -0.021004 -0.043961 0.0062546 0.024553 -0.00097503 -0.027853 0.037235 -0.016318 0.0051586 -0.038686 0.059962 0.015209 0.01149 0.027724 -0.012233 0.0057573 0.080074 0.017132 0.06054 -0.068732 -0.038136 0.05426 0.0084817 0.016119 0.018625 0.00022556 -0.013206 -0.0038628 0.060942 -0.066947 -0.022695 0.016171 -0.024792 -0.054374 -0.015093 -0.050808 -0.025893 -0.0027457 0.016069 -0.015469 0.0013987 
olive 0.013083 0.013087 0.024464 0.0059714 -0.0031374 -0.01502 -0.0029262 -0.041589 0.029815 0.025112 0.011955 0.0091881 -0.047051 -0.0036891 0.011858 0.025506 -0.0053076 0.01413 -0.017126 -0.0013809 -0.004915 0.039269 0.011254 0.018789 0.031986 0.027123 0.0056106 -0.0088269 -0.031592 0.014904 -0.014249 -0.014119 -0.032426 -0.027179 0.013461 0.025181 0.010976 -0.003325 -0.025713 0.028243 -0.036313 0.0071224 0.0042448 -0.00027715 -0.015434 -0.0052466 0.032567 -0.049354 -0.0015418 -0.022416 -0.019918 0.027686 -0.022917 0.0136 0.017183 -0.019195 0.024663 -0.012981 0.00294 -0.014286 -0.046622 -0.030514 -0.023936 -0.026764 -0.01273 0.019083 0.0063745 -0.0074156 -0.026699 0.029502 -0.031882 0.012325 0.014118 -0.015461 0.024217 0.017499 0.0025301 -0.0034528 -0.030677 -0.013991 -0.007498 0.016513 0.017271 0.03953 0.016478 -0.014709 -0.016922 0.0057204 -0.016926 0.00084854 0.027018 -0.011236 -0.030948 0.016344 -0.015811 -0.0047982 0.020349 0.018421 -0.0024725 -0.011684 
tomato 0.021001 -0.016738 -0.0097721 -0.022179 0.0041937 -0.013926 -0.00089969 -0.018966 -0.015457 -0.023673 -0.0083855 0.016037 -0.025471 -0.016064 0.035211 0.0087818 0.0053362 -0.01765 0.023795 -0.015277 -0.001075 0.030062 0.021172 0.016164 -0.0013743 0.031205 -0.0057248 0.0071077 0.00744 0.00031546 0.017986 0.024475 -0.012136 0.0042261 0.060969 0.02582 0.025251 -0.016927 -0.045871 0.022593 -0.028738 -0.030746 0.014283 -0.012588 0.014586 -0.050363 0.034413 -0.030361 -0.017715 0.0084747 -0.050829 -0.0045112 -0.041831 -0.0016874 -0.034587 -0.01138 0.041052 -0.01655 -0.039764 -0.0043526 0.0067612 -0.0092392 -0.029437 -0.0097471 -0.022047 0.055248 -0.0099664 -0.023545 -0.0032505 0.024056 -0.0098199 0.014205 0.02667 0.023949 -0.00063554 -0.00035944 -0.0052286 0.018801 -0.025059 0.013854 0.029469 -0.008958 -0.0023015 0.018229 0.01796 0.022797 -0.0098071 0.02003 -0.0057636 -0.0078112 -0.00086593 0.011941 -0.028414 -0.013933 -0.024097 0.025466 -0.016392 -0.026095 0.033591 -0.026965 
vanilla 0.010494 -0.025807 0.024448 0.0084672 -0.012641 -0.011047 -0.0071478 -0.0086361 0.048653 0.019268 -0.0095505 -0.005719 0.0090264 0.024146 0.024122 -0.0018602 0.014238 0.013101 -0.042009 0.010881 0.015972 0.0018891 0.013312 0.015245 0.0091727 -0.0053363 0.011799 0.0083759 0.0080164 -0.012318 0.013403 -0.0059537 0.016266 -0.0084459 -0.0057866 -0.015241 -0.0016379 0.028298 0.0092535 -0.0023535 -0.01111 -0.0054403 -0.00030525 -0.028101 -0.003767 0.00093841 0.0026491 0.010487 0.0059031 -0.0079531 0.010488 0.028242 -0.013528 -0.016754 -0.01134 0.018894 0.019861 0.0012138 0.0034762 -0.0054555 -0.0071091 -0.0093482 -0.017714 0.010469 -0.01405 0.021105 -0.0053848 -0.015807 0.0080074 -0.015548 -0.013649 0.018027 0.024657 -0.018583 0.0030066 -0.019036 0.00948 -0.034914 0.004158 -0.0070341 0.013333 0.018343 -0.014651 -0.01453 0.011 -0.013014 -0.040666 -0.0022123 -0.013246 -0.0012966 0.041815 0.012982 0.051129 -0.013355 0.0055352 0.018281 0.003087 -0.0073862 0.0097979 -0.0095373 
vegetable_oil -0.0207 -0.0098604 -0.0039498 -0.0012683 0.010005 0.014924 -5.712e-05 0.010713 0.01631 -0.016031 0.0036203 -0.0055121 0.021586 0.015955 -0.0054799 -0.00020462 0.021006 -0.0068302 -0.032462 0.0032289 0.0054012 -0.0087397 -0.012927 -0.010599 -0.011798 -0.019492 0.011921 -0.0097895 0.013591 0.013954 0.015295 -0.011959 0.023751 0.0029524 -0.0058951 -0.009352 -0.020027 -0.012289 0.039753 -0.0074669 -0.0037725 0.011094 -0.0016886 0.0074351 0.0048654 0.012076 -0.012046 0.023554 0.015751 -0.0021806 0.028151 -0.0070738 0.0099928 0.011877 -0.030445 0.0099095 -0.025261 0.013852 -0.014837 0.0086441 0.041639 0.014285 0.024844 0.00031789 -0.00838 0.0039128 0.010833 -0.0011473 0.018871 -0.028271 -0.0052349 0.017104 -0.0011293 0.010422 -0.0066396 -0.020398 0.0072552 -0.036836 0.039712 -0.010641 0.008324 -0.0062496 -0.020244 -0.017272 -0.016856 0.024555 -0.015127 -0.01901 0.00053854 0.0055567 0.00090527 -0.02008 0.030416 -0.026432 0.01578 0.019641 -0.010737 -0.013065 -0.0052424 0.019347 
cayenne 0.024421 0.010116 0.041912 0.016211 -0.011757 0.011441 -0.0039419 0.024337 -0.037473 -0.027011 -0.022078 -0.0098323 -0.010091 0.00203 -0.03327 -0.0089184 0.0035216 0.03365 -0.036038 0.0081531 -0.015812 0.0057383 -0.0049074 -0.030352 0.012824 -0.016139 0.009879 -0.0057489 -0.021709 -0.0035661 -0.034131 -0.01743 -0.0099335 -0.0094317 -0.010376 0.02104 0.00081366 0.010784 0.0085106 -0.024329 -0.028039 0.011687 0.010621 0.014883 -0.03413 0.023993 -0.012651 -0.042941 -0.017184 0.0061217 0.005315 -0.014488 0.016077 -0.0087885 0.016876 0.011569 -0.031312 -0.024516 0.00028665 0.0038284 -0.015568 -0.0073101 -0.021276 0.0021876 0.015916 -0.049554 -0.014897 0.0049257 -0.01539 0.0068145 -0.0067488 -0.0094432 -0.010626 0.021535 -0.0016115 0.0054309 -0.030454 0.006504 0.013325 0.044736 -0.06223 -0.025488 0.015664 0.043296 -0.0045526 0.015665 0.0078812 -0.037638 0.034273 0.047865 -0.023015 -0.013722 -0.0068613 0.019171 0.039006 0.016524 0.0026468 0.011516 -0.018261 -0.018797 
corn -0.008322 0.0087745 0.028176 -0.023578 0.005031 0.07095 0.032873 0.023173 0.031736 0.017184 0.032505 -0.0076984 0.060385 0.012497 -0.0077106 0.0038329 0.0062214 0.051646 -0.080662 -0.0095447 0.044821 -0.001732 -0.040134 0.025988 -0.010324 -0.02831 0.001709 0.027126 0.018361 -0.0014802 -0.012802 -0.032686 0.042991 0.0052957 -0.017817 -0.030415 -0.0057176 0.0076399 0.019108 0.0018894 0.0079562 0.054621 0.017707 0.020474 0.0084566 -0.013018 -0.0084969 0.024522 0.036847 -0.010392 0.060704 0.033286 0.0004592 -0.024434 0.0032948 -0.010533 -0.048307 0.052261 0.028043 -0.013092 0.048381 0.025712 0.00016953 -0.0080399 0.027993 -0.00053632 0.035824 0.013928 0.012451 -0.032533 0.0097921 0.0059201 0.010526 0.017522 0.03219 -0.015978 0.014736 -0.073364 0.070606 -0.0094394 -0.024441 0.00022211 0.0010631 -0.0046264 -0.0011179 -0.0028525 0.028759 -0.029188 0.035092 -0.036574 -0.0038133 0.0049551 0.068229 -0.0045663 -0.024714 0.0039428 0.0051493 -0.012665 0.013878 -0.017452 
olive_oil -0.034253 0.0061258 0.020381 0.011285 -0.048557 -0.015974 -0.0013681 -0.0031212 0.060319 0.0156 -0.015031 -0.011469 0.0035117 0.038376 0.01045 0.00098476 0.010437 -0.007578 -0.06082 0.038058 0.034221 0.042056 0.0019322 0.025148 -0.0011544 0.010687 -0.021176 -0.01223 -0.01097 0.0030162 0.013096 -0.075423 0.028394 -0.0063932 -0.0065979 0.0087457 0.0073905 0.024003 -0.01627 0.058091 -0.039518 0.015363 0.013751 -0.054794 0.00058798 -0.038854 0.017139 -0.030442 -0.015464 -0.020389 -0.033367 0.043894 0.0033493 -0.0044305 0.013646 0.031015 0.033771 -0.01546 -0.0088868 -0.044052 -0.017314 -0.025109 -0.057641 0.027689 -0.027845 0.048912 0.0069412 0.002437 -0.00051701 0.018084 -0.0021582 0.042892 0.029332 -0.017348 0.029912 0.017684 0.016064 -0.048263 0.0026127 -0.044428 0.010313 0.015346 -0.012054 0.019562 0.0096676 -0.0092324 -0.029314 0.027211 -0.039793 -0.0013073 0.050009 -0.0047476 0.050977 -0.027449 -0.032076 0.01744 0.0027712 0.026191 -0.029767 -0.033688 
black_pepper -0.062697 -0.0068215 0.030491 -0.021102 0.016426 0.11031 0.01261 0.065894 0.010333 0.030003 0.045231 -0.023927 0.12457 0.034538 -0.043308 -0.03546 0.052891 0.079717 -0.14833 -0.020601 0.10191 -0.0057119 -0.072151 0.032777 -0.035291 -0.061235 -0.046173 0.03513 0.058276 -0.027747 -0.019124 -0.016816 0.077643 0.012607 -0.0055787 -0.027003 -0.0085016 0.028302 0.035146 0.00090996 0.063846 0.090865 -0.0099089 0.070632 -0.005824 0.05087 -0.0095648 0.054299 0.044722 -0.0062387 0.11913 0.010887 -0.002524 -0.037144 -0.0053391 -0.015324 -0.11203 0.11924 0.043038 0.0018232 0.12179 0.081157 0.052644 -0.028309 0.077849 -0.031673 0.035807 0.027376 0.031866 -0.088675 0.012611 -0.038937 -0.0027283 0.056535 0.04659 -0.031014 0.0025927 -0.086175 0.11269 0.062712 -0.094749 -0.071815 0.016778 -0.055101 -0.065889 0.027144 0.023903 -0.080594 0.057853 -0.043616 0.00616 -0.00097322 0.059555 -0.0044496 0.03506 0.019558 -0.004882 -0.010156 0.011478 -0.033033 
vinegar 0.039574 0.025198 0.051095 -0.025753 0.082975 0.065662 2.1048e-05 0.014453 -0.063385 -0.018974 -0.0084195 0.058552 -0.086138 -0.04518 -0.06457 -0.013729 0.0016301 -0.006658 0.046003 -0.028068 -0.10587 -0.026529 0.020558 -0.082648 -0.014395 -0.022101 0.068561 -0.010014 -0.011236 -0.0022957 -0.0070534 0.10031 -0.033613 0.028981 0.0099676 0.022214 -0.043355 -0.029142 0.024792 -0.030016 -0.002561 0.025586 -0.036872 0.10313 -0.0090273 0.016793 0.022441 0.0092433 0.0099553 0.08196 0.045078 -0.03835 -0.036172 0.035353 -0.057167 -0.043149 -0.073709 0.012774 -0.017637 0.085437 0.029244 0.029054 0.070253 -0.030851 0.038353 -0.079605 -0.031443 -0.011263 0.021769 -0.040184 -0.01263 -0.015416 -0.027807 0.040792 -0.050884 -0.031765 -0.016475 0.0086449 0.054187 0.080015 -0.014531 -0.0083767 -0.0036022 0.021154 0.020793 -0.017702 0.057962 -0.05041 0.063077 0.028221 -0.087635 0.00079551 -0.036873 0.066865 0.064471 -0.012343 -0.033219 -0.012169 0.0017688 -0.00081831 
rice -0.0044023 -0.017089 -0.016197 0.023095 -0.021461 -0.057959 -0.0038297 -0.051759 0.04925 0.034846 -0.018464 -0.038238 0.037554 0.023792 0.057514 0.018363 -0.015774 -0.0057211 0.027922 -0.0026673 0.062266 -0.019916 0.01462 0.051039 0.012207 0.032062 -0.01857 -0.0047364 0.0036283 0.0112 0.0093748 -0.012169 -0.0055948 -0.0033879 0.016709 -0.017292 -0.0050344 0.032163 -0.017725 -0.00043762 -0.00137 -0.031402 0.043099 -0.060477 0.0086041 -0.0063089 -0.021584 0.026235 -0.047706 -0.041142 -0.015862 0.014728 0.015322 -0.0065006 0.017491 0.033924 0.071514 -0.014406 0.015832 -0.01808 -0.047444 -0.0043183 -0.045689 0.038117 -0.034046 0.059895 -0.013428 -0.02567 0.0077117 0.033106 0.0008571 0.014112 0.005269 -0.026245 0.013546 0.00044011 -0.010846 0.0076154 -0.037761 -0.07919 0.026999 0.020333 0.0079634 -0.067736 -0.016529 0.0023723 -0.032453 0.026523 -0.031993 0.0012934 0.043365 0.018631 0.019136 -0.044216 -0.019065 0.021935 0.014216 -0.041016 0.014621 0.021912 
ginger -0.0048131 -0.019356 -0.045489 0.0084972 -0.0047912 -0.042087 -0.020233 0.015222 -0.041825 -0.036696 -0.033799 0.0072712 -0.023571 0.0081465 0.017325 -0.016268 -0.018454 -0.044276 0.061841 0.013237 -0.0095035 -0.011103 -0.0077591 -0.033136 -0.023838 0.016154 0.0037522 -0.0092197 -0.0026615 0.018126 0.01476 0.014384 -0.0089816 0.00098438 0.020382 0.03411 0.016008 0.012233 -0.0060386 -0.018304 0.01187 -0.034792 0.011122 -0.030649 0.007416 -0.034158 0.0036845 -0.012246 -0.02178 0.0073053 -0.071348 -0.0079356 -0.0030983 -0.015013 0.0051669 0.0062991 0.033659 -0.017557 -0.013164 0.0032303 -0.025732 -0.013119 0.008048 0.011732 -0.013106 0.016645 -0.0087311 0.0071438 -0.012125 0.023781 0.017966 0.0095976 5.3996e-05 -0.0056733 -0.0062316 0.010004 -0.011509 0.047339 -0.021466 -0.0091955 0.023224 -0.00075535 -0.011978 0.026891 0.01797 -0.0004277 0.0073944 0.032576 -0.03889 0.005059 0.015082 0.0044506 -0.028762 0.0022359 -0.030051 0.0048598 -0.020423 -0.025384 0.0083265 -8.5308e-05 
lemon 0.012545 0.030396 -0.0038037 0.00057787 0.0065612 -0.021126 -0.033732 0.029381 -0.036328 -0.0090243 0.011278 0.036439 -0.047332 -0.0050606 -0.050638 -0.0019802 -0.010849 -0.0016078 0.043984 -0.0012971 -0.039833 -0.0022811 0.0040962 -0.031058 0.0014925 -0.022835 -0.0084962 -0.0043339 0.0043028 -0.015476 -0.0064211 0.012153 -0.022485 0.013328 0.00095075 0.012624 -0.0083441 -0.027234 -0.027001 0.027388 0.00058092 -0.0055659 0.01764 0.021274 0.016882 -0.041534 0.0013006 -0.0068187 -0.010993 -0.00073109 -0.021044 -0.019352 -0.014373 0.034288 0.018311 -0.036627 -0.018541 0.027535 0.0041511 0.051327 -5.9181e-05 0.0025035 0.021671 -0.0075296 0.0097865 -0.027447 -0.029725 0.007988 -0.0038369 -0.0072456 -0.025236 0.012738 -0.018055 0.013655 -0.013811 -0.013807 -0.0085926 0.0066205 -0.039772 0.023381 -0.042928 -0.017006 0.010391 0.028584 0.017687 0.0099718 0.042448 0.015937 0.0055139 0.048601 -0.017315 -0.024678 -0.046359 -0.0016105 0.014573 -0.022029 -0.0084904 0.00043636 0.011463 0.027014 
parsley 0.015457 0.068597 0.027191 0.0034892 -0.043947 0.033593 -0.0054231 0.0068054 0.0059861 0.0045956 0.0047214 0.041468 -0.063296 -0.033952 0.01937 0.0054858 -0.0025649 0.0047939 0.068245 -0.018657 -0.047781 0.00078854 0.062897 -0.011145 0.032503 0.030174 0.016778 -0.012209 -0.034608 -0.035569 0.028223 -0.030677 -0.043149 -0.0011799 -0.00072899 0.026984 0.039697 -0.0070186 -0.069653 0.01398 -0.0062091 -0.033097 -0.011658 -0.028905 0.024118 -0.04501 -0.009468 -0.030051 -0.055831 -0.019916 -0.029417 -0.0012469 -0.00022155 0.0012424 0.029183 -0.011609 0.023017 -0.022041 0.0097128 0.013976 -0.082098 -0.038735 -0.045082 0.043742 -0.04425 -0.016984 -0.0058701 -0.0064175 0.0093248 0.031177 -0.049991 -0.029587 0.010236 -0.01236 -0.023676 -0.015199 -0.009508 0.0247 -0.055359 0.034464 0.022936 0.00085012 0.004198 0.028548 0.031773 0.019121 -0.014601 0.029282 -0.029227 0.029567 0.02256 -0.029009 0.017065 0.022265 0.0014776 -0.0068862 0.0039355 0.035511 -0.007067 0.0035011 
cinnamon 0.0081629 0.027478 0.01348 0.00875 0.022041 0.01067 -0.0032146 -0.013567 0.024821 0.021506 0.0015649 0.0084153 -0.016817 -0.0027218 -0.0042766 0.010642 -8.3765e-05 -0.011228 0.0074092 0.0043241 -0.014913 -0.024748 0.013931 -0.014272 0.020856 -0.0024054 0.011074 -0.0085796 -0.015347 0.0066036 -0.0045976 -0.0047245 0.021162 0.0049976 -0.015047 -0.0207 -0.020621 0.0067113 0.015876 -0.005997 -0.019958 0.018403 -0.025694 0.024729 -0.00391 -0.0018622 -0.017321 -0.0052875 -0.0032165 0.0079536 0.010386 -0.0024891 0.0072837 0.01991 -0.012324 0.0055228 -0.0015458 -0.013836 -0.010866 0.024211 -0.0075473 -0.012271 0.0031289 0.0057688 -0.012083 -0.016307 -0.0046723 0.020063 0.01684 -0.01401 -0.0062854 -0.014502 -0.013857 -0.0025575 -0.0057169 0.0027696 0.0099691 -0.019513 0.0055897 -0.0071438 -0.0058841 0.014624 -0.007211 -0.012533 -0.033253 -0.0010435 0.0023413 -0.0029052 0.0054622 0.016277 -0.010523 0.0012972 0.0082713 -0.005589 0.013515 -0.0015968 -0.0067702 0.010634 -0.015419 0.010181 
cilantro -0.038577 0.0049005 -0.0038119 0.0071048 -0.03489 -0.0023184 -0.0024139 0.0044771 0.040983 0.016126 0.0050646 -0.021474 0.018742 0.018078 0.016885 -0.0018225 0.012563 -0.018228 -0.011847 0.0089917 0.022581 0.028274 -0.0061963 0.048221 -0.0018431 0.0095499 -0.022547 -0.00060756 -0.0074713 0.0079303 0.018673 -0.021409 0.033148 0.00059475 -0.015537 -0.0010462 0.00029345 0.0084847 -0.019689 0.031437 -0.027704 -0.0013986 -0.0026498 -0.026021 0.021153 0.0068758 0.0064859 -0.0055812 -0.0091141 0.003544 -0.0034811 0.0040912 -0.007104 0.0035737 -0.00032366 0.035081 0.030574 -0.011743 -0.0026276 -0.034778 -0.009805 -0.0038489 -0.022878 0.028279 -0.016557 0.031596 0.000714 -0.0051338 -0.0034976 0.022665 0.013663 0.020287 0.031629 -0.020604 0.021528 0.021123 0.013572 -0.034656 0.0057642 -0.031564 0.017321 0.005529 -0.006393 -0.0046248 -0.019519 0.012479 -0.032872 0.0054231 -0.023349 -0.016365 0.0072459 -0.0061361 0.048404 -0.028632 -0.0063476 0.030991 -0.0018563 0.011159 -0.013309 -0.0060976 
soy_sauce -0.0023783 -0.040093 -0.0010751 0.011503 -0.0013155 -0.021981 -0.029766 -0.011045 0.020498 -0.0055464 -0.0096829 -0.019038 0.021439 0.013429 0.022759 0.016999 0.020357 0.0046721 -0.040185 -0.005476 0.028832 -0.0070746 -0.0024459 0.014792 -0.012905 -0.0009804 0.017292 -0.0078895 0.0059198 0.012294 0.010991 -0.0031192 0.00026132 -0.0044154 0.0029805 -0.021084 -0.013078 0.0046297 0.0072962 -0.015877 -0.02214 0.00086279 0.010132 -0.0066146 -0.0042778 -0.0011952 0.0091399 0.020514 0.0062057 -0.0065231 0.00859 0.012774 -0.0015695 -0.018465 -0.037904 0.0034279 0.0063741 -0.0015429 0.015434 0.0028682 0.029437 -0.006583 -0.0082625 0.0069048 3.7596e-05 0.026899 0.00070785 0.0018656 -0.0028643 -0.027765 -0.0061953 0.0078991 0.004772 -0.01063 -0.012648 -0.027031 0.010495 -0.020473 0.011114 -0.015606 0.029684 0.00012432 -0.020804 -0.015328 0.0060836 -0.0021421 -0.015162 0.0022176 -0.022496 0.011262 0.038164 0.010826 0.038661 -0.017133 0.014968 0.015375 -0.016393 -0.015972 -0.0047721 0.0061734 
onions -0.0083755 -0.0075129 0.010367 -0.0070053 -0.0027792 0.035145 0.027436 0.020269 0.00057944 -0.0055496 0.0085947 0.019237 -0.0039995 -0.0069013 0.0093268 -0.015175 0.0069151 0.020629 -0.015455 -0.0048586 -0.0085491 -0.010872 0.0089549 -0.013397 0.0040803 -0.013903 0.020328 -0.0069464 0.0085003 -0.01001 0.0039931 0.0076692 -0.0034295 0.0055653 -0.0044119 -0.0051084 0.0099263 0.0060494 0.0084862 -0.014098 0.013169 0.0061556 -0.0017935 0.0023443 -0.014146 -0.011957 -0.0055238 -0.010322 0.0054186 0.017486 -0.0012856 0.0054489 0.0020791 -0.017077 -0.013174 0.0019754 -0.004522 -0.0094182 -0.017392 0.0066159 0.012215 0.012806 -0.0016754 0.0087419 -0.0074575 -0.011705 0.014821 -0.0057062 0.015256 -0.015188 0.0016539 -0.0049755 -0.0013612 0.0091181 -0.0093038 -0.013862 0.0089879 0.0035001 0.042381 0.019806 -0.0080642 -0.014945 -0.0021297 -0.0048252 0.015061 -0.0062324 0.0027398 -0.0079906 -0.0010753 0.0035305 -0.0062953 0.0089451 0.030627 0.012046 -0.00039148 0.0071749 0.0064622 0.0096815 0.011252 -0.016542 
beef 0.032636 0.011557 0.070638 0.0046282 -0.027316 0.064298 0.045784 0.0025284 0.092707 0.067628 -0.005086 -0.02308 0.037136 0.042578 0.017193 0.010778 0.018277 0.10102 -0.087126 -0.036609 0.039063 -0.021433 0.01091 0.044302 0.054956 -0.029958 0.013557 0.0236 0.0025777 -0.042096 0.0019145 -0.058599 0.020413 0.01871 -0.021769 -0.019734 0.0059415 0.044855 0.011976 -0.025429 -0.017692 0.0099284 0.022517 -0.038778 -0.00040725 -0.027399 -0.041765 -0.0068352 -0.010743 -0.026049 0.073607 0.05963 0.0043035 -0.068926 0.00066223 0.029422 0.01048 -0.012243 0.014917 -0.0048927 -0.070005 0.00048256 -0.09685 0.069694 -0.0051321 0.006423 0.034362 -0.0098974 0.011172 -0.00085948 -0.032064 -0.0058257 0.026491 -0.017185 0.020372 -0.032715 -0.016961 -0.080649 0.022262 0.00074707 -0.037458 0.022002 -0.012232 0.0047296 0.025875 -0.023361 -0.020941 -0.030586 0.014469 -0.013235 0.031481 -0.018076 0.085463 0.019512 0.026083 0.0484 0.023751 0.0050188 -0.0059457 -0.028585 
cumin 0.031611 0.035097 0.061504 -0.056968 0.084911 0.10843 -0.001726 -0.012896 -0.045066 0.028745 0.0099444 -0.019536 -0.0096344 -0.05519 -0.059637 0.032554 0.0042748 0.051386 0.019154 -0.074274 -0.037563 -0.059012 -0.015861 -0.027709 -0.01582 -0.041052 0.042971 0.015398 0.039777 -0.04048 -0.05991 0.13268 -0.0035515 0.025664 0.0094116 -0.027182 -0.0081389 -0.034822 0.044903 -0.016006 0.037402 0.032969 -0.042056 0.11981 -0.036378 0.040787 0.013189 0.04205 0.041313 0.056521 0.12804 -0.033279 -0.054818 0.00065428 -0.059382 -0.041508 -0.064156 0.041619 -0.017522 0.062904 0.070008 0.0020976 0.059236 -0.060139 0.046589 -0.07636 0.017162 -0.030399 0.025316 -0.057286 -0.0061017 -0.029039 -0.047345 0.05387 -0.026447 -0.057464 -0.026172 -0.002813 0.071839 0.10017 -0.053216 -0.019714 0.012186 -0.047994 -0.020826 -0.0097659 0.015652 -0.096083 0.10894 0.0011987 -0.087436 0.0014244 -0.067572 0.057447 0.10228 0.0080472 0.005489 -0.014039 0.046911 -0.0046698 
cane_molasses 0.01611 0.0078353 0.0010127 -0.0052649 -0.0066194 -0.0029989 0.010376 0.013516 0.00066238 0.021306 0.0034829 -0.0086971 0.031918 0.0032845 -0.013511 0.026479 0.0066284 0.022431 -0.017977 -0.0065729 0.034873 0.023188 -0.013365 0.017088 -0.0098808 -0.010695 -0.029059 0.0017487 -0.00099491 -0.028034 -0.02516 0.00136 0.0067214 -0.0077294 6.9932e-05 -0.030165 0.0052891 0.014135 -0.0068925 0.0048733 0.027381 0.024007 -0.011915 -0.011648 0.010122 0.021968 0.0007123 0.0056107 0.0098955 -0.021183 0.014857 0.0067691 -0.0032435 -0.0071999 0.019534 -0.022539 -0.0091344 0.023014 0.035625 -0.011657 0.0010768 0.032891 0.011188 -0.0058829 0.011316 -0.024189 0.0097439 0.0031947 -0.0053486 0.0002145 -0.0015119 -0.013209 0.010308 0.0012726 0.017953 0.0077045 -0.025617 0.0017995 -0.0051238 0.008151 -0.023162 -0.0090702 0.025236 -0.025289 -0.00022354 0.0073244 0.019057 0.0015163 0.0030683 -0.011344 0.024689 0.0096483 -0.030223 0.0097673 -0.00093247 -0.015766 0.011234 0.0076407 -0.0031326 -0.0066284 
water 0.0068648 -0.0014366 0.022355 0.018779 -0.0055726 -0.029584 -0.014031 -0.0085013 0.031729 -0.013274 -0.015783 0.0063807 -0.016479 0.0021164 0.012123 0.0062192 0.0095475 -0.020381 -0.050545 0.02645 -0.015318 0.0071538 0.024924 -0.0061155 -0.0057183 -0.011127 0.0063726 -0.017128 -0.035985 0.00055598 0.014543 -0.015828 0.016941 -0.007117 -0.034759 0.002373 -0.030072 -0.0092849 0.0034474 0.01694 -0.036881 0.0074007 0.0064973 0.015506 -0.015059 -0.0061623 0.028058 -0.0025029 -0.0062602 0.0033487 -0.026108 0.014057 -0.00050658 0.060103 -0.028931 0.0031061 0.0022914 -0.032063 -0.0028889 0.030434 0.0043883 -0.013824 0.0071776 0.00028201 -0.027189 0.0073945 -0.019325 0.013048 -0.0058147 -0.022114 -0.017268 0.026661 0.0080018 -0.030348 -0.0067242 0.0016398 0.02338 -0.015547 -0.0033728 -0.022039 0.017117 0.0020511 -0.0074384 0.010674 0.006659 -0.0091157 -0.027 0.022212 -0.038236 0.028537 0.016024 -0.0022346 0.022066 -0.038828 0.0067414 0.0099257 -0.013405 0.0069201 -0.013767 0.008683 
vegetable -0.028338 -0.031396 -0.029526 -0.0046369 0.0071103 0.0029854 -0.010028 0.0031291 -0.033698 -0.030305 0.018194 -0.022069 0.03929 -0.0096285 0.0056484 0.014574 0.013019 -0.01036 -0.0012026 -0.013587 0.013589 -0.013418 -0.0067351 -0.014112 -0.014167 -0.0052086 -0.017583 0.0092545 0.030071 -0.006228 0.0064422 0.017582 0.015907 0.008845 0.0083622 -0.019554 0.0035905 -0.012148 0.016555 -0.012046 0.019717 -0.018566 -0.0057219 0.022622 -0.012084 -0.0011453 -0.0097858 0.041907 0.013567 -0.0017782 0.0298 -0.031018 0.0019643 -0.0049002 -0.021912 -0.013518 -0.015311 0.0083342 -0.0045089 0.021387 0.059384 -0.0054126 0.024481 -0.025995 0.010128 0.0066831 0.0032802 0.012849 0.015991 -0.032579 0.0046172 -0.0051127 -0.021861 0.020016 -0.018342 -0.018096 0.0066834 -0.0013472 0.0046049 0.011165 -5.0538e-05 -0.012009 -0.010591 -0.03086 -0.023687 0.020671 0.001956 -0.011039 0.011979 0.011922 -0.0048826 0.0051589 -0.0081862 -0.022159 0.015781 -0.00041191 -0.0099613 -0.010782 0.018535 0.023915 
basil 0.035733 0.021925 0.019988 -0.0049421 -0.019856 -0.016397 -0.0042927 0.0016652 -0.0014812 0.017536 -0.0018714 0.027378 -0.063471 -0.0048949 -0.020908 -0.0029777 -0.021201 -0.0095621 0.018721 0.015025 -0.030178 0.015552 0.016113 0.0079401 0.021776 0.01672 0.013949 -0.0047017 -0.030309 -0.00069731 0.0087928 -0.0058693 -0.041455 -0.0020491 0.02108 0.025785 0.010933 -0.0052373 -0.036937 0.019068 -0.0087872 -0.012303 0.0017756 -0.018735 0.0059531 -0.0097865 0.0057834 -0.040339 -0.0099571 -0.0089099 -0.018192 0.0298 -0.01909 0.0088235 0.025297 0.002439 0.010521 0.0022973 0.0082236 -0.0088347 -0.064373 -0.021228 -0.043281 0.0055056 -0.0072319 -0.018469 -0.0041899 -0.025789 -0.022523 0.043355 -0.032625 0.011704 -0.0015459 -0.020544 0.020282 0.0025812 -0.0050363 -0.0069703 -0.043036 0.0023635 -0.0046405 0.025844 0.0063532 0.04223 0.039656 -0.017744 -0.0016652 0.0052174 -0.015601 -0.00174 0.0064237 -0.023982 -0.015067 0.029535 -0.00015644 0.010866 0.0056999 0.02437 0.0043493 -0.0078196 
bread 0.0036083 0.012454 -0.011972 -0.0025898 0.01503 -0.015508 -0.017506 0.020539 -0.019025 -0.015877 0.013089 0.033987 -0.046238 -0.015577 -0.030215 -0.014247 0.003491 -0.033199 0.021357 0.027803 -0.037055 0.014769 -0.0032998 -0.023881 -0.011535 -0.00013754 -0.00046721 -0.019892 -0.010074 0.023159 0.018025 0.014894 -0.0061548 -0.00068767 -0.0086616 0.032549 -0.0063791 -0.025455 -0.0049531 0.028202 -0.0010828 0.0046544 -0.024009 0.036045 0.0092207 0.003308 0.030191 -0.017683 0.025433 0.010532 -0.040632 -0.011332 -0.0078354 0.036451 -0.023597 -0.019075 -0.021735 -0.0088047 -0.026933 0.015983 0.0085664 -0.0060682 0.04429 -0.013745 -0.013184 -0.018195 0.0016228 0.012693 -0.013556 -0.0073936 -0.005332 0.017518 0.0026794 0.012869 -0.015213 0.016001 0.019585 0.014561 -0.011046 0.0028606 0.0095802 -0.013357 -0.011606 0.037887 0.0019425 0.0073605 0.0082444 0.024991 -0.034145 0.01005 -0.015264 -0.025603 -0.014299 -0.0037578 -0.0066517 -0.017472 -0.032861 0.023467 -0.019036 -0.006691 
sugar 0.0015762 -0.0059572 -0.0012931 0.017439 -0.039941 -0.037836 0.012836 0.017049 0.0018022 -0.014448 -0.0021146 0.025591 -0.047232 -0.014347 0.028557 0.016064 0.0052305 0.027258 0.016081 -0.0025927 -0.02307 0.046123 0.035644 -0.01554 0.024669 0.032218 0.052787 -0.008458 0.013363 0.0019719 0.013645 -0.0068203 -0.059478 -0.01055 0.057209 0.030284 0.030259 0.0021238 -0.033523 0.0028795 -0.020896 -0.041051 0.016046 -0.042639 0.012014 -0.070207 0.01628 -0.040476 -0.023322 -0.022266 -0.057891 0.038412 -0.021436 -0.021348 -0.010797 -0.023299 0.061732 -0.034839 -0.023979 -0.019276 -0.058739 -0.031786 -0.076498 0.016824 -0.024858 0.030246 0.0023792 -0.04618 0.018868 0.052969 -0.029088 0.011359 0.036482 -0.0018776 -0.011225 -0.018913 -0.013703 0.01342 -0.0056646 0.016755 0.038049 -0.016924 -0.012364 0.067092 0.040516 0.021105 -0.015937 0.0042289 -0.0054804 0.017074 0.032554 0.00060228 -0.033847 0.032561 -0.040178 0.051664 0.023321 -0.015223 0.026874 -0.012242 
lime 0.014382 0.046119 0.0041635 -0.016411 0.011009 0.00067684 0.016376 -0.019099 -0.0018648 0.051913 -0.0013246 0.031636 -0.05699 -0.022674 0.0053497 -0.0050352 -0.020699 -0.016153 0.070365 -0.0064243 -0.033112 -0.0026597 0.013719 0.033997 0.025271 0.024495 -0.019257 0.0043063 -0.019924 0.0080241 0.023711 0.032598 -0.019395 0.019564 0.011842 0.027104 0.029403 -0.0018595 -0.04635 0.028422 0.0067419 -0.020301 -0.029345 -0.010542 0.013322 -0.015789 0.010219 -0.036948 -0.0042659 0.029113 -0.024773 -0.00013428 -0.020902 0.017655 0.025795 0.00073657 0.017049 -0.02291 -0.012565 -0.011818 -0.038085 -0.00058118 -0.014082 -0.008942 -0.0070302 -0.0025733 0.020925 0.021883 -0.01605 0.045015 0.011341 -0.0028189 -0.0017445 -0.012811 0.013094 0.036277 0.022967 0.011079 -0.039639 -0.0031221 0.00099026 0.034368 0.0050308 0.018763 0.00078439 -0.041378 -0.0022548 0.023334 -0.02915 -0.055287 -0.01717 -0.022186 -0.032601 0.039699 -0.0066169 -0.045983 0.017157 0.028415 -0.0051168 -0.024906 
oregano -0.01736 -0.00032407 -0.0042535 -0.0035347 -0.006633 -0.0042765 0.00092149 0.019068 -0.022802 -0.02147 0.0037933 0.0066649 0.00063748 -0.0087664 -0.00091521 -0.011245 -0.0012434 -0.010275 -0.0069868 0.0089452 -0.0062975 -0.0033653 -0.008368 -0.011 -0.010558 -0.0034318 -0.0003913 -0.0055976 -0.00024047 -0.0090729 -0.0043366 -0.0052246 0.0040858 -0.0051823 -0.0062864 -0.0051419 -0.0024658 -0.016105 -0.0060641 0.0081866 0.012284 -0.010721 0.0055757 -0.013109 0.001658 -0.00093717 -0.012083 -0.0049182 -0.001745 0.0071112 -0.0098744 -0.0079051 0.0046375 0.011054 0.020937 -0.0088821 -0.0067337 0.0025964 -0.00078647 -0.0058908 0.011769 0.0031436 0.0081341 -0.0061508 -0.0042031 -0.0091944 -0.0032294 -0.00040238 -0.0071181 0.0025672 0.018179 0.008921 0.0039809 -0.0046083 0.0055347 -0.0062386 -0.0091091 0.015945 0.0053155 -0.00097252 -0.0082206 -0.002596 -0.0047273 0.0093448 0.010924 -0.00028123 0.014077 -0.0016519 -0.0022479 0.00083385 -0.014782 0.005646 -0.011188 0.0035076 -0.0070203 -0.0093052 -0.0018015 0.0032706 0.0074627 0.0077372 
mustard -0.012356 0.0087164 -0.0058993 -0.00055047 0.024532 -0.0020597 -0.027924 -0.0059758 -0.045739 -0.020774 0.020314 0.0024061 -0.011225 -0.010544 -0.032152 -0.015588 -0.0037503 -0.042225 0.023369 0.0095838 -0.02718 -0.016886 -0.011762 -0.013361 -0.016476 -0.0099672 -0.023045 -0.002635 -0.0085972 0.00013415 -0.0090803 0.028592 0.013601 -0.0052147 -0.0097439 -3.9593e-05 -0.0032999 -0.029942 -0.0051881 0.028328 -0.0088825 0.010819 -0.012379 0.043652 -0.0096308 0.026613 0.015715 0.0031756 0.013089 0.0030853 -0.0010933 -0.022411 -0.0028137 0.053524 -0.003916 -0.020683 -0.025588 0.011042 0.0073743 0.024617 0.035695 -0.0080351 0.053836 -0.033554 0.013737 -0.016436 0.0027855 0.024233 -0.013272 -0.032011 -0.0015523 0.00091657 -0.015774 -0.0029637 -0.0048388 0.0042664 0.023928 0.0038079 -0.0021477 0.0013536 -0.008746 -0.00082438 0.0073116 0.0026393 -0.019763 0.0091347 0.0010258 0.006373 -0.01022 0.012645 -0.0153 -0.0072327 -0.017182 -0.0097584 0.0087298 -0.027555 -0.0087448 0.026056 -0.0093242 0.0198 
bell_pepper 0.001591 -0.016963 -0.016339 -0.0022146 0.004343 -0.023558 -0.016927 0.025287 -0.020537 -0.032111 -0.024762 0.0024503 -0.015078 0.0045643 0.0077405 0.015122 0.0099226 -0.0089682 -0.018364 0.011295 0.00080467 0.02421 0.0088287 4.2851e-05 -0.011942 -0.0020089 -0.018266 -0.013056 0.010782 0.025076 0.0080615 0.0031409 0.012994 -0.0084281 0.020081 0.020301 -0.0015226 -0.033182 -0.018165 0.025541 0.0013965 -0.028008 0.021867 0.0087783 0.0058864 -0.010169 0.012096 0.0026671 -0.004657 -0.0056568 -0.0019339 0.0044419 -0.01583 0.010377 -0.030117 -0.014218 0.0001236 0.0095068 -0.013238 -0.010706 0.016331 -0.0013825 -0.016634 -0.0033746 -0.0057843 0.0031697 -0.013856 -0.0082254 -0.0037889 0.023149 -0.011918 0.028331 0.014498 0.014017 -0.002197 -0.0088996 -0.0011095 -0.00056473 -0.0019733 0.0083324 0.011954 -0.028654 0.0035351 0.034236 0.0010782 0.035237 0.00060502 -0.022659 0.0031468 0.011652 0.012443 -0.01169 -0.00322 -0.012222 -0.0007583 0.045113 -0.019654 -0.010875 -0.0011041 -0.0079583 
celery -0.025872 -0.018591 0.021143 0.0040124 4.2736e-05 0.012715 0.012796 0.013385 0.010305 0.0012581 0.011863 -0.02327 0.049252 0.01434 0.0011834 -6.0581e-05 0.011172 0.035071 -0.06548 -0.012248 0.040553 -0.0053504 -0.041471 0.005501 -0.0035978 -0.02024 -0.023397 0.021342 0.027475 0.0057011 -0.017943 -0.021391 0.031955 0.0075114 0.0015067 -0.042361 -0.011832 0.013889 0.033952 -0.017064 0.01382 0.0069592 0.018059 0.014506 -0.02083 0.0072907 -0.039157 0.0072569 0.0086531 -0.035723 0.061719 0.005395 0.0040975 -0.022883 0.0087696 -0.0032354 -0.018818 0.01019 0.022035 0.0016006 0.035077 -0.00023058 -0.019667 -0.014424 0.026411 -0.012753 0.017304 0.016254 0.02946 -0.026146 -0.0069982 -0.016128 -0.017811 0.02018 0.019667 -0.022883 -0.016489 -0.0464 0.033782 0.012785 -0.042914 -0.010026 -0.0023121 -0.023399 -0.028157 0.023198 0.0096807 -0.041138 0.049595 0.00091117 0.00608 0.011944 0.018986 -0.013506 0.010607 0.019593 -0.003261 -0.019896 0.022475 0.012197 
thyme -0.0083559 -0.04279 -0.0002301 0.0018159 0.002106 -0.0010685 0.0083651 -0.01485 0.026943 -0.004782 -0.010058 -0.03214 0.064562 0.026561 0.025547 0.0015642 0.028042 0.034611 -0.061584 -0.0053711 0.036507 -0.010562 -0.019294 0.017984 -0.0075454 -0.019976 -0.0010468 0.029215 0.021101 -0.020371 -0.00023488 0.018482 0.020329 0.0069898 -0.014579 -0.030888 0.0015929 0.0086464 0.034651 -0.039372 0.024648 -0.0034865 0.011939 -0.020707 -0.026947 0.036829 -0.0015013 0.043835 0.0063132 0.019356 0.038063 0.0010602 0.0082575 -0.045186 -0.035516 0.013237 0.0085243 0.0021594 0.01608 -0.010047 0.033145 0.011847 -0.0011279 0.0044994 -0.0025962 0.0051192 -0.0029475 -0.012891 0.015468 -0.048618 0.0079444 0.0079224 -0.0083177 0.0056108 0.0031371 -0.03692 -0.0085143 0.00093561 0.025059 -0.011007 0.013008 0.007546 -0.024964 -0.065411 -0.0015313 -0.018221 -0.013274 -0.032405 0.014553 0.0039762 0.0079412 0.042359 0.031963 -0.024912 0.028834 0.018856 0.014884 -0.033532 0.01274 0.020021 
cocoa 0.028586 0.0091502 -0.013237 -0.0037476 0.018899 0.016929 -0.00064742 -0.0060346 -0.026637 0.0011165 -0.0097373 -0.0012435 -0.00059647 -0.017114 -0.00011378 0.043947 -0.012452 0.014433 -0.0035796 -0.024696 0.0023414 -0.036064 -0.00018821 -0.030583 0.015841 -0.025169 0.0087969 -0.0069435 -0.01211 -0.013781 -0.027213 0.0042016 -0.01674 0.0012711 -0.0025658 -0.018442 -0.022863 -0.0042214 0.031078 -0.045296 0.012155 -0.00082995 0.0053471 0.012854 -0.0045414 0.0070891 -0.015763 0.0030644 -0.0083453 0.01034 0.031674 -0.018714 0.014541 -0.015122 -0.0037201 -0.0050827 -0.010318 0.0098342 0.0028721 0.017299 0.014689 0.0059923 0.022153 0.00099224 0.0017625 -0.043534 0.011763 0.0090433 0.033718 -0.0073994 0.017255 0.0044893 -0.030926 -7.0866e-05 0.0066244 -0.029077 -0.021399 0.015516 0.022055 0.016082 -0.040587 -0.00072419 -0.0021791 -0.02755 -0.026568 0.0058717 0.010095 -0.020702 0.029861 0.012834 -0.0064307 0.002706 -0.033557 0.0033028 0.016524 0.0011412 -0.0010073 -0.022575 0.018014 0.0076279 
lemon_juice -0.0013234 0.006135 -0.0030324 0.0076082 -0.016901 -0.045882 -0.0077981 -0.022694 0.013412 0.0075488 0.0010624 0.0066037 -0.018927 0.0014641 0.019271 0.0075923 -0.01395 -0.015634 0.024664 0.012184 -0.0030364 0.0025867 0.0022921 -0.00063236 0.023957 0.02552 0.0083222 0.0030788 -0.0078049 0.011456 0.012254 0.0082454 -0.02191 0.0097066 0.012106 0.0035416 0.0084798 0.0059119 -0.010209 0.00059974 -0.00049885 -0.028989 0.014352 -0.025524 -0.0025338 -0.011933 0.0056211 -0.006663 -0.018644 -0.013008 -0.02167 0.0095224 -0.006657 -0.0006636 0.0065473 0.00026418 0.033556 -0.018884 -0.0034516 0.0064779 -0.043031 -0.013566 -0.01925 -0.0014591 -0.015731 0.019107 0.00053996 -0.013153 0.0033199 0.020023 -0.006035 0.0085679 -0.0036269 -0.01 0.012645 0.0017106 -0.00084168 0.018562 -0.043755 -0.022829 0.012129 0.017165 -0.0031652 0.0022367 0.011362 -0.011039 -0.012983 0.022591 -0.026146 0.0036613 0.016771 -0.0011206 -0.011478 0.0014804 -0.013344 -0.00055568 0.010966 0.0033287 0.0056698 0.015054 
wine -0.011503 0.0045627 0.0045589 0.0032918 -0.020246 0.0098509 0.005545 -0.016612 0.050804 0.0081523 -0.0076703 -0.0093216 0.0011969 0.017768 0.0024023 -0.0045617 0.0026712 0.0072084 -0.0061099 -0.0074765 -0.0010931 -0.0011231 0.015163 0.022439 0.0053887 0.0022943 -0.0093313 0.010319 0.004597 0.0080636 0.019785 -0.0080678 0.019177 -0.00064843 -0.017121 -0.021978 -0.0014926 -0.0025555 0.0031638 0.0056349 0.0066537 0.010611 0.0011829 0.0053844 -0.011214 0.024296 0.0041515 0.0092806 -0.0033775 -0.0065386 0.03084 0.00057704 -0.002739 -0.013327 -0.021917 -0.0049232 0.0028424 -0.002654 0.016332 0.0049254 -0.009128 -0.0050911 -0.02141 0.0063142 -0.023122 -0.0088327 -0.00383 0.0097431 0.0080385 -0.012544 -0.00089248 -0.011334 0.011248 -0.0024434 0.0085056 2.3465e-05 -0.0056747 -0.0041513 -0.037417 -0.016214 0.020801 0.025969 0.00051257 -0.037924 -0.019886 -0.0071762 -0.010542 -0.0035059 -0.0017362 -0.00065525 0.01728 0.019601 0.022674 -0.013511 0.011508 -0.0025744 -0.0018344 -0.0090051 -0.022774 0.00040126 
all_purpose_flour 0.0025715 0.00031679 0.015183 0.0028072 -0.0064171 0.0046821 -0.0031881 -0.0040932 0.020289 0.020676 -0.020612 -0.0048769 -0.0017412 0.014284 0.011402 0.01264 0.0063456 0.019077 -0.025743 -0.0073369 0.010351 -0.010517 0.0085038 -0.013875 0.0091397 -0.0028688 0.0055319 0.0046397 -0.0084946 -0.011477 -0.011543 -0.021452 0.0034689 0.0053907 -0.015815 -0.0020508 -0.0048662 0.012392 0.0090839 -0.0080583 -0.016565 0.0044037 0.0076712 -0.013186 -0.0062463 -0.0055934 -0.0034404 -0.007327 -0.0070928 0.016204 -0.0045372 0.013211 -0.0025133 -0.0045311 0.013218 0.014491 0.022597 -0.01772 -0.0082085 -0.0022169 -0.0077621 -0.011435 -0.024089 0.0089059 -0.0087499 -0.0025927 -0.010506 0.0010341 0.0054383 0.0034332 -0.0098966 0.010251 -0.0058753 -0.011597 0.0090488 -0.0088937 0.00050943 -0.0096037 0.0085792 -0.010909 -0.017426 0.013978 -0.011525 0.0023105 -0.00294 -0.0093049 -0.018447 -0.001064 0.0070329 0.013065 0.001492 0.014518 0.005517 0.001496 0.0080108 0.0040409 0.011302 -0.010825 -0.0017337 -0.012889 
pork -0.0081653 0.021777 -0.015334 -0.00091178 0.0074509 0.016376 0.0058482 0.0069021 -0.011257 -0.0022407 0.0061532 -0.006279 0.014753 -0.012865 -0.015691 0.0054148 -0.01119 -0.017847 0.017628 0.00019404 -0.0041678 -0.026835 -0.020743 -0.0087036 0.0016206 -0.028364 -0.013368 -0.0062991 0.012107 -0.012644 0.00029353 0.0099495 0.021235 0.024897 -0.015864 -0.025763 -1.4011e-05 -0.0049454 0.031688 -0.0060515 0.020026 0.0010839 -0.0048576 0.014732 0.00091832 0.0089729 -0.0104 0.014648 0.0094794 -0.00084489 0.043286 -0.014389 0.0065043 0.0059532 -0.013253 -0.015214 -0.029706 0.011357 0.014157 0.022629 0.031059 0.012492 0.032339 0.00035537 0.018451 -0.038282 0.031574 0.019205 0.017287 -0.020699 0.012698 -0.0083756 -0.018503 -0.0099999 -0.009028 -0.010377 0.020358 -0.016262 0.038339 0.011034 -0.023833 -0.0033357 -0.00074225 -0.011257 -0.020485 0.002449 -0.00024268 -0.016434 -0.0088663 -0.0023037 -0.013576 -0.0058288 0.02953 0.003465 0.018201 -0.0022697 -0.0080457 -0.0045869 -0.017469 0.010943 
scallion 0.0028654 0.01004 0.027792 -0.0055552 -0.013726 0.052548 -0.0033481 -0.0013827 0.025724 0.013177 0.00074782 -0.012872 -0.00035132 -0.0011321 0.0079276 0.003933 0.02212 0.035821 -0.015976 -0.02721 -0.004514 -0.0093101 0.0099166 0.023256 0.0075141 -0.022685 -0.0096242 0.010631 -0.0086317 -0.043413 -0.0067146 -0.020422 0.014808 0.024418 -0.027712 -0.027877 -0.00063704 0.0047862 -0.00067315 -0.016269 -0.015663 0.024009 -0.014179 -0.0047612 -0.018076 0.010423 -0.0239 0.017528 -0.011668 0.03214 0.074188 0.0054753 -0.0030329 -0.025063 0.0009858 0.023497 -0.013495 0.013648 0.020098 0.0039875 0.034971 -0.017035 -0.036736 0.016097 0.011709 -0.02371 0.004503 0.012408 0.02115 -0.054232 0.013432 -0.010691 -0.019806 0.0019783 0.017931 -0.027288 -0.022523 -0.039411 0.019156 0.035295 -0.01302 0.0065132 -0.014922 -0.032466 0.00054495 -0.018308 0.0036448 -0.031218 0.030266 -0.0027188 -0.0039815 0.014956 0.014784 0.034274 0.034465 -0.0051878 0.01431 -0.00021654 -0.0089873 -0.025971 
yeast 0.010349 -0.021027 -0.035253 0.0049372 0.016914 -0.060376 -0.0067082 -0.02104 -0.016566 -0.013729 0.002679 0.02153 -0.064458 -0.00018529 -0.011495 -0.0004247 -0.034289 -0.068889 0.041274 0.035608 -0.056023 0.0060957 -0.0017729 -0.01714 0.0092393 0.023716 0.003714 -0.018021 -0.0078315 0.054379 0.0091089 0.0076893 -0.028639 -0.0097129 0.0077584 0.022259 -0.021722 -0.040881 -0.0044346 0.0031933 -0.00017342 -0.032284 -0.0030796 0.0066596 -0.0045121 -0.0032271 -0.0038475 -0.035708 -0.0011297 -0.0061224 -0.061441 -0.0066116 -0.0029299 0.057631 0.0058102 0.012996 0.020045 -0.011845 -0.019548 0.023733 -0.024951 -0.020805 0.023261 -0.018017 -0.013205 -0.018381 0.00033787 0.0080909 -0.024646 0.027849 0.0064121 0.0014368 -0.0069883 -0.013721 0.0087698 0.018093 0.0017324 0.034468 -0.041956 -0.038002 0.029542 0.017832 -0.0026244 0.027884 -0.01132 0.005145 -0.0018339 0.026708 -0.050597 0.012832 -0.0078759 0.0051586 -0.02433 -0.012926 -0.031121 -0.019867 -0.009672 0.013778 -0.007964 0.041364 
potato -0.028586 -0.01405 -0.0041971 -0.0037606 0.019713 0.038538 0.029551 0.012162 -0.059926 -0.050354 0.013316 -0.04227 0.050535 -0.020881 -0.031872 -0.0074548 0.022018 0.036247 -0.092521 0.0042295 0.017819 -0.023255 -0.076345 0.0042681 0.007331 -0.056654 -0.0097804 0.0055279 0.0013565 -0.030349 -0.032221 -0.036235 0.025061 -0.0093837 -0.022081 -0.049272 -0.03136 -0.0061865 0.051579 -0.038278 -0.015451 0.023588 0.016737 0.007317 -0.061743 0.038884 -0.073877 0.022671 0.0013122 0.048389 0.060437 -0.012807 0.037706 -0.0047727 0.022348 0.021309 -0.051445 0.00077311 -0.014922 -0.013329 0.083857 -0.014523 0.021586 0.012452 0.036488 -0.074469 0.011294 -0.016903 0.022139 -0.027986 0.035816 0.0063531 -0.017043 0.0045323 0.044756 -0.040096 -0.037441 -0.029409 0.04157 0.029127 -0.052679 0.0091579 -0.022059 -0.010955 -0.039425 -0.028395 0.011314 -0.079128 0.076632 0.0057246 -0.04759 0.037251 0.014878 0.014575 0.035519 0.013198 0.013206 -0.03439 -0.014687 0.02108 
coconut 0.0021957 0.013908 -0.0039738 -0.0027417 -0.0054934 -0.026903 -0.00091287 -0.0030119 -0.0093046 0.014076 0.0053323 0.013669 -0.031345 0.0022035 -0.0047919 -0.0056619 -0.018273 -0.0087503 0.021692 0.014487 -0.014476 0.017065 0.00086716 -0.0065959 -0.00084123 0.017087 -0.0085668 0.0019545 0.00066608 0.011185 -0.0017387 0.010123 -0.013841 -0.0046436 0.017498 0.013697 0.01018 0.003014 -0.022359 0.020036 -0.0068983 -0.012997 -0.0027747 -0.0070647 -0.0018626 -0.018062 0.023282 -0.019339 0.014374 -0.0085539 -0.036757 0.0065626 -0.007489 0.010748 0.012349 -0.010211 0.021117 -0.0084133 -0.004879 -0.0010418 -0.026496 -0.013754 -0.005043 -0.0095242 0.00034456 0.0059037 -0.0040512 -0.0027834 -0.018406 0.024856 -0.005614 0.012074 0.0091809 -0.0079639 0.0018894 0.018297 0.0041219 0.0052765 -0.025333 -0.0042979 -0.0022668 0.0007919 0.0077649 0.02465 0.0026631 -0.0023767 0.0037736 0.021249 -0.0072866 0.0027726 0.0026531 -0.0048555 -0.026147 0.0044382 -0.010897 -0.014322 -0.0022505 0.008479 -0.0024151 -0.016204 
shrimp 0.00011441 -0.0074181 -0.0047951 0.0076008 -0.016307 0.0054013 0.0087675 0.010913 0.021372 -0.01027 -0.015403 -0.0072148 0.035096 0.0092837 0.013567 0.0060176 0.015099 0.0042693 -0.028656 0.010243 0.029767 0.00076522 -0.0026385 -0.00016428 -0.012444 -0.0078356 0.010079 -0.0039086 0.0017453 -0.01617 0.0077825 -0.016197 0.0098562 -9.4792e-05 -0.019197 -0.0070533 -0.0055313 0.01468 0.015908 -0.012578 0.019836 0.0088986 0.010207 -0.010566 -0.0029405 0.013586 -0.0059222 0.019817 -0.010246 0.0038831 0.0026455 -0.0037518 0.015642 -0.013759 -0.0056647 0.01484 -0.010384 0.0074982 0.0062825 -0.0075545 0.0062923 0.02348 0.0080161 0.016414 -0.0074203 -0.01 -0.0046836 0.0086025 0.0027025 -0.013592 0.0045894 -0.011739 0.0082844 0.01223 -0.00042276 -0.0028504 -0.014468 0.0040001 0.020712 -0.0024476 0.0040622 -0.012159 -0.0027113 -0.035303 -0.0048482 0.0075428 0.003795 -0.00046569 -0.0043748 -0.0050835 0.013299 0.014942 0.037488 -0.019342 -0.002958 0.010939 -0.00706 -0.012726 -0.0047746 0.0079632 
honey -0.026621 -0.0068373 -0.020784 0.011712 -0.0088367 0.0025379 0.016302 -0.0033722 0.0059738 -0.0045793 -0.0035378 -0.0116 0.059661 0.01718 0.014987 0.0046006 0.010126 0.010922 -0.035424 0.008011 0.059043 -0.002034 -0.014845 0.014251 -0.015497 -0.010925 -0.036079 0.00059876 0.016084 0.0083797 -0.0030683 -0.024484 0.036701 0.003581 0.0023517 -0.010841 0.00058898 0.013813 0.0087821 0.01513 0.023398 0.00022582 0.025543 -0.019521 0.012102 0.0052446 -0.010118 0.025309 -0.0064285 -0.021296 0.0079142 -0.0046316 0.017176 -0.018365 0.0065275 0.01012 0.0088723 0.010705 0.0078069 -0.025245 0.020543 0.018375 -0.00219 -0.00039699 -0.00022756 0.024802 0.0013363 0.0073578 0.011286 0.010281 0.021967 -0.0058381 0.015328 0.0023126 0.025807 0.012319 -0.00021159 -0.001693 0.0097706 -0.018319 0.002783 -0.016637 0.0095549 -0.031315 -0.019868 0.014671 0.0041368 0.0014333 0.0085484 -0.023739 0.011151 0.010997 0.00026165 -0.029034 -0.021556 0.010041 0.0023487 -0.020554 0.014419 0.0022155 
fish -0.022385 0.00041762 -0.0047932 -0.016822 0.0041712 0.03473 -0.0027527 0.025624 -0.034667 -0.023595 0.038593 -0.0014402 0.02267 -0.0096186 -0.021755 -0.011337 0.002895 -0.022812 -0.0090267 -0.021565 -0.012245 -0.0017891 -0.017872 -0.011903 -0.030154 -0.013862 -0.017954 0.0025596 0.020192 0.0043255 -0.012903 -0.0037893 0.025284 -0.014438 -0.0072301 0.0020789 0.0094818 -0.038634 0.0091561 0.013392 0.04283 0.015531 -0.012123 0.050911 -0.0010499 0.018533 -0.012099 0.011222 0.030752 -0.020975 0.030525 -0.017695 -0.0019641 0.020261 0.0038392 -0.019992 -0.049667 0.048332 0.0067574 0.0057301 0.041644 0.00985 0.04354 -0.030284 0.027298 -0.01582 0.023203 0.012009 0.00028588 -0.023874 -0.00066171 -0.020263 0.0018426 0.022056 0.0024899 -0.011668 0.010505 -0.015125 0.030779 0.010455 -0.0073365 -0.018635 0.015443 0.0053625 -0.021963 0.020705 0.010696 -0.021489 0.0079699 -0.014648 -0.0014853 0.00037244 0.005765 -0.00069429 -0.010085 -0.0074769 -0.0084535 0.018401 0.0050954 0.0093846 
coriander 0.00078737 0.013385 0.022192 0.017344 -0.033562 0.013733 -0.0019675 0.005263 0.017364 0.012905 0.027878 -0.019294 0.018833 -0.0040487 0.00027488 0.012428 0.0073481 0.054092 -0.05744 -0.035102 0.0022072 -0.014302 -0.0028082 -0.0077242 0.031077 -0.016294 0.0020383 0.00051533 -0.0062867 -0.039755 -0.015337 -0.0349 -0.0022208 0.0027646 -0.0092376 -0.039409 -0.0055336 0.0054801 0.013903 -0.018553 -0.011222 0.011863 -0.003263 -0.007307 -0.014865 -0.01947 -0.039351 -0.0050357 -0.0099124 -0.013988 0.052877 0.0019677 0.0074019 -0.025066 0.011215 -0.013724 -0.00098376 -0.0008609 0.0090712 0.020623 -0.0017638 -0.021665 -0.026215 0.00952 0.0074376 -0.0072162 0.010431 -0.0036019 0.033425 -0.017885 -0.016535 -0.006357 -0.021089 -0.016104 -0.0072169 -0.048977 0.0046715 -0.037166 -0.0020974 0.020283 -0.030956 0.00014955 -0.010322 0.0053951 0.0058981 0.006022 -0.010402 -0.016244 0.023441 0.018272 0.0023145 -0.0061256 0.0013203 0.0011308 0.022029 0.0099502 -0.0013356 0.0084187 0.031694 0.020317 
sesame_oil -0.019941 -0.034832 -0.015183 -0.0033684 -0.025256 -0.018685 0.0087815 0.013447 0.0091588 -0.014381 -0.0033863 -0.035611 0.040248 0.011655 0.0057144 -0.0064843 0.001347 -0.0031181 -0.018522 0.019509 0.036336 -0.0055158 -0.011631 0.033344 -0.01255 -0.0013778 -0.012473 -0.015619 0.00090601 0.0038546 -0.0081037 -0.023625 0.0032067 -0.0098307 -0.0095646 -0.022857 -0.0062161 -0.0025755 -0.0057106 -0.002194 0.010559 0.0024372 0.0203 -0.029473 0.0072349 0.026314 -0.0086158 0.012309 -0.0081773 0.0027031 -0.013551 -0.0001542 0.005973 0.0264 0.019253 0.011353 0.010979 0.020882 0.030436 -0.02776 0.016954 0.0050635 0.01486 0.018314 -0.012043 0.0085431 -0.015492 0.0021793 -0.0073921 -0.00029167 0.0044682 0.021726 0.011895 -0.014812 0.019259 -0.010552 -0.013331 0.0057166 0.0089853 -0.030576 0.0075688 0.0085982 -0.0073202 -0.029532 -0.0073312 0.0094281 -0.0010796 0.0032409 -0.0025304 -0.0082345 0.0077633 0.022641 0.025602 -0.024464 -0.020838 -0.014458 -0.0023687 -0.022464 0.0085151 0.0064237 
carrot 0.010314 0.059696 0.0082926 -0.035902 0.0083122 0.032799 0.011765 -0.027827 -0.019545 0.016887 0.050195 0.0072971 -0.016874 -0.04303 -0.01899 0.0084314 -0.036272 0.022001 -0.0012982 0.0089017 0.0040604 0.01261 -0.03192 0.0035272 0.037864 0.0032052 -0.014816 -0.010494 -0.047509 0.0068791 -0.0367 -0.014242 -0.012187 -0.014418 -0.015726 0.023287 0.0087371 0.0063354 -0.01575 0.033371 -0.007696 0.04959 -0.020588 0.019912 -0.022946 0.017798 0.024527 -0.043399 0.029986 0.011932 0.00782 0.010938 0.010945 0.0020998 0.05553 -0.021508 -0.031145 0.014793 0.0040118 -0.029229 -0.0064817 0.010964 0.031138 -0.056575 0.021137 -0.020525 0.027885 0.019593 -0.041066 0.027549 0.011849 -0.0063239 -0.010192 0.015593 0.040934 0.048523 -0.0028748 0.013497 0.0062515 0.015715 -0.058782 0.011821 0.04228 0.021389 -0.010744 -0.048475 0.022927 3.0613e-05 0.0282 -0.045653 -0.028625 -0.026972 -0.044644 0.02102 -0.023256 -0.054397 0.018245 0.034364 -0.0144 -0.032056 
nutmeg -0.02247 -0.025897 -0.032792 -0.011744 0.030978 0.019444 -0.0020494 -0.03029 0.010073 -0.017887 0.011332 0.023612 -0.014608 0.00054442 0.016752 -0.012854 0.014329 -0.001272 -0.0085397 0.020059 -0.0064388 0.0024999 0.018828 0.028152 -0.014878 0.014759 -0.001245 -0.0059391 -0.009638 0.029135 0.0072037 0.0077368 -0.018298 -0.020457 0.010781 -0.0047472 -0.018486 -0.010289 -0.017709 0.006564 -0.0045507 0.012607 -0.02273 0.0043142 -0.00091142 0.0086755 0.013296 0.0067771 0.018684 0.0095836 -0.044171 0.020707 -0.013902 0.007739 -0.019327 0.0045342 0.021025 0.019692 -0.022003 -0.018731 0.029619 0.00091062 0.013016 -0.028867 -0.010244 0.019949 -0.0041585 -0.018931 -0.026557 0.0089553 0.0094817 -0.0021923 0.024105 -0.021475 0.0055178 0.013073 0.0013781 0.03008 -0.012336 -0.0010459 0.044081 0.0049349 -0.0053669 -0.0029857 0.0029847 -0.023554 -0.013217 -0.0035259 -0.010839 -0.020661 0.015668 0.023246 -0.0050401 -0.0050679 -0.011754 -0.0074206 0.013398 -0.0081595 0.015585 -0.0017196 
bay 0.0029069 -0.017269 -0.0025093 0.012451 0.0013833 0.0091348 0.011211 -0.013661 0.03313 -0.0059471 -0.0021679 -0.022634 0.046109 0.0047231 0.014308 0.026957 0.014105 0.010348 -0.025263 0.007117 0.026769 -0.013833 0.0061124 0.002905 -0.0078815 -0.0010052 -0.001454 -0.01451 -0.0052382 0.0042491 -0.009342 -0.021195 0.0040471 -0.0094495 -0.03598 -0.018659 -0.026141 0.010944 0.02159 -0.036403 0.017582 0.0021744 0.0177 -0.0076304 -0.00058296 0.036304 -0.022614 0.034432 -0.021678 -0.0045692 0.012691 -0.010456 0.022601 0.0014815 -0.0012246 0.018181 -0.014437 -0.0019449 0.021348 0.0043247 -0.00017375 0.011069 0.010179 0.019886 -0.013828 -0.025731 -0.02217 -0.0054091 0.016135 -0.013437 -0.003319 -0.0099629 0.0047751 0.0016088 0.012561 0.0052666 -0.012285 0.0059859 0.0063199 -0.035775 -0.01168 -0.0082586 0.007446 -0.052317 -0.048482 0.007008 -0.0091891 -0.01523 0.022378 -0.00075064 0.012269 0.017855 0.048796 -0.044517 0.0053271 0.0024157 -0.0042815 -0.024671 0.0073361 0.02349 
mushroom 0.012026 0.018021 0.03866 -0.0081389 0.0091178 0.033076 0.0036453 0.0097989 -0.011472 -0.0050674 -0.014716 -0.00074468 -0.023129 -0.03019 -0.024573 0.021702 0.015698 0.0041362 -0.014291 -0.021989 -0.031382 -0.012656 -0.00092969 -0.015703 -0.026793 -0.010066 0.027527 -0.013222 -0.006352 -0.027563 -0.021441 0.024842 -0.0081863 -0.0032378 -0.004557 -0.0047958 -0.022933 -0.020822 0.018761 -0.0014096 -0.0019264 0.010137 -0.020668 0.036408 -0.0079807 0.03733 0.0094924 -0.012811 -0.0084991 0.020799 0.051219 -0.019912 -0.023298 0.016843 -0.0087168 -0.024141 -0.035179 0.016927 0.0051324 0.037483 0.025145 0.00091935 0.0036546 -0.02077 0.0011623 -0.069523 0.00059801 -0.017669 0.026379 -0.030254 -0.0089989 -0.012153 -0.012185 0.011172 0.0054553 -0.046701 -0.022153 -0.0066875 0.018924 0.027025 -0.02493 -0.0030918 -0.00016389 -0.0080744 -0.0087618 0.00286 -0.0019594 -0.023709 0.024122 0.0091288 -0.018518 -0.008921 -0.020503 0.02123 0.042502 0.0080608 -0.019962 -0.0058852 0.0098116 -0.006445 
orange -0.038301 0.017342 -0.012493 -0.010217 0.023003 0.027939 -0.0095837 0.0053053 -0.017902 -0.028277 -0.018542 -0.0068108 0.021648 -0.0049812 -0.042549 -0.0042081 0.0073196 -0.018092 -0.033965 0.01239 0.024961 -0.0067961 -0.057237 -0.010125 -0.054381 -0.010358 0.0093911 -0.009956 -0.0031327 0.029494 -0.01914 -0.022649 0.020085 0.0058862 0.00068734 -0.008117 -0.029162 -0.019896 0.046542 0.011906 0.0043605 0.042883 0.016138 0.045696 0.0065265 0.020364 0.0031568 0.021364 0.020081 0.0039758 0.038253 -0.011292 0.0046086 0.0076309 0.0073367 -0.038238 -0.059457 0.055407 0.013309 0.0056865 0.07341 0.024001 0.049503 -0.027536 0.034385 -0.033363 0.0011766 0.012992 0.024173 -0.014953 0.03713 0.019956 -0.018484 0.022844 0.025316 -0.0044813 -0.0025983 -0.0071611 0.03221 0.001303 -0.035583 -0.0082424 0.021077 -0.0070637 -0.01904 -0.0010765 0.019206 -0.022521 0.035846 -0.0007418 -0.024891 0.0040699 -0.0032591 -0.014263 0.014525 -0.0032832 -0.022145 -0.040973 -0.0099588 -0.0017013 
chicken_broth 0.0058492 -0.0047187 -0.003348 0.011037 -0.028941 -0.018064 0.0071329 0.0091033 0.035998 0.0084001 -0.0036866 0.00096408 -0.011587 0.0075546 0.028284 0.0041286 0.00081339 0.022174 -0.0086335 0.0046996 -0.0034731 -0.0047194 -0.0003076 0.012224 0.0079537 0.0051049 0.024513 0.01174 0.0048097 -0.014922 0.0055675 -0.0014927 -0.021972 0.013852 0.0023437 -0.0052208 0.0062125 0.0092355 -0.0040671 -0.0044197 0.0065228 -0.0018593 -0.00039748 -0.016313 -0.011162 -0.0101 0.0021911 0.011949 0.0095468 0.0015882 0.00066455 0.03187 -0.007273 -0.0024237 -0.0049272 0.0083003 0.014713 0.020894 0.0015491 0.0084539 -0.0026481 -0.0025774 -0.028456 0.013552 -0.007729 0.0046416 0.0054926 -0.0057099 -0.0067531 -0.0056706 0.00035278 0.0056198 -0.0025218 -0.010645 -0.012656 -0.01976 0.008593 -0.017661 0.0047789 -0.002156 0.010484 -0.0049815 -0.015203 0.004543 0.030175 -0.0087642 -0.0060907 0.016616 -0.0065251 -0.0057561 0.0067163 0.019912 0.011877 0.013913 -0.0042912 0.0039346 0.013405 -0.016258 0.020843 -0.0084393 
eggs -0.0084207 0.032999 0.03856 0.00019137 -0.025721 0.085419 -0.0073401 -0.021672 0.077311 0.024936 -0.025707 -0.045255 0.033728 0.038241 0.033106 0.030188 0.037319 0.088735 -0.0971 -0.025184 0.045053 -0.047362 -0.0018344 0.018845 0.023804 -0.029585 -0.0052241 0.023875 -0.02989 -0.032099 0.0061863 -0.061461 0.026155 0.013381 -0.055267 -0.020792 -0.0054878 0.027967 0.037204 -0.021379 -0.0069587 0.0452 0.019483 0.0091055 -0.011604 0.016492 -0.00046241 0.021499 -0.0071573 0.017828 0.085558 0.036633 0.024497 -0.057364 -0.02777 0.015639 -0.026904 0.01386 0.028904 0.0040544 0.011973 0.020216 -0.018535 0.047346 0.0013415 -0.02814 0.0078705 0.011736 0.023207 -0.040642 -0.038682 0.0097745 -0.038358 -0.024912 -0.0086669 -0.057131 -0.011487 -0.058932 0.04066 0.02349 -0.035513 -0.0050294 -0.023732 -0.02898 -0.022209 0.0020718 -0.032713 -0.032768 0.025065 0.026563 0.023712 0.011439 0.091292 -0.029938 0.064496 0.022123 -0.0024809 -0.026622 -0.015995 -0.025084 
bacon 0.0069871 -0.042936 -0.020643 0.042777 -0.053399 -0.099699 -0.039919 -0.061559 0.038374 -0.011787 -0.044692 -0.038398 0.011423 0.031324 0.07072 0.024311 0.004189 -0.014815 0.029674 0.017564 0.033932 0.010879 0.0099123 0.03006 0.023405 0.018482 -0.013531 0.014384 -0.0099354 -0.013243 0.017544 -0.0088425 -0.019397 -0.0045479 0.012826 -0.0038275 0.029671 0.046128 -0.014189 0.00014148 -0.052506 -0.062417 0.03563 -0.11749 -0.0088056 -0.036476 -0.011632 -8.2002e-05 -0.038561 -0.015186 -0.082133 -0.0019792 0.017071 -0.035826 0.013881 0.040904 0.12494 -0.066081 0.0027186 -0.03901 -0.051936 -0.055333 -0.068296 0.048992 -0.054713 0.075885 -0.017165 -0.016271 -0.012647 0.021114 -0.0027209 0.043992 0.020351 -0.043511 -0.014197 -0.00038764 -0.0030128 0.032068 -0.069697 -0.073102 0.061408 0.045964 -0.033266 -0.017147 0.039667 -0.037276 -0.044422 0.064418 -0.074147 0.037356 0.069456 0.045583 0.0072235 -0.021724 -0.037637 0.0036282 0.027631 -0.033742 0.012295 0.037073 
lard 0.0070067 0.024253 -0.029595 0.02488 -0.038206 -0.087284 -0.041279 0.0068826 0.00087626 0.027291 -0.020108 0.036687 -0.04304 0.0092336 -0.0016784 -0.0086238 -0.024724 -0.05113 0.049227 0.067372 0.021882 0.072135 0.04663 0.010865 0.019285 0.029959 -0.044757 -0.0041375 -0.039367 0.019188 0.038182 -0.046501 -0.031972 -0.011752 0.026509 0.040756 0.036395 0.035159 -0.11473 0.051568 -0.078976 -0.040161 0.0061716 -0.085776 0.055114 -0.060189 0.07031 -0.063962 -0.035395 -0.035279 -0.13616 0.02731 0.0031417 0.027324 0.032565 -0.0069413 0.083395 -0.036395 0.01893 -0.041187 -0.097294 -7.7105e-05 -0.049045 0.026845 -0.049754 0.094903 -0.041061 0.026487 -0.058099 0.084412 -0.0083105 0.045719 0.049704 -0.050695 -0.032096 0.072164 0.04254 0.034401 -0.085518 -0.048793 0.036635 0.013916 0.0096896 0.073426 0.038082 0.011018 -0.007109 0.12382 -0.10454 0.0116 0.070638 -0.038644 -0.020704 -0.022356 -0.072168 -0.024177 0.0050079 0.050911 -0.045859 -0.040683 
macaroni 0.055058 -0.012958 -0.018189 0.0011839 0.0011788 -0.0037543 0.0079472 -0.021465 0.025358 -0.022922 -0.03541 -0.038116 0.040112 -0.01003 0.019338 0.035228 0.0095484 -0.0058213 0.0041255 -0.018254 -0.024946 -0.05059 0.022567 -0.025403 0.025164 -0.024613 0.026258 -0.01326 0.0051839 -0.0062115 -0.0054414 -6.9135e-05 -0.0011329 -0.015851 -0.053592 -0.019439 -0.0081522 -0.0047239 0.058123 -0.08782 0.058755 -0.027986 -0.0069564 -0.010624 -0.020878 0.053864 -0.054649 0.02975 -0.010745 0.017289 0.032762 -0.041458 0.031337 -0.050156 -0.042138 0.062657 -0.0023209 -0.016774 -0.0063489 0.0099803 -0.03393 -0.014031 0.02595 0.046516 -0.017487 -0.05714 0.02808 -0.01278 0.042423 -0.056165 -0.032633 -0.039797 -0.0053681 0.037414 -9.1622e-05 -0.04424 -0.024332 0.0011615 0.0075249 -0.011501 0.041553 0.00025433 -0.032492 -0.080038 -0.027931 0.0087093 -0.0163 -0.016257 -0.0016986 0.013981 0.026454 0.025681 0.037866 -0.025868 0.0073815 0.038441 0.0053313 -0.017418 0.0082656 0.089515 
parmesan_cheese -0.018258 -0.0063986 -0.01722 -0.019518 0.013346 0.020408 0.0073915 0.0099635 -0.02629 -0.0076407 0.028402 -0.004795 0.028071 -0.0039423 -0.022827 -0.031916 -0.0070887 -0.0029495 -0.017437 0.0042669 -0.003949 0.0061899 -0.024169 0.024606 0.001653 -0.017223 -0.037737 0.024046 0.014696 0.008367 -0.0019829 0.0073342 0.031698 4.6392e-05 0.0071114 -0.0056839 0.017775 -0.0067796 0.0060726 -0.017211 0.030436 0.017212 -0.020193 -0.0040311 -0.0059405 0.0072185 -0.0014153 -0.013349 0.025214 -0.022187 0.018426 0.015305 0.014431 -0.023243 -0.0057989 -0.010281 -0.019238 0.021814 0.0096814 -0.015569 0.025833 0.022893 0.032608 -0.0060535 0.030438 0.00819 0.042429 0.02818 -0.009687 -0.032417 0.017808 -0.010658 0.0019873 -0.0075683 -0.010717 0.017905 0.027122 -0.011939 0.024334 0.0045 0.014511 -0.0071283 -0.0098693 0.012353 0.00038072 -0.0030145 0.015708 -0.0037721 -0.012803 -0.030084 6.1852e-06 -0.0088958 0.0013384 0.014351 -0.014786 -0.021757 0.0045749 0.02691 -0.0094033 -0.0048464 
kosher_salt -0.018112 -0.01714 0.006221 -0.0044773 -0.019509 -0.016902 -0.023123 -0.013116 0.019552 -0.011228 -0.015462 -0.007671 0.0023517 -0.0034887 0.026596 0.019154 0.010274 -0.035181 -0.022948 0.0021383 0.01772 0.039452 -0.0073032 -0.013971 -0.0086996 0.003136 0.010029 -0.018504 0.0043764 0.0060664 0.01033 -0.032651 0.013688 -0.0087307 -0.0037218 0.013476 -0.0054645 0.0063589 0.013812 -0.0022642 -0.02589 0.0075606 0.00068343 -0.024697 -0.0010797 -0.015362 0.010978 -0.024923 -0.014968 0.00012577 -0.016008 0.0064811 0.0029442 -0.020848 -0.028674 0.024652 0.024026 -0.014564 -0.031188 -0.028489 0.013596 -0.015362 -0.010638 0.0052776 -0.029875 0.038952 0.0083304 -0.016688 0.021291 -0.0032684 0.010071 0.024859 0.01911 0.028129 0.0053748 -0.028146 0.0059502 0.004148 0.028668 -0.024537 0.036149 0.0021015 -0.022743 -0.015936 -0.0074023 0.0042846 -0.041958 0.012896 -0.01923 0.0088361 0.029279 0.00098377 0.050987 -0.027386 -0.02494 0.034074 -0.016 0.0011097 -0.010805 -0.0057868 
green_onions 0.0016247 -0.023066 0.0060352 0.013967 -0.015456 -0.035087 -0.0084924 -0.011696 0.039792 0.020084 -0.014763 -0.019567 0.018644 0.04155 0.034175 0.018633 0.0070902 0.019288 -0.033436 0.0087695 0.037858 -0.012877 0.0037198 0.012766 -0.001873 -0.0021716 -0.0054636 0.0092872 0.0054838 0.007411 0.0078191 -0.012668 0.014715 0.0023022 -0.003643 -0.018258 -0.020662 0.022101 0.0024187 0.010444 -0.032636 -0.0076024 0.025372 -0.018412 0.00074045 -0.020689 -0.0045469 0.023093 -0.0036632 0.011998 -0.00026218 0.02109 -0.0051587 -0.0083618 0.002502 0.018004 0.032761 -0.0042984 0.01349 -0.0011338 0.0017569 -0.00018417 -0.034468 0.011696 -0.00075879 0.023815 -0.022792 0.001703 0.0012423 0.0080398 -0.011515 0.019357 -0.0037635 -0.024432 0.0066176 -0.0039522 -0.0058694 -0.025538 0.0044863 -0.026016 -0.0052762 0.018325 0.003765 -0.018709 0.0094301 -0.014766 -0.0022841 -0.00050723 0.0051191 9.2694e-06 0.020372 0.027863 0.040248 -0.027672 0.02003 0.0198 -0.01003 -0.015442 -0.001443 -0.0053931 
tomatoes 0.0092489 -0.025551 0.0099016 -0.018533 0.0617 0.039263 0.020401 0.0022179 -0.030122 -0.0013906 0.041389 0.035495 -0.040306 -0.041096 -0.034926 0.013067 -0.00057203 0.003545 0.038503 -0.039053 -0.068236 -0.025914 0.017042 -0.039301 0.020399 0.011878 0.045696 0.0048109 0.037664 0.0090057 -0.021283 0.066051 -0.04336 0.013675 0.034185 -0.016293 -0.022679 -0.044723 0.025339 -0.028193 0.041746 0.013712 -0.026251 0.092956 -0.02121 -0.011336 -0.020299 0.025339 0.036282 0.00624 0.058937 -0.017762 -0.033038 0.032026 -0.035515 -0.037442 -0.056939 0.025919 -0.03154 0.062993 0.047588 -0.015838 0.038847 -0.056245 0.036556 -0.066871 0.014334 -0.015838 0.020876 -0.026848 -0.015734 -0.068085 -0.03856 0.029622 -0.00025066 -0.017424 -0.028549 -0.01665 -0.0091119 0.06444 -0.015347 -0.020556 0.022749 -0.012105 -0.021817 0.0028883 0.034973 -0.066442 0.061533 0.014954 -0.058553 -0.010663 -0.061798 0.055892 0.025398 0.01121 -0.0059828 -0.016666 0.031217 0.028474 
cheddar_cheese -0.032523 -0.065377 -0.039778 0.0035249 0.012761 -0.010391 0.01051 -0.01926 0.0013874 -0.048531 0.0044176 -0.012188 0.021376 0.0099489 0.03621 0.02661 0.019353 -0.012271 -0.013499 -0.00095398 0.039629 0.010842 -0.012127 0.00083211 -0.0048786 0.016891 0.010326 -0.0070135 0.014041 0.010175 -0.0018829 -0.0012841 -0.025191 0.010552 0.011699 -0.0015528 0.0052357 -0.0060311 0.029734 -0.028931 0.013126 0.010402 0.013444 -0.020263 -0.01673 -0.016293 -0.019761 0.013009 -0.0095715 0.0076318 -0.016864 -0.0013723 0.010664 -0.019716 -0.018236 0.0060351 0.0074786 -0.013487 -0.018179 -0.013366 0.053589 0.00067272 0.016825 0.0026704 -0.015114 0.023839 0.012569 -0.009167 0.020096 -0.018588 0.010961 0.0040468 -0.020145 0.025998 0.0076722 0.0037291 -0.015472 0.0095165 0.032056 0.0026845 0.018417 -0.024442 -0.021891 -0.036512 0.0088244 0.0002588 0.0037558 -0.013652 0.0040783 0.027101 -0.0073189 0.021805 -0.0031216 -0.003356 -0.015862 -0.0056662 -0.013319 -0.040784 0.018899 -0.0084909 
large_eggs -0.024654 0.012016 -0.01137 0.017384 0.0043728 -0.00064347 -0.020489 -0.020026 0.006429 0.0098184 -0.0040276 -0.0011295 -0.025809 -0.0015788 0.0083862 -0.013448 -0.0012096 -0.019765 0.041949 0.0024131 0.010524 -0.010006 0.0046386 0.017884 -0.0016997 0.028992 -0.026418 0.0097099 -0.02629 -0.0031144 0.023244 0.020288 0.0012602 0.014492 -0.0030501 0.0030993 0.03426 0.014144 -0.021597 0.0081409 0.0013932 0.0064021 -0.02678 0.00026684 -0.004005 0.019621 0.028832 0.0040044 0.010885 0.006117 -0.017627 0.00094057 -0.011891 0.0052374 -0.0019254 -0.019415 0.015864 -0.024852 0.015333 -0.010131 -0.0050934 -0.0010045 0.027032 0.0016704 0.00080411 0.018337 0.023361 0.027764 -0.016232 -0.0034531 0.0040174 -0.0064299 -0.010742 -0.034334 -0.023714 0.018635 0.035578 0.03722 -0.01194 -0.012404 0.021879 0.025232 -0.0128 -0.0031716 0.0034688 -0.033844 -0.024518 0.024889 -0.040334 -0.050017 0.021358 0.00853 -0.00091476 0.031689 -0.0010843 -0.061262 0.0074803 0.022129 -0.017648 -0.010255 
cucumber -0.046427 -0.016958 -0.002374 -0.00053099 0.01985 0.026156 0.0008163 0.016095 -0.02765 -0.012399 0.022334 -0.023016 0.056765 -0.023268 -0.026352 -0.00067324 0.012096 0.025903 -0.067602 -0.00060485 0.038228 0.00099635 -0.05034 -0.011732 -0.013587 -0.026472 -0.022383 -0.0034698 0.020584 -0.022976 -0.048149 -0.0034529 0.035034 -0.0045373 0.012005 -0.039468 -0.0066229 0.0087304 0.035618 0.0012608 0.003809 0.023354 -0.00058779 0.02579 -0.039784 0.042898 -0.029737 0.024864 0.033771 -0.0090231 0.062992 -0.022688 0.021891 0.0018969 0.018124 -0.012667 -0.043577 0.041089 0.0058772 -0.0062258 0.08472 0.0046858 0.033104 -0.046347 0.040894 -0.029625 0.0094938 -0.0020707 0.020775 -0.034563 0.03493 -0.0262 -0.019281 0.031749 0.019465 -0.0036518 -0.010666 -0.010201 0.057467 0.035929 -0.058828 -0.042201 0.020026 -0.042105 -0.050529 0.015626 0.01372 -0.055642 0.062421 0.0085056 -0.026076 0.014746 -0.024264 -0.00016083 0.020131 0.013209 0.013299 -0.0098118 0.014245 0.0091043 
apple -0.0039361 -0.066437 -0.063231 0.0015166 0.039498 -0.031675 -0.020639 -0.0015224 -0.030502 -0.05246 0.0017143 -0.013438 0.051072 -0.0047551 0.021528 -0.0094911 -0.0064912 -0.031504 0.013289 0.020023 0.0042003 -0.028906 -0.017521 -0.0082385 -0.05567 0.0094803 -0.022629 -0.0085426 -0.011546 0.0345 -0.0095909 0.042473 0.033374 -0.029278 -0.019012 -0.017572 0.019361 -0.0064804 0.016029 -0.019843 0.030171 -0.0084844 -0.019653 -0.0031908 -0.0091814 0.048166 -0.01704 0.042606 0.013977 0.006151 -0.034527 -0.036587 0.011755 0.008713 0.011668 -0.0035233 0.0040069 0.014284 0.016169 -0.021494 0.058485 0.011213 0.084807 -0.018123 -0.0075198 -0.0057041 0.0030853 0.041762 -0.0091624 -0.014955 0.035869 0.0064565 -0.0081532 -0.003154 -0.02215 0.018581 0.015962 0.056587 0.011055 -0.030866 0.039071 -0.001958 -0.0031323 -0.044745 -0.022446 -0.012854 8.2609e-05 -0.0082527 -0.0050695 -0.020224 0.0032504 0.028209 -0.0089914 -0.033168 -0.017366 -0.052865 -0.02005 -0.020278 0.022234 0.030537 
cream_cheese -0.03722 0.013474 0.022036 -0.013914 0.0024151 0.055281 0.0031218 0.011412 0.014265 0.020453 0.034099 -0.023664 0.036721 0.012064 -0.032762 -0.016511 0.0095921 0.019523 -0.034028 -0.025177 0.035186 -0.029756 -0.03101 0.021055 -0.026317 -0.049228 -0.015575 0.009793 0.021892 -0.026884 -0.011249 0.0086701 0.044452 0.018583 -0.017749 -0.051986 -0.01462 -0.0030904 0.022778 0.023805 -0.013294 0.056166 -9.405e-05 0.041131 -0.0040243 0.016334 -0.00946 0.046754 0.037902 0.012356 0.084112 -0.019977 -0.0023603 -0.0012718 -0.030369 -0.03117 -0.064147 0.041894 0.024214 0.023157 0.091669 0.038623 0.042551 -0.0054406 0.044994 -0.0083078 0.017486 -0.0048021 0.012383 -0.067454 0.016665 0.018789 0.0020889 0.0086577 -0.0073183 -0.014821 0.011886 -0.057392 0.054101 0.0091275 -0.053527 -0.016948 0.0031577 -0.032387 -0.015602 0.0030658 0.010836 -0.033551 0.014727 0.0018967 -0.030858 -0.0069571 0.045113 -0.00033073 0.03237 -0.006382 -0.010402 -0.010925 -0.0094448 -0.0093574 
carrots -0.028078 -0.0060611 -0.0074098 -0.018932 -0.0070559 0.027621 0.021656 0.030277 -0.055942 -0.03275 0.028405 -0.029115 0.077849 -0.0038494 -0.014574 -0.017572 0.0078903 0.015002 -0.023466 -0.0089497 0.035469 0.0076254 -0.038146 0.01305 -0.031502 -0.010968 -0.04629 0.0118 0.028021 0.025483 -0.026209 -0.011351 0.040386 -0.019768 0.014856 -0.012487 0.020592 -0.0058234 0.0041384 -0.010449 0.028738 0.012519 0.0030738 0.0049463 0.0024205 0.018435 -0.021453 0.020783 0.017744 -0.022345 0.031941 -0.020793 0.0035459 -0.013543 0.034916 -0.024574 -0.034962 0.027603 0.017874 -0.044967 0.06916 0.030183 0.022205 -0.042511 0.041622 0.0026371 -0.0034283 0.0098231 0.0030801 -0.0058956 0.028655 -0.016968 -0.00054638 0.022775 0.014861 0.0107 -0.016563 0.0042911 0.018142 0.01059 -0.017498 -0.024285 0.039072 -0.0093843 -0.025525 0.024502 0.025646 -0.037991 0.052917 -0.0074973 -0.014627 0.0041826 -0.028845 -0.0065932 0.0021034 0.0047743 0.022967 -0.0010581 0.008356 -0.0061972 
walnut 0.020769 0.0085491 0.011911 -0.0087802 0.03127 0.02356 0.01731 -0.011162 -0.019549 -0.003533 0.01625 0.037137 -0.052765 -0.012196 -0.010562 0.0065004 -0.011504 0.015044 0.041268 -0.0054313 -0.046893 -0.018541 0.013392 -0.021522 0.014904 0.0083528 0.022349 0.012747 -0.0064738 0.013213 -0.018727 0.030714 -0.027331 -4.8901e-06 0.011509 0.016838 -0.010305 -0.023086 -0.012102 -0.0056279 0.013006 0.01011 -0.0070097 0.038123 -0.0089203 0.00086735 -0.0042086 0.0040515 0.011017 0.0092814 0.010572 0.0067478 -0.0096259 0.016076 0.0015143 -0.011585 -0.018431 0.0077282 -0.00090706 0.018638 -0.0060237 -0.00042061 -0.0019434 -0.012734 0.010435 -0.042419 -0.003514 -0.0074767 -0.0078179 0.0034692 -0.017698 -0.025506 -0.026289 0.013289 0.0050596 -0.0037123 -0.033455 0.01435 -0.0090238 0.039154 -0.015338 -0.0022407 0.025935 0.0039644 -1.8249e-05 0.0028276 0.030913 -0.016616 0.039913 0.0025147 -0.027701 0.0049893 -0.042459 0.024624 -0.00028384 -0.0049049 0.0084294 -0.00041252 0.020135 0.0054766 
rosemary -0.059857 0.0012375 -0.0037158 0.03083 -0.059494 -0.03505 -0.022963 0.019857 0.046197 -0.0077562 -0.033982 -0.022658 0.044654 0.049515 0.022026 -0.034106 0.013148 -0.033364 -0.025789 0.028907 0.047802 0.013665 -0.029005 0.017408 -0.017516 -0.014203 -0.027867 0.001022 0.015779 0.001113 0.031729 -0.064145 0.058422 0.0051551 -0.003285 -0.017592 0.011026 0.026086 -0.013315 0.035357 -0.023212 -0.0065698 0.034503 -0.070825 0.014591 -0.037105 -0.018568 -0.0080493 -0.010955 -0.031771 -0.03194 0.011342 0.022357 0.0030412 0.019495 0.038306 0.039355 -0.0015393 -0.0048623 -0.028299 0.001706 -0.016587 -0.039835 0.037892 -0.018919 0.073889 0.013174 -0.00095707 0.0052443 0.013828 0.018462 0.037456 0.046985 -0.0031829 0.013135 0.0096239 0.036871 -0.048683 -0.0063022 -0.063694 0.021891 -0.0010986 -0.018316 0.011483 0.0039806 0.025167 -0.0193 0.039545 -0.041387 -0.010545 0.035979 0.00070178 0.059077 -0.039196 -0.029015 0.017338 -0.0065033 -0.00089972 -0.012798 -0.0072626 
starch 0.0089911 -0.021368 0.0017253 0.018667 -0.0087589 -0.0073993 -0.023644 -0.026722 0.0035893 -0.020112 -0.018806 -0.020561 0.025192 0.007282 0.0031795 0.0079937 0.015187 0.016263 -0.015282 -0.0082528 0.018017 -0.0022798 -0.0098586 0.0022798 0.0033401 -0.011465 0.0080449 -0.0036104 -0.018458 -0.013048 0.001989 -0.0066018 -0.0096177 -0.0015719 -0.013267 -0.0035639 -0.0052076 0.0078401 0.010477 -0.02125 -0.0086335 -0.0054434 0.026084 -0.0057706 -0.010112 0.013131 -0.010903 0.029388 -0.018447 -0.00058155 -0.0026691 0.0050504 0.015797 -0.017073 -0.0057022 0.011697 0.0026341 -0.0082465 0.0083735 0.0021461 -0.0089316 -0.0034733 -0.01041 0.021352 -0.0028129 -0.00013299 -0.016847 -0.020375 -0.013803 -0.0020936 -0.0069997 0.0013726 -0.012453 -0.00094534 -0.00076889 -0.016413 -0.014632 0.0037513 -0.016311 -0.014592 -0.0045083 -0.0047191 -0.0098609 -0.017181 -0.00057113 -0.0042903 -0.00135 -0.01337 0.0047411 0.028336 0.0025821 0.0047738 -0.0021199 -0.016217 0.02371 0.024514 0.0085182 -0.02105 -0.0050508 0.012723 
almond 0.021054 0.0041205 0.019888 -0.0063052 0.036699 0.014596 0.022273 -0.023018 0.013857 0.036795 -0.019583 0.014215 -0.06529 -0.0073505 -0.0072688 0.017856 0.00069237 0.021796 0.031275 -0.024637 -0.061845 -0.014703 0.031891 0.0022917 0.02114 0.0057266 0.033312 -0.00080436 -0.0095318 0.020386 -0.017074 0.022577 -0.035513 0.017422 0.010772 0.0016656 -0.023583 -0.0029208 0.011023 -0.024581 0.0095242 0.0015203 -0.012266 0.041716 0.014296 0.0037883 0.01218 -0.022492 -0.0032893 0.015563 0.028999 0.013419 -0.015129 0.009511 -0.017387 -0.007991 0.01675 0.0078424 0.0039507 0.033005 -0.046402 0.0054423 -0.015694 0.0082442 0.0010747 -0.043928 -0.014903 -0.011341 0.015407 0.020937 -0.020158 -0.015472 -0.032354 -0.013967 -0.0040708 -0.026789 -0.039312 0.015694 -0.01735 0.020003 0.0092071 0.0069169 0.013614 -0.014294 0.0050839 -0.0092379 0.0012473 -0.032811 0.035688 0.031577 -0.012146 0.013891 -0.030017 0.017314 0.051157 0.017088 -0.0084598 -0.024364 0.0014782 -0.0043905 
buttermilk -0.0011533 0.005673 -0.029725 0.0014441 0.0035745 -0.021712 -0.031797 9.5495e-05 -0.043405 -0.02185 -0.015198 0.005762 0.0094241 0.015549 -0.028276 -0.0082805 -0.021535 -0.02619 0.016228 0.0097651 0.014757 -0.0073013 -0.02709 -0.024257 -0.035788 0.0012026 0.0035314 0.002946 -0.002281 0.036322 -0.0091348 0.001471 -0.010805 -0.011355 0.012777 0.01109 -0.015384 -0.0062078 0.013221 0.0060413 -0.0015913 -0.00043681 0.018747 0.026866 0.028378 -0.0047694 0.006128 0.016041 0.019252 -0.024204 -0.033867 -0.019502 0.011968 0.013067 -0.0022385 -0.024634 -0.01067 0.010163 0.018555 0.017829 0.019077 0.019021 0.047724 0.0046074 0.012958 -0.0076989 -0.012152 0.0047639 -0.016959 0.017737 0.014153 0.016378 0.0016808 -0.010155 -0.015426 0.004153 0.0024275 0.032507 -0.014059 -0.025469 0.0048616 -0.0064143 0.01336 0.0086621 0.0047323 0.021617 0.0021922 0.021396 -0.028359 0.025487 0.0026199 0.0030234 0.015484 -0.046417 -0.0060068 -0.0073067 -0.027104 -0.030401 -0.00042401 0.01817 
green_bell_pepper 0.0093622 0.0030112 0.022697 -0.0090267 0.016239 0.042669 0.011708 0.011455 -0.0068967 -0.0010268 0.0070235 -0.0019443 0.00068139 0.0050069 -0.0091103 0.00051686 0.0057555 0.032941 -0.032965 -0.017207 -0.010354 -0.0055881 0.0080375 -0.015467 0.019407 -0.01965 0.0049995 0.0061962 0.0009127 0.0018737 -0.0056749 -0.010364 0.010174 -0.00028045 -0.010811 0.0042326 0.0066111 0.0071367 0.01264 -0.010354 -0.0091239 0.010101 0.0039684 0.026104 -0.0035053 -0.0014024 -0.0059741 -0.0069773 0.0037965 0.009383 0.030269 0.016581 -0.004498 -0.014086 -0.0068825 0.0060893 -0.032297 -0.0045682 -0.0034075 0.0027024 0.0014656 0.0081685 -0.010574 0.0049957 0.016028 -0.010723 0.01181 0.0037545 -0.0013079 -0.015333 -0.014924 -0.0098832 -0.00051416 0.012037 0.0014763 -0.00019363 0.0083221 -0.029019 0.022497 0.030237 -0.015515 -0.0034181 -0.014259 0.02096 0.0056168 0.0061384 0.0032816 -0.0236 0.025116 0.0023128 -0.0044125 -0.007487 0.0148 0.01309 0.010901 0.019372 0.0012642 0.018759 -0.002021 -0.01874 
bean 0.0061847 0.016158 0.020853 -0.0057489 0.01808 0.01954 -0.0055042 -0.0048921 0.020078 0.021126 0.0052888 0.028937 -0.032987 0.0041591 -0.018696 -0.014083 -0.014367 -0.0032808 0.01273 0.011227 -0.045552 -0.013317 -0.0079032 0.0022373 -0.0088088 -0.0085431 0.0060083 0.0037895 -0.023748 0.00033839 0.021861 0.026525 -0.014726 0.012465 -0.030305 -0.0055571 -0.028515 -0.027176 0.0025917 0.02606 -0.0099194 0.025257 -0.012903 0.028325 0.014213 0.0045363 0.010213 0.013354 0.018944 0.039536 0.011751 0.0041752 -0.01206 0.029425 0.008039 -0.011086 -0.031338 0.014061 0.024422 0.032562 0.017259 0.016703 0.010266 -0.00025598 0.0082225 -0.0218 -0.0082373 0.012437 -0.02512 -0.018838 -0.0034284 0.017478 -0.0016538 -0.020799 -0.018659 0.0016527 0.029119 -0.025321 -0.0046822 8.6836e-05 -0.0076037 0.029155 0.0021513 0.039981 0.036402 -0.038283 0.010288 0.025534 -0.034541 -0.021718 -0.010544 -0.0050881 0.029166 0.021097 0.011513 -0.041158 -0.024688 0.0070223 -0.022481 0.0061716 
pecan 0.0030276 0.016971 0.0057555 0.01731 0.00055604 -0.018315 -0.024606 -0.0021145 0.0035434 0.001931 0.0072411 0.050271 -0.050935 -0.01081 -0.014302 -0.015224 -0.00012411 -0.022043 0.042297 0.025473 -0.047137 0.042523 0.047599 0.0053597 0.001384 0.029631 -0.023955 -0.011842 -0.028414 0.0055059 0.0096332 -0.0097079 -0.029465 -0.0018366 0.016484 0.03297 0.011291 -0.0054008 -0.066146 0.033448 -0.037915 -0.0010504 -0.018834 -0.012318 0.010076 -0.020802 0.040006 -0.033345 -0.010894 -0.010007 -0.063661 0.0044073 -0.012361 0.049611 0.010946 -0.019192 0.019623 0.00731 -0.0047792 0.0075085 -0.023535 -0.012468 -0.016239 -0.027018 -0.020563 0.035994 -0.026592 0.011666 -0.025918 0.01837 -0.0048086 0.0067411 0.024843 -0.0039167 -0.0071662 0.036598 0.024815 0.018998 -0.061465 -0.0023832 0.016895 -0.0065242 0.01271 0.057339 0.0041379 0.01033 -0.0039354 0.051591 -0.040748 0.0071636 0.024257 -0.029133 -0.027013 0.0052848 -0.040105 -0.034523 0.0015169 0.021029 -0.0011136 -0.013818 
mint 0.041505 0.020385 -0.037356 0.0014992 0.0074844 -0.081181 -0.028591 -0.026549 -0.058538 -0.0067577 -0.0058763 0.072983 -0.17582 -0.038978 -0.0068101 -0.01326 -0.055673 -0.079285 0.1646 0.050142 -0.11682 0.060139 0.073617 -0.03581 0.039933 0.066265 0.008278 -0.026531 -0.040691 0.041949 0.027591 0.043527 -0.10579 -0.01342 0.046 0.085936 0.035525 -0.023329 -0.1057 0.025272 -0.011055 -0.069452 -0.027288 -0.040967 0.025457 -0.041033 0.059079 -0.099556 -0.032473 -0.0056412 -0.16154 0.028544 -0.040207 0.04367 0.024179 -0.0010403 0.092648 -0.04505 -0.043436 -0.014283 -0.13479 -0.04568 -0.017982 -0.018881 -0.054143 0.02082 -0.038969 -0.007115 -0.067279 0.11679 -0.02682 -0.0037116 0.0088485 -0.040991 -0.018403 0.058766 0.002646 0.10071 -0.126 0.0035851 0.088382 0.023093 -0.0072885 0.10093 0.049372 -0.011967 0.0082468 0.079331 -0.060661 0.020154 0.0055645 -0.020227 -0.1092 0.045681 -0.055384 -0.039006 0.0016778 0.069077 -0.0035314 -0.0055673 
lettuce 0.025064 0.03128 0.039989 -0.0031781 -0.013016 0.0001803 -0.0093653 -0.008616 0.028173 0.042257 -0.0093816 0.028126 -0.057277 0.0087096 -0.022844 -0.010402 -0.012843 0.011163 0.015687 0.0050291 -0.031578 0.019984 0.023388 -0.0021507 0.035677 0.010152 0.014122 0.010036 -0.0053362 0.010013 0.0093662 -0.018485 -0.031175 -0.0052356 0.024347 0.037177 0.011669 0.0050502 -0.035696 0.018607 -0.02467 0.0056879 0.0038851 -0.016124 0.029359 -0.044509 0.013489 -0.050174 -0.00032318 -0.0030934 -0.020403 0.035976 -0.013928 -0.018932 0.023021 -5.5443e-05 0.015389 0.0035759 -0.00088794 -0.018135 -0.074209 -0.0066582 -0.042053 0.016212 0.0041211 0.0069028 -0.011659 -0.020899 -0.01678 0.039937 -0.028964 -0.0035178 0.031063 -0.012707 0.0098514 0.016238 -0.010886 -0.021649 -0.025018 0.016589 3.4458e-05 0.0079256 0.021092 0.056592 0.035839 -0.0066472 0.0079897 0.0066789 -0.010804 0.0058103 0.0082417 -0.022378 0.0054977 0.02638 -0.0069053 0.017754 0.0063914 0.018896 -0.01366 -0.024536 
turmeric 0.029258 0.013809 0.060719 -0.026929 0.031631 0.078451 0.03024 0.0004508 -0.0048615 0.016275 0.010134 0.010078 -0.03955 -0.033493 -0.012626 0.023092 0.013284 0.029392 -0.0053182 -0.029235 -0.029005 -0.021772 0.0010472 -0.026474 0.0058437 0.0013276 0.045957 -0.013927 0.01479 -0.011777 -0.028517 0.041024 0.0041818 -0.0036958 0.0081882 0.006799 0.0090901 0.0054071 0.024146 -0.014125 0.016509 0.014429 -0.019369 0.068923 -0.027921 0.041724 -0.0013215 0.012528 0.01612 0.017769 0.099152 -0.0035987 -0.0078395 -0.015201 -0.0184 -0.015458 -0.058134 -0.0094457 -0.0035528 0.012879 0.020829 0.0052297 0.019856 -0.017141 0.044673 -0.069363 0.0068699 -0.022897 0.030843 -0.013027 -0.026771 -0.063333 -0.027497 0.027145 0.0011752 -0.014925 -0.026218 -0.038681 0.040792 0.0704 -0.025437 -0.023617 0.019703 -0.010384 -0.020547 -0.0038016 0.022286 -0.076611 0.089234 0.013785 -0.045057 -0.018625 -0.0021701 0.042514 0.065589 0.028307 -0.0015817 0.018303 0.0046931 -0.015716 
cabbage 0.047241 0.036145 -0.019502 -0.015103 -0.041633 0.005814 0.066879 -0.0093629 0.011319 0.035344 -0.0015217 0.026357 -0.033185 -0.027017 0.027566 0.0049344 -0.011353 0.010086 0.089474 -0.0072511 -0.019154 0.039023 0.040207 0.059799 0.014917 0.047582 -0.0036643 -0.014442 -0.030868 0.030524 -0.032466 -0.0090528 -0.068654 -0.0063607 0.010904 0.0072234 0.061799 0.015343 -0.10147 -0.045565 0.058981 -0.028928 -0.015093 -0.069473 0.041452 0.041146 -0.0084969 -0.047795 -0.071733 0.0037758 -0.025711 0.0068282 -0.026736 -0.048773 0.051896 -0.018072 0.04453 0.01716 0.04674 -0.065437 -0.10268 0.057315 -0.021974 0.018554 6.8867e-05 0.0079897 -0.017238 -0.0039103 0.0234 0.11488 0.024742 -0.0053199 0.018728 -0.010988 0.0042178 0.042827 -0.010957 0.085604 -0.014847 0.012154 0.0066913 0.031507 0.045237 0.028174 0.051344 -0.058041 0.038175 0.016826 0.0049506 -0.069732 0.033237 0.029641 0.0012059 0.083222 -0.035879 -0.067135 0.078441 0.008772 0.0006318 -0.023421 
white_wine 0.00034875 0.019407 0.021452 0.0034821 -0.0052233 0.010393 -0.0082047 -0.0042223 -0.0075564 0.017558 -0.012518 0.017729 -0.034627 -0.01095 -0.0055588 -0.007387 -0.0063818 0.001775 0.018283 -0.016069 -0.02054 0.0090442 0.010779 -0.029843 0.0078892 0.010008 0.012362 0.0028394 0.0008328 -0.0088954 0.014433 0.0058717 -0.022924 0.015927 0.017084 0.016852 0.002982 0.0094916 0.00033363 -0.021615 -0.0053343 -0.012888 -0.016674 -0.0032605 -0.0036884 -0.023632 0.011966 -0.030807 -0.0071145 0.0030073 -0.014103 -0.010824 -0.0073903 -0.0057049 0.00023843 -0.0074753 0.016007 -0.027775 -0.0088154 0.019703 -0.025039 -0.027568 -0.011009 -0.011404 -0.0045714 0.0048034 0.0070358 0.00088184 0.0067928 0.010177 -0.0077569 -0.007224 0.0010443 0.00018805 -0.014687 -0.013399 0.017707 0.012721 -0.011046 0.013727 0.012203 0.016592 -0.017047 0.033166 0.017121 -0.0079686 -0.012989 0.010593 -0.017742 0.0023827 0.0020286 -0.0080346 -0.0057726 0.033306 0.0093118 -0.017061 -0.0057261 0.0041714 -0.008857 -0.0017083 
yogurt -0.023814 -0.0094427 -0.027541 0.022822 -0.051983 -0.046951 -0.019911 0.022958 -0.01997 -0.037724 -0.054227 -0.052322 0.098469 0.031696 0.02039 -0.019707 0.004699 0.0057112 -0.027882 -0.017782 0.061337 -0.015339 -0.032542 -0.0050138 -0.061599 -0.018575 -0.011648 0.005919 0.030169 -0.023209 -0.010444 -0.012375 0.05756 0.0012845 0.0038009 -0.016569 0.017356 0.038639 0.039886 -0.028413 0.023997 -0.023353 0.017436 -0.055399 -0.0067511 -0.0016006 -0.022005 0.038038 -0.0075825 -0.012146 -0.010213 -0.04221 0.036428 -0.085803 -0.0053077 0.0034876 0.045153 -0.0081231 -0.015988 -0.037317 0.01401 -0.0035218 -0.0019226 0.026651 -0.0097646 0.044562 -0.0072802 0.0010596 0.023414 0.018853 0.044176 0.049453 0.032113 0.0164 -0.015195 -0.0080806 -0.0095019 0.034202 0.037559 -0.019119 -0.0013846 -0.02149 -0.010427 -0.020451 0.0039863 0.0093932 -0.016782 -0.01011 0.022627 0.0045163 0.00026009 0.014601 0.0072474 -0.02255 0.0079695 0.023272 -0.01607 -0.048328 -0.0030152 -0.0039145 
chili_powder 0.021342 -0.02625 0.040254 0.00027358 0.013508 0.028024 -0.0036914 -0.027288 0.051819 0.021792 -0.0070872 -0.049221 0.035327 0.010068 0.00021834 0.040219 0.040492 0.055117 -0.068651 -0.02196 0.021267 -0.021828 0.0068575 0.049518 0.029367 -0.03092 0.0060694 0.0035127 -0.0066675 -0.037403 -0.011037 0.0079119 0.021674 0.0079006 -0.017511 -0.047951 -0.016345 0.012753 0.021689 -0.0040781 -0.051858 0.017714 -0.00076652 0.0066341 -0.0091835 0.024143 -0.012453 0.02688 0.0060559 0.047854 0.071532 0.0047218 -0.0045454 -0.014274 -0.050889 0.030495 -0.0064357 -0.0020488 0.0096332 0.0057352 0.034581 0.0053458 -0.0053101 0.029228 -0.0025811 8.1664e-05 0.0021235 -0.024572 0.018506 -0.045121 -0.021144 0.0067426 -0.011128 0.0022613 -0.0023258 -0.036172 -0.013863 -0.05566 0.03116 0.011453 -0.014629 0.0043264 -0.02431 -0.056733 -0.019636 0.002045 -0.014465 -0.038188 0.030876 0.0065474 -0.010567 -0.0015425 0.031981 -0.027205 0.053886 0.034361 -0.00090982 -0.022514 0.0087102 0.00090116 
zucchini 0.0052436 -0.017718 -0.0010772 0.010933 -0.031753 -0.020742 -0.0064919 -0.037343 0.047318 0.0025628 -0.010615 -0.053536 0.026217 0.010479 0.044529 0.025581 0.012318 0.025993 -0.032383 -0.015655 0.061229 -0.013513 -0.0038111 0.066763 0.010909 0.0077205 -0.011969 0.0013474 0.0028087 -0.012622 -0.0024397 -0.02038 0.015057 0.0045744 -0.0042588 -0.027726 -0.0087848 0.017061 0.0060379 0.0040087 -0.024968 -0.01996 0.015107 -0.038503 -0.0063458 -0.0058503 -0.026165 0.019879 -0.021386 -0.0081022 0.0184 0.0011368 0.0091098 -0.030165 -0.011121 0.039041 0.041704 -0.0065044 0.0062404 -0.018615 0.0026241 -0.023042 -0.062726 0.021018 -0.016541 0.032511 0.01141 -0.022781 0.0093171 0.008317 -0.00031869 0.01857 0.0012223 -0.010492 0.0036457 -0.021027 -0.016708 -0.018141 -0.011855 -0.028056 0.0065131 0.010733 -0.016072 -0.036093 -0.0070097 -0.0019905 -0.038766 -0.0069627 0.015159 -0.011063 0.022379 0.0098388 0.008795 -0.029918 0.020322 0.024919 0.012986 -0.024138 0.016036 0.015656 
pineapple 0.0084534 -0.0092938 -0.012423 -0.0029639 0.0063117 -0.00020225 0.010378 -0.0016966 0.0038379 0.0022702 -0.012188 -0.0070588 0.018032 0.003987 0.011301 -0.010362 -0.0063715 -0.00056103 0.0046428 0.0044142 0.012687 -0.019491 0.0020298 -0.0011123 -0.011323 -0.0050547 -0.0038006 0.0033315 0.0052712 0.011725 -0.0026561 0.014076 0.011161 0.0019083 -0.0085587 -0.0075309 -0.0023155 0.0040343 0.0021089 -0.010559 0.013206 -0.0087772 0.0082777 0.00032217 0.0028224 0.010426 -0.010438 0.014686 0.0029081 0.013267 -0.0066897 -0.014553 0.0025206 -0.00087534 0.0021583 0.013603 -0.00075175 -0.00037712 0.011782 0.00064725 0.011294 0.020546 0.012836 -0.0014766 0.003284 -0.00078971 -0.0039316 0.006701 -0.0055535 0.00075739 0.012461 -0.0051914 -0.0027575 -0.0015095 -0.0042075 0.0074479 -0.004002 0.0087954 0.0046353 -0.010039 -0.00076013 0.00043942 0.0022989 -0.022393 -0.00313 0.0013541 0.0083938 0.0033967 -0.0032091 -0.0070095 -0.0083262 0.019164 0.00111 -0.015106 0.0020075 -0.002573 -0.0010342 -0.012841 0.013137 0.009893 
oil 0.023489 -0.0079226 0.021107 -0.0028648 -0.0092972 -0.0023092 0.012599 -0.010329 0.031455 0.053137 0.0049184 -0.024708 -0.0022995 0.0079031 0.023274 0.026048 0.00048807 0.059868 -0.0049169 -0.026191 0.017661 -0.015299 0.022669 0.0079238 0.044604 -0.0049841 0.015792 0.0090458 0.017368 -0.0077606 -0.0066156 0.00041368 -0.026105 0.0036774 0.011928 -0.010358 0.011324 0.041841 0.0015429 -0.018062 -0.010313 -0.015207 -0.0032301 -0.020571 -0.01203 -0.03244 -0.039244 -0.0036622 0.0015147 -0.010899 0.01077 0.032488 -0.0044371 -0.041359 0.0016415 0.023787 0.031428 -0.030022 -0.0047812 -0.0095334 -0.037036 -0.019222 -0.046272 0.024898 0.0068052 0.02088 0.017712 -0.013456 0.0076395 0.0029784 -0.033953 -0.022265 -0.018308 0.0034986 -0.016086 -0.010919 -0.0053037 -0.028475 0.020559 0.020907 -0.010158 0.010975 -0.014743 -0.020159 0.014752 -0.019703 -0.0094766 -0.0091022 0.022497 0.0041112 0.012761 0.0018828 0.015431 0.016308 0.012537 0.027222 0.026785 -0.0028356 0.03342 0.0011048 
ham 0.04341 -0.03196 -0.054164 0.02321 -0.03469 -0.074512 0.013892 0.019572 -0.037737 -0.0404 -0.021628 0.0078762 0.0075895 -0.031381 0.03763 0.013649 -0.0088523 -0.045233 0.08865 -0.036073 -0.061243 -0.0058347 0.027444 -0.0026018 -0.010662 0.013609 -0.0067941 -0.0058697 0.011007 -0.02387 0.0059429 0.011848 -0.024041 0.0129 0.0057661 -0.010817 0.011001 -0.022962 -0.021784 -0.084178 0.053671 -0.080255 -0.0084954 -0.054923 0.033331 -0.011618 -0.03374 0.0015802 -0.056405 -0.014839 -0.040313 -0.06086 0.023596 -0.029533 -0.010887 0.01329 0.038277 -0.02322 -0.0045297 0.028617 -0.038433 0.00055142 -0.019467 0.04261 -0.016296 -0.0046221 -0.017177 -0.00087438 0.043448 9.0602e-05 0.027705 -0.02582 -3.0131e-05 -0.010366 -0.035701 -0.035919 -0.015384 0.069525 -0.053762 -0.0093535 0.076467 -0.020678 -0.024125 0.0020648 0.0094027 0.028577 0.0030014 0.033366 -0.024939 0.024554 0.011106 0.015394 -0.016976 -0.010493 -0.010716 0.0045634 -0.0092751 -0.022235 0.0097343 0.056471 
avocado -0.015429 -0.0048278 -0.026169 0.0045527 -0.007169 -0.02057 -0.016075 0.016062 -0.058012 -0.052656 -0.0062327 -0.0053171 -0.0026681 -0.030929 0.0086839 0.013236 -0.022225 -0.019147 0.035459 -0.019307 -0.018294 0.0020891 -0.0032682 -0.039293 -0.03622 0.00099547 0.00032812 -0.0014879 0.011053 -0.015186 -0.015248 0.0028241 0.0043128 0.012694 0.0010946 0.0049029 0.0051122 -0.021439 0.0017139 -0.012774 -0.0038773 -0.028376 0.011021 -0.0070626 -0.0047134 -0.031024 -0.022485 0.0059844 -0.006036 0.0072193 -0.021869 -0.034392 0.012793 -0.0090298 0.011211 -0.012525 0.0045484 -0.017619 -0.021805 0.0066563 0.032776 -0.026919 0.0066641 -0.021202 0.0008549 0.0028665 -0.0017365 0.0081897 0.0019753 0.0073476 0.026623 0.0071378 0.0063887 0.016162 -0.010019 -0.011266 -0.016289 0.038093 0.017162 0.018306 0.0039697 -0.024004 -0.0037907 0.032524 0.0011167 0.03119 0.00251 -0.0037748 0.015572 0.022883 -0.028682 -0.005028 -0.029773 0.0068465 -0.020215 -0.0051127 -0.013651 -0.017347 0.009997 0.015236 
raisin 0.041281 0.044387 0.028038 -0.018329 0.018493 0.0096596 0.012887 -0.035531 -0.0039749 0.037022 0.0059864 0.038969 -0.13704 -0.042515 -0.010223 0.016019 -0.030813 -0.020474 0.063988 0.010065 -0.079339 0.008363 0.024043 -0.030334 0.052137 0.013651 0.023614 -0.017158 -0.03158 0.0055293 0.0010753 0.024621 -0.069827 -0.0035692 0.0053878 0.04354 0.00058289 -0.013874 -0.015011 0.023455 -0.033151 0.003853 -0.033389 0.02259 -0.02726 -0.00073591 0.02877 -0.07234 -0.0032251 0.039766 -0.0077948 0.013209 -0.029019 0.0331 0.027543 -0.0015589 0.011145 -0.03495 -0.018302 0.017611 -0.055099 -0.039155 -0.017617 -0.027929 -4.6014e-05 -0.035418 -0.0028065 -0.0043192 -0.022741 0.044108 -0.035178 -0.013965 -0.034496 -0.018193 0.0017305 0.017945 0.0010006 0.0093472 -0.030619 0.047241 -0.018296 0.042621 0.013496 0.055058 0.023823 -0.050833 -0.0051325 0.012626 -0.0095782 -0.015031 -0.019845 -0.02117 -0.050636 0.074012 0.011477 -0.03773 0.005218 0.045963 -0.021221 -0.018975 
scallions -0.039659 0.009304 -0.00093678 0.00098327 0.014493 0.016442 -0.0091663 0.00674 -0.069284 -0.055719 -0.0094921 -0.0071567 0.027912 -0.062594 -0.057029 -0.027617 -0.003841 -0.064924 0.016043 -0.0059332 -0.023375 -0.0010402 -0.053919 -0.035862 -0.072915 -0.0021109 -0.035319 -0.01737 0.015419 -0.0081608 -0.054394 0.0359 0.031694 -0.016887 0.026801 -0.030549 0.0094219 -0.069808 0.0077636 0.013408 0.017572 0.011794 -0.013099 0.049052 -0.02398 0.090686 -0.011197 0.0080966 0.0033909 0.0079805 0.049969 -0.085758 -0.014148 0.052203 0.043214 -0.039865 -0.05035 0.054491 0.0081395 -0.0029816 0.09037 -0.014455 0.068199 -0.076726 0.038632 -0.066702 -0.01814 0.011497 0.014583 -0.019229 0.050924 -0.015959 0.011085 0.028128 0.028405 0.0049557 -0.0022861 0.033468 0.0099055 0.019229 -0.030947 -0.028129 0.039875 -0.014237 -0.048995 0.021831 0.025402 -0.05306 0.059858 -0.012953 -0.068442 0.017355 -0.086788 0.030753 0.026603 -0.032544 -0.0023159 0.0041182 -0.0070469 0.029941 
tamarind -0.027982 -0.016493 0.0095973 -0.011047 0.083776 0.069628 0.022305 -0.0033954 0.018986 0.030977 0.067206 0.026847 0.0084832 0.011312 -0.026955 0.00058736 0.013297 0.025731 -0.031364 0.011922 0.009932 0.013455 7.9992e-05 -0.0016213 0.016145 0.022326 -0.022307 -0.0070275 0.0095636 0.068241 0.0023817 -0.013646 0.020077 -0.012149 0.017624 0.006265 -0.020929 -0.015922 -0.006864 0.037865 -0.0075034 0.056817 -0.025178 0.074496 0.0071627 -0.021135 0.016133 0.002333 0.073525 0.00031208 0.014386 0.0079076 -0.0084361 0.045124 -0.0024303 -0.03345 -0.073444 0.028116 -0.0024572 0.0054683 0.088525 0.044536 0.042431 -0.069077 0.04291 -0.0075038 0.04007 0.035523 -0.01168 -0.019988 0.0044813 -0.030279 -0.00634 0.027902 0.014451 0.048699 0.034394 -0.061286 0.022611 -0.0068332 -0.01551 -0.018398 0.031178 -0.0042389 -0.057948 0.020838 0.011898 -0.039993 0.016658 -0.038434 -0.0091389 -0.017598 -0.0013268 -0.0070855 -0.0086577 -0.021395 -0.0049236 0.015014 -0.005326 -0.022717 
baking_powder 0.047671 -0.033552 -0.0081204 0.017161 -0.024671 -0.055342 0.014915 8.544e-05 -0.0024161 -0.0030824 -0.022963 -0.0019516 -0.013153 -0.012844 0.030395 0.016558 0.0048968 0.004792 0.035715 0.0012892 -0.019898 -0.018808 0.038011 -0.022038 0.038729 0.018414 0.01466 -0.019679 -0.0055561 0.01796 -0.00067291 0.0014473 -0.023893 -0.021615 0.0047619 0.00085619 0.043087 0.016227 -0.011532 -0.045405 0.038084 -0.065103 -0.0093681 -0.039612 -0.0088244 0.015825 -0.043074 -0.013327 -0.021858 -0.026843 -0.038023 -0.01348 0.012195 -0.017244 0.014461 0.019703 0.054069 -0.051925 0.0037654 -0.014082 -0.077968 -0.016408 -0.027779 0.040241 -0.032063 -0.028428 0.0018114 0.0036889 -0.00033979 0.034169 -0.041972 -0.041056 -0.011924 -0.0024441 -0.029188 -0.0025332 -0.026208 0.059551 -0.047898 -0.00098791 0.026233 0.0085017 -0.0052921 -0.032927 -0.00040573 -0.0076637 -0.010377 0.0077478 -0.0031176 0.019311 0.029042 0.023872 -0.026124 0.0014557 0.010099 -0.0002364 0.01533 0.015185 0.012125 0.041887 
