2075 100
</s> -0.093922 -0.049918 -0.10855 -0.17029 0.18617 0.20614 0.17893 0.19667 0.093865 0.086819 0.070059 0.27334 -0.00098701 0.01258 0.017928 -0.099555 0.015329 -0.19098 0.20371 0.26392 0.077916 0.011916 0.085919 0.33938 -0.20297 -0.22564 -0.065501 0.020639 0.17328 -0.00030651 -0.31244 0.068081 0.1963 0.13243 -0.34823 -0.17604 -0.2566 0.029249 -0.17248 0.11411 -0.022526 -0.10386 -0.10344 -0.19978 -0.12816 0.027835 -0.23342 -0.079112 -0.034208 -0.14804 -0.0048885 0.18198 -0.25732 0.20062 -0.024449 -0.24995 0.25421 -0.2989 0.1195 -0.025236 0.17409 0.15889 -0.18358 0.11431 -0.089933 -0.31343 -0.046473 0.046858 0.16051 0.19408 0.0079545 0.10754 -0.27694 -0.15173 -0.099063 -0.082559 -0.12167 -0.060338 0.064564 -0.2325 -0.25497 -0.037614 0.15719 -0.17536 0.10074 0.0054936 0.11375 -0.014296 -0.16232 0.17272 -0.2355 -0.033676 0.039568 -0.0050713 0.023818 0.034739 0.050795 -0.074619 -0.0098798 -0.052881 
garlic -0.063133 -0.0012257 0.16996 0.038919 -0.048813 0.19071 0.15838 0.23997 -0.10305 -0.2078 -0.11888 0.11725 0.063702 0.046289 0.047276 0.064135 0.22041 -0.00042968 -0.14699 0.074951 -0.11924 -0.17419 -0.18505 -0.033169 0.12492 -0.071078 0.089994 0.032869 0.14586 -0.32076 -0.13584 -0.054625 0.13579 -0.27088 0.011762 -0.080732 -0.26486 -0.12476 0.046499 -0.045994 0.079266 0.25005 -0.049227 0.24985 0.15028 0.33939 0.037265 0.076444 0.12238 0.061849 0.2951 0.15073 0.14263 0.11713 -0.070366 0.24423 0.10653 -0.047543 0.096038 -0.049138 0.20826 -0.080562 -0.01375 0.26449 -0.076261 0.15717 0.046817 0.11529 0.11044 -0.12051 0.026357 -0.22379 0.06373 0.1143 0.077597 -0.017667 0.0055236 -0.11109 0.35299 0.25037 -0.10888 0.028167 0.28901 -0.21619 0.047984 -0.03304 -0.03416 0.091907 0.20772 0.15211 0.10608 0.17238 0.17305 -0.093911 -0.0045075 0.29895 0.14777 0.065859 0.1263 0.3868 
pepper 0.091296 -0.13171 -0.094889 -0.055658 0.1584 0.10755 0.082523 0.02245 -0.087943 -0.0082035 -0.12269 0.019024 0.040376 0.016198 0.061128 -0.03832 0.065842 -0.019181 -0.23078 0.10151 0.20391 -0.094778 0.046603 0.018187 -0.10048 -0.089756 -0.1994 0.1489 0.041476 -0.13014 -0.051603 0.017708 0.076476 -0.052493 -0.041294 -0.20806 0.093669 -0.030769 0.1988 -0.069867 0.019308 0.049321 -0.047831 0.074701 -0.15267 0.15689 -0.20034 0.043202 -0.06565 -0.021388 0.28832 -0.096106 0.07772 -0.044255 -0.23709 0.13762 0.013444 0.21794 -0.027192 -0.13391 0.23893 -0.053857 -0.013812 -0.04591 -0.10309 -0.10425 -0.021379 0.1033 0.15046 -0.15178 0.084134 -0.029977 -0.13709 0.12841 -0.062739 -0.09824 0.066393 0.021682 0.23265 0.10854 -0.1374 -0.073275 0.010535 -0.03394 -0.086991 0.2045 0.13063 0.06834 0.24569 -0.089612 -0.07958 0.063775 0.3207 -0.079908 0.024781 0.10645 -0.04346 0.071177 0.10413 0.10934 
butter 0.057141 0.070927 -0.11622 -0.029546 0.091013 -0.30419 0.015207 -0.054947 -0.15003 -0.057914 0.085665 0.063424 -0.069264 0.15501 0.10076 -0.10874 0.083485 -0.2044 0.29682 0.064877 0.082582 0.024179 -0.12917 -0.20339 -0.34971 0.13549 -0.062218 0.12787 0.047395 0.0061735 0.19474 0.14844 -0.032476 0.0081934 0.064567 0.29301 0.19635 0.16447 -0.14499 0.20554 -0.2619 -0.19404 0.019918 0.096015 0.016294 -0.1325 0.27866 0.18771 -0.16022 -0.020583 -0.36075 -0.099219 0.18396 0.30412 -0.23707 -0.083857 0.046408 -0.37208 -0.10267 0.23338 0.13639 0.2027 -0.16047 0.22386 -0.1383 -0.15096 0.21775 -0.0085523 0.14321 -0.033265 0.043638 -0.027297 0.084926 -0.0069098 -0.028459 0.12853 -0.43351 0.10584 0.29002 -0.14498 0.036023 0.012493 -0.0037283 0.2549 -0.44519 -0.10576 -0.12788 0.23336 -0.0096862 -0.27644 0.29629 0.2062 0.2518 -0.10383 -0.07241 0.086337 0.074347 -0.052963 -0.21889 0.054401 
onion 0.1134 -0.080891 0.18317 -0.12321 -0.13868 0.13368 -0.067331 -0.035008 0.14276 -0.23443 0.050213 0.20593 0.14241 -0.031776 0.14791 0.19222 0.062209 0.23551 -0.39407 0.27047 0.1259 -0.092656 -0.10803 0.10267 0.20627 -0.19695 0.053312 -0.048742 -0.29478 -0.00069312 -0.062612 -0.084456 0.056122 0.27477 -0.05091 -0.10882 0.073184 0.0051889 0.035481 0.18398 0.13373 -0.23071 0.016149 -0.15001 -0.19898 0.04192 -0.19607 0.12873 -0.048809 -0.028147 0.1202 0.10957 0.023987 -0.024918 -0.0046164 0.30203 0.041707 0.13722 0.14029 0.13145 -0.091623 0.25966 0.083387 0.26328 0.11722 -0.15249 -0.0864 0.22509 0.26284 -0.32784 -0.02115 -0.014107 0.073701 0.13476 0.19043 0.18144 -0.034814 -0.11845 0.28026 -0.23755 0.24552 -0.29365 0.0087017 -0.254 0.23491 -0.084112 0.19742 -0.019122 -0.23358 -0.32747 0.32964 0.15577 0.1983 -0.31369 0.1908 0.11699 0.20345 0.11481 0.051643 -0.074766 
egg 0.074668 0.13688 -0.041576 -0.31786 0.0080162 -0.21088 0.054982 0.2799 -0.13345 0.13988 -0.27145 -0.02856 -0.0055832 0.30693 0.095153 -0.026414 0.1718 -0.11818 0.10314 0.16553 -0.33845 0.086319 -0.13226 -0.046805 -0.3745 -0.27289 -0.096614 0.10485 -0.11487 0.039489 0.3723 -0.017238 -0.061946 0.053888 -0.10213 0.32262 0.1952 0.058543 0.00021535 -0.070821 0.36847 0.11855 -0.19351 0.21236 0.084074 -0.26234 0.17356 -0.3268 -0.14576 0.39814 -0.3598 0.12277 -0.26616 0.34396 -0.26807 0.24972 0.067511 0.029459 -0.037433 0.13452 -0.15461 0.11316 -0.12911 -0.020955 -0.097534 0.32076 -0.40173 0.10424 -0.22883 0.11245 -0.28009 -0.0013277 -0.3599 0.12865 0.030363 -0.0044821 -0.10792 0.17548 -0.13199 0.091594 0.19251 0.2146 -0.19271 0.046456 0.03554 -0.33581 0.12401 0.27828 -0.35717 -0.18357 0.1334 0.087392 0.014673 -0.28894 -0.18986 0.069316 -0.054777 -0.045281 0.18453 -0.13059 
wheat 0.32136 0.068379 -0.32496 -0.27085 0.069485 0.099539 -0.0015841 -0.13119 0.11954 0.090041 0.24987 -0.085589 -0.51343 0.41538 0.28151 0.078058 0.088656 -0.038259 0.35048 -0.14759 -0.0076318 -0.44604 0.56037 0.36908 -0.072186 -0.31096 0.25897 -0.1894 0.0089945 0.21669 0.10757 0.081357 0.22137 -0.18089 -0.21181 0.094365 -0.023493 0.04993 0.051251 0.2374 0.15986 -0.0034415 0.18263 0.074819 -0.016985 -0.37738 0.44058 -0.056313 -0.32114 0.19578 -0.26243 -0.037643 0.049536 -0.035845 0.0054957 0.10597 0.30943 0.2141 0.072296 0.015557 -0.293 0.16573 0.16619 0.031729 -0.24401 0.33823 0.18672 0.31751 -0.065104 0.050775 -0.04552 0.52348 0.014354 0.070335 0.38444 0.15007 0.086774 -0.21362 -0.029521 0.042006 0.13498 0.26088 0.25395 0.31603 0.296 -0.099185 -0.0058321 0.40916 -0.13683 0.10917 0.36846 -0.19582 0.048311 -0.14645 0.050595 0.00037091 -0.11986 -0.051201 -0.028245 0.00018091 
salt -0.2523 -0.21084 -0.56243 -0.18021 0.10085 0.081218 0.23202 -0.054386 -0.087951 -0.46348 0.17158 -0.40145 0.025481 0.10218 0.058169 -0.26843 -0.30671 0.16864 0.15064 0.046422 -0.29525 -0.24566 -0.34695 0.14192 -0.16553 -0.0035908 -0.35795 0.1515 -0.27878 0.23371 0.16334 0.21193 0.37386 -0.13059 0.023033 0.16919 0.19369 -0.30556 0.14085 0.11981 -0.10076 -0.091667 0.1189 0.10594 -0.016913 0.2657 -0.27035 -0.0042828 0.081731 -0.12601 0.041748 -0.0026579 0.070443 0.18483 0.1971 -0.036414 -0.41628 0.17626 -0.049781 -0.059684 0.23009 0.2238 0.39836 0.0037622 0.088059 0.035377 0.0098322 -0.025767 -0.05121 -0.25155 0.03831 0.14706 -0.067841 -0.15007 0.038393 0.017678 -0.085835 -0.060812 0.027825 0.088236 -0.1859 -0.12359 -0.21059 0.20648 -0.073967 -0.049417 0.14098 -0.33571 0.25665 0.24663 -0.37502 -0.065507 -0.25972 -0.43612 -0.010042 0.0455 0.046185 -0.22858 0.053276 0.28944 
milk 0.022475 -0.089856 -0.2918 -0.14339 0.044487 -0.058037 -0.28163 0.2843 -0.076204 0.12781 -0.37575 -0.19168 -0.05694 0.47013 0.23914 -0.040406 -0.0021764 -0.016536 0.31946 0.43241 0.015109 0.17736 -0.034417 -0.34538 0.011427 0.2213 -0.063181 -0.087993 0.080374 0.19629 0.087069 0.28782 0.091539 -0.17072 -0.08786 0.23396 -0.026242 0.15618 -0.22512 0.11925 -0.0082394 -0.13281 -0.069966 -0.15223 0.33512 0.010073 0.15977 0.077195 0.18702 0.14117 -0.53403 -0.12127 -0.10653 0.034933 -0.12105 0.44535 0.086487 -0.08752 0.28116 0.07843 0.036238 -0.046913 0.085094 -0.0068197 -0.086288 -0.28281 -0.17642 0.25453 -0.25909 0.086377 -0.015046 0.19957 -0.10789 -0.003318 -0.17283 0.34228 -0.019864 0.058056 0.059215 -0.014533 0.40482 0.088467 0.043106 -0.051058 -0.071673 0.011785 -0.15295 0.15195 0.16425 0.13368 0.062897 0.0012696 0.15335 -0.14674 0.062283 -0.23466 0.003508 0.077159 -0.13375 -0.30394 
chicken 0.064146 0.081372 0.11791 -0.15172 0.14109 0.18611 0.067146 0.05767 0.0012839 -0.014101 -0.092552 -0.12585 0.025516 -0.17914 0.11683 -0.04457 -0.018383 0.1234 -0.17746 -0.027294 0.071506 0.025689 0.086195 -0.10954 -0.14592 -0.17763 -0.27646 0.10087 0.11925 -0.075554 -0.043374 -0.044456 0.30173 0.11911 -0.15957 -0.21672 -0.067839 0.17812 0.03625 0.10413 0.035093 0.00086687 0.019975 0.14509 0.036889 0.19416 -0.012934 -0.13469 -0.033458 0.044198 0.30862 -0.17118 0.078682 0.10524 0.098642 0.14213 -0.14199 -0.019462 0.14334 0.021115 0.12961 0.10582 -0.033021 -0.10963 0.12421 0.12764 -0.17476 0.031721 0.16755 -0.12402 0.17342 -0.37221 -0.0090308 0.084564 0.027345 -0.21767 0.089971 -0.15611 0.24942 0.18363 0.07138 -0.072329 0.011515 -0.024671 -0.203 0.21982 0.10447 0.079826 0.35817 -0.048252 -0.090461 0.29201 0.21012 -0.18083 0.032031 -0.05594 -0.0088495 -0.081031 0.13077 0.073579 
cream -0.20759 -0.11887 -0.13649 0.030999 -0.16308 -0.0047824 0.17296 0.15788 -0.055625 0.017858 0.12639 0.008855 -0.047592 0.11362 0.14356 -0.2967 0.044144 0.13964 -0.12506 0.26044 0.15595 -0.22915 -0.054282 -0.063279 0.07076 -0.044549 -0.064672 -0.025741 0.054242 -0.042199 0.16759 0.096579 -0.029274 -0.16365 0.13511 -0.22764 0.079364 0.42657 -0.39365 0.013786 0.053423 -0.1001 -0.0013136 -0.28508 0.064915 -0.33402 -0.061693 -0.2359 -0.060245 0.24651 -0.42156 -0.26029 0.075778 -0.1146 -0.027349 0.037034 -0.18266 -0.22823 0.16938 -0.058697 0.009603 0.2145 0.3088 0.055123 -0.049969 0.16216 -0.037319 0.12622 -0.2718 0.24332 0.34183 -0.013578 0.1399 -0.25345 -0.013571 0.10802 -0.35667 0.056274 -0.14278 0.16214 -0.25531 -0.037412 0.056765 -0.11878 -0.13523 0.071193 0.13843 0.046924 -0.1372 -0.1259 0.21012 0.1619 0.13313 -0.32114 -0.041732 -0.09226 -0.1441 0.018031 0.31281 -0.28843 
cheese -0.26177 -0.31281 -0.052844 -0.064194 -0.075906 -0.18552 0.24783 0.12972 -0.2188 -0.29976 -0.10352 -0.10814 0.59319 0.33873 0.24409 -0.080456 0.31302 0.35018 -0.39902 0.013604 0.48736 -0.011121 0.068405 -0.0016412 -0.25801 0.0022397 0.11249 0.16257 0.18676 0.038732 -0.039081 0.052448 0.036685 -0.32463 0.14412 0.0097523 0.061732 0.18776 0.10158 -0.17488 0.07442 -0.17309 0.27509 -0.13117 -0.086138 0.035611 -0.048811 0.2516 -0.31348 -0.14341 -0.17538 -0.085587 0.11221 -0.20792 0.075369 0.0015016 0.17445 -0.23051 0.072759 -0.085395 0.2462 0.15895 -0.012053 0.028203 0.010269 0.30867 -0.2014 -0.04476 0.17965 -0.030881 0.13382 0.0051198 -0.09858 0.22831 0.074373 0.068122 -0.18476 0.23362 -0.19996 -0.10595 0.096833 -0.2143 -0.038139 -0.41168 -0.037901 0.43838 0.16534 -0.0082048 0.26227 0.099613 -0.092046 0.18557 -0.14733 -0.21896 0.23823 0.12711 0.10129 -0.29929 0.22316 -0.12232 
olive 0.046089 -0.29192 -0.0077821 -0.15291 -0.023524 -0.19081 -0.23254 0.084064 -0.037604 -0.32344 -0.0084572 -0.17658 0.4247 0.26784 0.0074946 -0.32202 0.23366 -0.26387 -0.3334 -0.018225 0.14979 -0.0026061 0.030103 -0.17166 -0.1538 -0.29229 0.096437 -0.19055 0.19644 0.15403 0.0055036 0.099738 0.18649 -0.090012 -0.099626 -0.42008 -0.054678 -0.010044 0.057163 -0.02159 0.11066 -0.17607 0.21937 -0.021823 0.018517 0.036258 -0.18264 0.24846 -0.014423 -0.39592 -0.11297 -0.15336 -0.18948 0.10409 -0.16814 0.051201 -0.082848 0.18784 0.14614 -0.1239 0.427 0.052815 -0.064985 -0.19456 0.25719 0.18938 -0.052971 -0.073016 0.064397 -0.50544 -0.016769 -0.036603 0.15014 -0.056324 -0.038524 -0.45562 -0.11466 0.036385 0.15359 0.039937 -0.26758 -0.042326 0.02584 -0.041631 -0.15304 0.049583 -0.046727 -0.15757 0.27654 0.17273 0.37336 0.0092703 0.069152 -0.36454 -8.5995e-05 0.25389 0.22228 0.037676 0.25103 -7.7479e-05 
tomato 0.24164 -0.14538 -0.075449 0.020607 -0.20506 0.17411 -0.046351 0.19931 0.24025 0.2288 0.28805 0.22614 0.10674 0.40915 -0.058532 0.0049102 0.068785 0.047304 -0.16187 -0.10715 0.17654 -0.10037 -0.094762 -0.12622 0.046801 -0.35317 -0.03179 -0.093122 0.1518 -0.052379 0.038485 -0.11257 -0.19385 0.13707 0.27018 -0.034013 0.048286 0.074352 0.21321 -0.15867 -0.014763 0.27201 0.20119 -0.26483 -0.089009 0.40514 -0.19572 -0.10657 0.24372 -0.023391 -0.093006 -0.072438 -0.019997 0.060355 -0.075495 0.39124 0.076503 0.06883 -0.11499 -0.092037 -0.042255 0.015631 0.074896 0.12385 -0.22592 -0.21022 -0.19313 -0.12892 0.21056 -0.072223 -0.085821 0.29765 0.14717 -0.024974 0.48739 -0.16781 -0.021174 -0.4213 0.20241 -0.15619 0.056146 0.15813 -0.086756 -0.32129 -0.29922 -0.066301 -0.1574 0.0069255 0.16097 -0.1112 0.01294 0.13012 0.2884 -0.11181 0.10259 0.14622 0.11324 -0.25763 0.16494 0.16805 
vanilla 0.048087 0.18522 -0.48113 -0.31346 0.27115 -0.36157 -0.026957 0.49184 -0.61597 -0.37064 0.2253 0.67998 -0.55768 -0.17439 -0.54573 0.066386 -0.13134 -0.41872 0.71881 0.47303 -0.069202 0.011763 0.31001 -0.25304 0.050261 0.052371 -0.24666 -0.1984 0.015182 0.68889 0.19414 -0.21256 -0.18754 -0.086039 0.18583 0.21828 0.081528 0.36568 0.019608 0.080774 -0.095494 0.17339 -0.058216 -0.1417 0.42121 -0.21044 0.57538 0.05414 0.29575 -0.37292 -0.58116 -0.027679 0.069803 -0.040442 -0.044631 -0.10171 0.19879 0.092715 0.0059247 -0.25618 0.021704 0.34598 0.19041 -0.01753 -0.01402 0.32238 -0.22689 -0.034453 -0.14313 0.061282 -0.63558 -0.25549 -0.061424 0.21354 -0.29117 0.88695 0.26734 0.35612 -0.24252 0.18819 0.081564 -0.2655 0.29233 -0.14074 0.053299 0.63419 0.097734 0.98776 -0.12363 -0.20285 0.2634 -0.17114 -0.072601 -0.4534 -0.3763 0.11019 -0.30275 0.1527 0.17718 0.29107 
vegetable_oil 0.31876 -0.13459 -0.0067105 -0.14031 0.10598 0.088841 0.10395 -0.3197 0.2684 0.42114 0.089081 0.31628 -0.32082 0.038391 0.18149 0.24 -0.27701 0.2576 0.073557 -0.35207 -0.087609 0.086133 -0.28849 -0.35686 0.046172 -0.14418 0.50339 0.029436 -0.05893 0.3809 0.37871 0.076327 0.067477 -0.033652 -0.0057743 0.035898 -0.011159 -0.29054 -0.11016 0.12266 -0.17506 0.090024 0.46181 0.09163 0.42382 -0.57837 0.074176 -0.076341 -0.31319 -0.14359 -0.11736 0.49339 -0.18071 0.029868 -0.014848 -0.066805 -0.20394 -0.19758 0.034174 0.072744 -0.16142 0.37994 -0.12604 0.4967 -0.32999 -0.030341 0.21989 0.17964 0.16325 0.11587 -0.006692 0.41745 -0.20918 -0.12058 -0.035987 -0.36365 0.16686 0.19959 0.2468 -0.22851 0.16946 0.46067 0.019532 -0.1675 0.44807 -0.084664 -0.16317 -0.071969 -0.022713 -0.12614 0.26989 0.0042458 0.45053 -0.292 -0.15942 -0.19492 0.11538 0.43896 0.1896 0.17384 
cayenne 0.033757 0.10885 0.19809 0.2425 0.12157 -0.040289 0.2089 0.21874 0.17018 -0.018176 -0.038474 0.27907 -0.20266 0.092235 0.029868 0.10776 -0.033881 -0.058545 -0.069829 0.099421 -0.18102 -0.10898 -0.11095 0.12303 -0.22205 0.10399 -0.26369 -0.090049 -0.2048 0.19447 0.028605 -0.19033 0.19907 -0.26292 -0.14337 -0.26428 0.15187 0.30342 0.37815 -0.32201 0.11879 0.020122 -0.033195 -0.0033787 0.10958 0.092312 -0.18323 0.20468 -0.0081518 0.23627 0.032493 0.048784 -0.1021 -0.074732 0.28979 0.077205 -0.29019 0.19083 0.17834 -0.0028278 -0.067565 -0.19269 0.083344 0.15188 -0.011659 -0.04869 -0.047919 -0.07347 0.22291 -0.28963 0.23669 0.093529 -0.00064609 0.14144 0.31437 -0.25528 0.015294 -0.32578 0.14662 -0.20311 -0.29924 0.2457 -0.24338 -0.20414 -0.15224 0.15669 0.10462 0.0031933 0.060099 -0.12629 0.33871 0.1816 0.45057 0.10635 -0.11662 -0.11395 0.18781 0.14073 -0.11618 -0.11255 
corn -0.072659 0.11697 -0.021401 -0.058124 -0.084988 0.11922 0.42508 -0.0033046 -0.18635 -0.041546 -0.12339 0.094397 0.077208 0.020007 -0.2398 -0.010589 -0.34588 0.11958 0.089516 0.017799 -0.19647 0.095244 0.019756 0.057682 -0.21593 -0.02972 -0.026071 0.15264 0.01839 -0.16079 0.010828 0.2135 0.043704 0.10513 -0.14884 -0.095667 0.027019 0.067887 0.0868 0.028323 0.15701 0.037701 0.057378 -0.22109 -0.08722 0.0099505 -0.13049 -0.21597 -0.23603 0.099804 -0.026367 0.035265 0.098008 -0.32478 0.17954 0.33781 -0.010245 0.18058 -0.11197 0.072349 -0.13174 0.23678 0.29404 -0.17304 -0.032838 -0.11419 0.036203 0.1703 0.03308 0.056244 0.19094 -0.48695 0.15059 0.019473 0.082607 -0.029334 -0.42824 0.27935 0.23828 0.11111 -0.18507 -0.063452 0.21395 -0.37057 -0.055412 -0.11549 0.26345 -0.15529 -0.089107 0.029802 0.065674 0.20901 0.16676 0.043453 0.20014 -0.27934 0.29612 0.041457 -0.16317 0.12026 
olive_oil 0.29985 0.059994 0.059861 -0.46941 -0.20671 -0.11325 -0.017991 -0.072485 0.50052 0.30584 0.22901 0.17247 -0.045115 0.048818 0.44647 0.02145 -0.47531 0.69442 -0.081636 -0.19784 -0.11549 0.084278 -0.10338 -0.19349 0.23595 -0.020728 0.49824 -0.26249 0.18415 0.44847 -0.030717 -0.13466 0.042484 -0.40405 0.12802 -0.16622 0.03947 -0.23036 0.14088 -0.074488 -0.1227 -0.15272 0.11262 -0.015184 0.052767 -0.48744 -0.13604 -0.018813 -0.094011 -0.19807 0.090809 0.50324 -0.082042 0.27311 0.080431 0.097486 -0.11191 0.42409 0.15811 0.405 -0.20073 -0.15841 -0.13413 0.26098 -0.38209 0.10819 0.25775 -0.40908 -0.067562 0.16075 0.015738 0.053605 -0.054874 0.036115 -0.040306 -0.29161 0.17294 -0.034485 -0.16845 -0.27746 0.011178 0.11005 -0.053668 -0.17388 0.16985 -0.11813 -0.05325 -0.1665 -0.12584 -0.30238 0.10747 0.069636 0.71461 -0.40195 0.018166 0.10673 -0.047238 -0.48659 -0.051275 0.29486 
black_pepper 0.32044 -0.099456 -0.21443 -0.16575 0.34468 0.23359 0.12354 0.12858 0.84786 0.17036 0.052838 0.41512 0.058657 -0.030004 -0.020384 0.077803 -0.090692 0.032618 -0.24892 -0.1811 0.39008 -0.29959 -0.13488 -0.05556 0.32969 0.0068097 0.072167 -0.027954 -0.057701 0.27611 0.14 0.020136 -0.34826 -0.077245 -0.2711 -0.049067 -0.10525 -0.52949 0.21965 -0.084037 -0.083948 0.0043748 0.59521 0.27208 -0.1369 -0.056925 -0.16611 0.10869 -0.26007 -0.076355 -0.16754 0.53687 0.030292 -0.19385 -0.071405 0.18278 0.026863 0.35229 0.012282 0.3453 -0.62202 0.049688 -0.093179 0.066212 -0.40876 -0.057378 0.16586 -0.010593 -0.058046 0.070747 -0.32106 0.23709 0.17122 0.18834 -0.21459 -0.36782 -0.039398 0.17916 -0.24005 -0.10748 0.16917 0.45033 -0.20974 -0.11537 0.18309 -0.20077 -0.021499 0.31382 0.080769 -0.29152 0.0011808 0.20682 0.7062 -0.29379 -0.12477 0.11942 -0.20957 0.18908 0.05715 0.26845 
vinegar 0.015307 -0.28679 0.16209 0.017658 -0.18002 0.24153 0.28312 -0.17216 0.16478 0.0013747 0.15669 0.061117 -0.070592 -0.21239 -0.37433 0.15085 0.009333 0.17725 0.09453 0.17843 -0.0051843 0.28912 0.058171 -0.066158 0.074463 -0.17304 0.29779 0.19346 0.12297 -0.062159 -0.11899 -0.063258 0.023981 0.235 -0.067748 -0.15186 -0.064121 -0.15672 0.072843 -0.21733 -0.047157 -0.061979 0.0092797 0.083531 0.077513 0.023638 0.16954 0.050501 -0.19214 0.328 -0.080672 0.098069 -0.10059 0.19426 -0.19698 0.25541 0.11648 0.052467 0.28453 0.17629 -0.3014 -0.093425 0.13265 0.3734 -0.19017 -0.074005 0.074619 0.028849 -3.6259e-05 -0.33521 -0.58291 0.51392 0.19794 -0.03984 -0.035496 -0.25027 -0.14373 0.072138 0.39191 0.10998 -0.34825 0.34545 -0.2993 -0.14294 0.052841 0.30318 -0.1075 0.09924 -0.018937 -0.2534 0.15871 0.24391 -0.14529 0.089369 -0.27104 -0.34373 0.14589 -0.30067 -0.1599 0.16319 
rice -0.036582 0.3308 0.21374 -0.25261 0.11283 0.08075 -0.061894 0.27891 -0.24294 0.16072 0.08977 -0.10137 -0.041325 -0.095133 0.071227 -0.041267 0.033624 0.0085092 -0.020058 -0.20834 -0.18716 -0.22368 0.079719 -0.28658 -0.0068629 -0.16462 0.22119 0.15352 -0.19392 -0.0024972 0.0025866 0.12018 0.23845 0.068506 0.038072 -0.29278 -0.12401 -0.034164 -0.09705 -0.16675 -0.15186 0.094577 -0.24264 0.12768 -0.17434 0.071139 0.01554 -0.021629 -0.047816 0.22021 0.168 -0.22761 0.027099 0.20715 -0.024217 -0.10315 -0.094819 0.1632 0.085565 0.04697 0.074492 -0.015347 0.19099 -0.11682 -0.067284 -0.099759 -0.0087078 0.13304 0.17748 -0.26667 -0.044924 -0.1766 -0.18783 0.026349 0.060237 -0.044103 -0.20133 -0.052534 0.24971 0.073556 -0.2734 0.19022 0.081811 -0.15208 -0.013973 -0.055145 0.30391 -0.15502 0.35178 -0.073582 -0.35093 -0.0053667 -0.014807 0.16239 0.2958 -0.080618 -0.15988 0.17803 0.0025671 -0.078932 
ginger -0.12507 0.0093613 0.094579 -0.27634 0.17845 0.44451 0.072185 0.36295 -0.10029 0.15754 -0.067194 0.31251 -0.25175 -0.2099 -0.65381 -0.024002 0.33316 -0.0026884 -0.15748 -0.011001 -0.35763 0.17781 0.35997 -0.16437 0.025171 0.12231 0.3518 0.0033968 0.0057794 0.14977 -0.091991 -0.067962 0.16357 -0.15018 0.14979 0.13307 0.10433 0.049911 0.12224 0.39036 -0.16373 0.35326 -0.33942 0.28613 -0.13901 0.021993 0.15583 -0.12082 -0.018205 0.1165 0.30626 -0.057884 -0.12697 0.13923 -0.13771 -0.19324 -0.31437 0.26511 0.10634 0.19066 0.24882 0.21251 0.097316 -0.050776 0.32819 -0.39811 0.022877 -0.076754 0.37319 -0.092875 0.27818 0.058967 -0.20071 0.20255 0.024698 -0.095444 -0.10851 -0.07289 -0.35602 -0.0951 0.0053945 -0.049578 0.040914 0.070645 -0.27844 -0.16577 -0.0094994 0.012838 0.27394 0.056944 -0.13279 -0.019515 -0.32969 -0.12853 0.19898 -0.12922 0.10157 0.13005 0.015344 0.11594 
lemon -0.23877 -0.24011 0.031007 0.086851 -0.19771 -0.063254 -0.023532 0.15895 -0.18292 -0.18438 0.12814 0.075858 0.2073 -0.056088 -0.095869 0.076256 0.18363 -0.10703 -0.27474 0.077873 -0.08347 0.089729 -0.041304 -0.099679 -0.11834 0.0093166 -0.056948 -0.079053 -0.091072 -0.031512 0.032576 -0.01514 0.10886 0.01432 0.17689 -0.16202 -0.014555 -0.12459 0.15809 0.15129 -0.15413 -0.052162 -0.052152 -0.065597 -0.0035964 -0.032511 0.081882 -0.10205 0.17445 -0.041053 -0.13719 -0.076567 -0.10674 0.21886 -0.018285 -0.14371 0.069503 0.15392 0.12206 0.26337 0.30971 0.15223 0.045449 -0.11484 0.096609 -0.098249 0.086958 0.12858 -0.052514 -0.098793 0.19747 0.074941 -0.14633 -0.31473 -0.0046539 -0.074861 0.18963 -0.19586 0.059661 0.10475 -0.14097 -0.15453 -0.13035 0.21076 -0.041424 0.14911 -0.099761 0.10271 -0.1745 0.12827 -0.0095216 0.13065 0.11958 -0.02194 0.11184 -0.34843 -0.20977 0.094586 0.30137 0.079651 
parsley -0.25368 -0.27318 -0.37901 0.14958 0.10809 -0.20319 0.0055912 0.056493 0.1924 0.19879 -0.13297 -0.11982 0.026412 0.2129 0.084044 -0.0077658 0.027142 -0.058213 -0.33569 -0.051423 0.1851 0.10169 -0.012002 0.070498 -0.088342 -0.26086 0.19511 -0.13479 -0.1554 0.029067 0.10531 0.049185 0.029345 0.23199 -0.015396 0.062024 -0.14016 0.2814 -0.099279 -0.38978 -0.00048875 -0.059562 -0.033731 -0.14767 -0.28134 0.10845 0.094754 0.26964 0.25482 0.080996 0.2701 0.0028532 0.46817 -0.0099906 -0.28914 0.16024 0.020498 -0.23691 0.15228 0.46305 0.4381 -0.067185 -0.15929 0.093671 -0.11013 0.10078 -0.062385 -0.18215 0.010541 -0.087444 0.037055 0.13477 0.29506 0.19669 -0.040547 -0.1358 0.012563 -0.15197 -0.024759 -0.25813 -0.020096 -0.027806 -0.052822 -0.037667 -0.071097 0.05059 0.072772 0.01689 -0.13793 0.094825 0.18771 0.0019611 0.15457 -0.28123 0.086715 -0.21844 0.026543 -0.057045 0.1776 0.032957 
cinnamon -0.26768 0.22077 0.42383 0.079988 -0.24738 0.021475 0.13303 0.18605 0.0084049 0.034769 0.066548 0.34871 -0.48187 -0.032785 -0.10733 -0.259 0.28915 -0.0234 0.05235 0.45704 0.10877 0.20375 -0.2387 0.25961 -0.01047 0.24997 -0.22968 -0.2576 -0.19238 0.24189 0.29053 0.14632 0.30426 -0.080768 0.17161 0.31498 -0.21387 -0.38964 -0.14621 0.57657 0.22087 0.23038 -0.15847 -0.0059246 0.21037 0.25264 0.11073 -0.26728 0.077536 -0.2357 -0.27189 -0.12553 0.070147 0.040585 -0.19171 -0.15237 -0.086242 0.058073 0.10783 -0.069206 0.21027 0.046373 0.45813 -0.23785 -0.24946 0.16912 0.037867 0.18019 0.23112 -0.18913 0.074769 0.07349 0.12406 0.34978 -0.11786 -0.06597 0.034686 0.08975 -0.095636 -0.2678 -0.048558 -0.39932 0.27108 0.29589 -0.42077 0.048206 -0.024806 0.43033 -0.25429 -0.18376 0.034482 -0.37438 0.042576 -0.17478 0.11314 -0.53648 -0.29085 -0.22203 -0.11004 -0.1318 
cilantro -0.2083 0.058695 0.075244 -0.043901 -0.23304 0.22011 0.083858 0.4478 0.03158 0.16544 0.10893 -0.29374 0.15828 -0.075849 -0.36995 -0.01625 0.13093 0.51199 -0.1395 0.087356 0.27527 -0.19219 -0.1368 -0.057534 -0.356 0.048603 -0.10892 0.055595 0.073455 0.0013966 -0.12829 0.09348 0.14437 0.016343 -0.11797 0.0056053 -0.1046 -0.029219 -0.13391 0.0064372 0.4488 0.034176 0.1007 0.0066219 -0.022783 -0.020293 0.058897 0.030118 0.076506 -0.088254 0.25624 -0.14718 0.21881 -0.027352 0.21489 -0.091409 -0.49012 0.0073069 0.20092 -0.19899 0.12746 0.33283 -0.13347 -0.39051 0.2208 -0.23926 0.21889 0.00022287 0.039082 -0.010584 -0.078392 -0.19334 0.0074691 0.13282 -0.041404 -0.05761 -0.021486 -0.46749 0.26835 0.17341 -0.26401 0.25926 0.15465 0.064976 0.15752 0.10262 0.40366 -0.04116 0.28338 -0.16961 0.13635 -0.080121 0.1068 0.22438 -0.057912 0.03274 0.24406 0.17503 0.10007 0.15949 
soy_sauce 0.19177 -0.32265 0.17728 -0.25313 0.33939 0.36134 0.043086 0.21938 -0.13269 -0.12773 0.24546 0.13042 -0.46989 -0.14959 0.01612 -0.35537 0.11103 0.28426 -0.050179 -0.22926 -0.403 -0.19363 0.19177 -0.36292 -0.18982 0.066859 0.15505 0.0092785 0.0070152 -0.27253 -0.28576 0.24885 -0.29917 -0.060593 -0.12283 -0.096776 -0.11255 -0.051473 0.061458 -0.35563 -0.11326 0.091276 -0.21025 0.30946 0.04944 0.089762 0.12507 -0.32719 0.0051055 0.21431 0.24714 -0.44927 -0.19408 -0.000145 -0.07681 -0.20335 -0.26892 0.062057 0.16418 0.37377 0.13111 0.2076 0.11965 0.028054 -0.09585 -0.78236 -0.10361 -0.16156 0.083077 -0.22071 -0.23855 -0.21695 0.043746 0.5519 0.033314 -0.13244 -0.34089 0.12539 -0.042399 0.39689 -0.24696 -0.14888 0.20229 -0.33449 0.1048 0.031971 0.054054 -0.097281 0.1992 -0.022642 0.02726 -0.038206 -0.03332 0.28833 0.37572 -0.038617 -0.22429 -0.17056 0.20958 -0.061613 
onions -0.06654 -0.17594 -0.080067 -0.22448 0.11058 0.24624 -0.07951 0.08151 -0.48234 -0.26225 0.13813 -0.11204 0.20245 -0.27322 0.074849 0.26989 -0.057215 0.14751 -0.3201 0.018893 0.0095438 -0.35292 -0.35376 0.094803 -0.16117 -0.11791 -0.24056 -0.11337 -0.27106 0.039243 -0.13775 0.0077752 0.53628 0.13815 0.078726 -0.2099 -0.063397 -0.23921 -0.012489 0.25643 0.044298 -0.17643 0.22996 0.14176 -0.20419 0.087351 -0.21391 0.58931 0.3158 0.038033 0.46601 0.24238 -0.01674 0.30647 0.11425 0.13583 -0.39363 0.3769 -0.20419 -0.084889 0.28315 0.32665 0.25714 -0.026001 0.0035346 -0.20393 -0.15167 0.36578 -0.35133 -0.21302 0.15931 0.18401 -0.14465 0.11412 -0.090953 0.11617 -0.16638 -0.012703 0.0248 0.10355 0.099994 0.018424 0.15204 -0.36416 -0.23446 0.11526 0.12395 -0.022658 0.38352 -0.4173 0.091228 0.014831 -0.20901 -0.28389 -0.00069081 0.22499 0.078796 -0.084817 -0.076163 -0.13729 
beef 0.065167 0.21654 0.0084405 -0.067533 0.060611 0.16356 -0.063081 -0.21499 0.13612 0.081125 -0.3426 -0.092707 -0.042957 -0.21285 -0.050726 0.15726 0.049619 0.13402 0.0037495 0.063684 0.21331 0.13834 0.07641 0.070877 0.023956 -0.29449 -0.11092 -0.21948 0.11999 -0.32244 -0.18784 -0.029591 -0.058869 0.011739 -0.11124 0.096058 0.051311 0.22787 -0.092072 0.17904 0.19171 0.12635 0.32666 -0.05565 -0.13289 0.28334 0.15467 0.044744 -0.22005 0.23119 0.031352 -0.026557 0.0022607 0.12888 0.042457 0.269 -0.076336 -0.12312 -0.034171 -0.33933 0.16949 0.036177 0.25749 0.36498 0.001069 -0.23436 -0.02308 -0.023042 0.039668 -0.22559 -0.12344 -0.11925 0.16805 0.19953 0.2574 -0.1497 -0.29026 -0.040448 0.067713 0.081775 0.046169 -0.098417 -0.29908 -0.50644 -0.19635 0.061667 0.062904 -0.060532 0.28117 -0.013509 0.090652 0.11 0.19 -0.196 -0.10177 -0.049658 -0.072891 -0.42021 0.32903 0.22849 
cumin 0.059456 -0.13226 0.33132 -0.18531 -0.037322 0.28956 0.36954 0.18859 0.14186 0.20457 0.099983 -0.1204 0.34466 0.04537 -0.1442 -0.29981 -0.15509 0.20454 -0.20249 0.26329 0.27984 0.12342 -0.26263 0.01839 -0.18734 -0.054997 -0.18552 -0.01914 0.19901 0.075294 0.17486 -0.52777 -0.11472 0.086752 -0.049355 0.17549 -0.057333 0.27209 0.0065774 0.11332 0.015301 0.30787 -0.17808 -0.02546 -0.11863 0.072397 0.34057 0.091387 0.20305 0.049484 0.27304 -0.10296 0.027196 -0.074427 0.31274 -0.14888 -0.18601 0.37926 0.42777 -0.17248 0.46705 0.095649 0.036199 -0.31879 0.17411 -0.064873 0.057434 0.439 -0.081259 -0.19572 0.040526 0.15071 0.083754 0.10824 0.4221 0.059018 -0.3286 -0.21678 0.23905 -0.075227 -0.21314 -0.0014207 0.43374 -0.089848 0.25677 0.12349 -0.10735 -0.17133 0.16009 -0.27836 0.035594 -0.01043 0.37814 -0.003088 0.014193 0.051362 0.010453 0.24469 -0.14096 0.18524 
cane_molasses -0.0084413 0.15786 -0.24058 -0.32565 -0.12574 -0.1147 0.16569 -0.20186 0.50033 0.60288 0.18974 0.58323 -0.14539 0.042732 0.15676 0.12928 -0.19395 0.26459 0.35103 -0.25499 -0.2453 -0.099202 0.18618 -0.33847 0.10848 -0.36041 0.13035 0.079106 -0.22038 0.67886 0.094035 0.31297 -0.12968 -0.052018 -0.45641 0.14269 0.26049 -0.15744 -0.03948 0.33262 -0.018064 0.46762 0.12888 0.16073 0.57699 -0.066605 0.4073 0.041 -0.37528 -0.099972 -0.082326 0.41298 -0.42428 -0.1528 -0.0087503 0.012251 0.12824 0.068641 -0.155 -0.10728 -0.025077 0.45749 -0.070481 0.12711 -0.60952 0.19029 -0.020681 0.43193 -0.40818 -0.18669 -0.052004 0.28992 0.30629 0.24001 0.34555 -0.39825 -0.17708 -0.038827 -0.1595 -0.31303 0.18656 0.02036 -0.51549 0.034961 0.33236 0.12403 0.16218 0.29971 -0.30732 0.34793 -0.018567 -0.061337 -0.027341 -0.097265 -0.1417 -0.056211 -0.058074 0.5367 -0.15068 0.1093 
water -0.037997 -0.059133 -0.35225 -0.12542 -0.0088015 0.18226 0.056804 -0.14332 -0.6201 -0.0018828 0.26576 0.081915 -0.082593 -0.22772 0.052842 -0.26442 -0.026148 0.03585 -0.090239 0.02501 0.052032 -0.1762 -0.13874 0.063364 -0.14931 -0.27062 -0.057542 -0.22847 0.093858 -0.023923 -0.15352 0.14485 0.28585 -0.14702 -0.24916 -0.040331 0.31777 -0.3699 0.056484 0.087886 0.069746 -0.014565 0.24017 0.21733 0.15112 0.04422 -0.10562 0.32966 0.23652 0.49037 0.097545 0.031805 0.2672 0.17458 0.1532 0.053441 -0.0051106 0.25401 0.14123 0.012769 0.3565 -0.0084307 0.27927 -0.28331 0.068249 -0.2315 0.014101 -0.30059 -0.047215 0.018433 -0.033567 -0.11651 -0.14918 -0.12208 0.22145 -0.14229 -0.035984 0.12576 0.019841 0.042244 0.073054 0.025795 0.073646 0.14001 -0.37928 0.093404 0.12796 -0.14787 0.28731 0.086658 -0.18652 0.07817 -0.28775 -0.20135 0.080878 -0.08735 -0.084454 0.10527 0.0058587 0.090149 
vegetable -0.05637 0.17045 -0.022707 0.11079 -0.0062301 -0.062239 0.15353 -0.070528 -0.059243 -0.049189 -0.10027 0.096092 0.17152 0.14603 -0.047103 -0.24248 0.07297 -0.034208 -0.045809 0.038084 -0.017707 -0.16089 -0.11802 -0.12515 -0.15541 -0.17336 -0.091975 -0.22076 0.09634 0.16998 -0.10749 0.045264 0.084455 -0.057811 -0.014142 -0.20302 -0.04107 0.046948 0.14631 0.10862 0.16222 -0.075526 -0.11085 0.1631 -0.043992 0.17112 0.011923 0.072561 -0.3262 0.02004 0.062488 -0.070227 -0.118 0.18883 -0.04266 0.065362 -0.16602 -0.047821 -0.035745 0.028472 0.23029 0.21863 0.27599 -0.15632 0.31717 -0.11403 0.089732 0.066594 -0.059948 0.00048289 0.16793 -0.12976 0.0024551 -0.095405 0.044469 -0.15283 -0.051905 0.0065091 0.13499 0.12044 -0.1526 -0.1126 0.051724 0.039181 -0.13471 0.068332 -0.066698 -0.10885 0.28025 -0.27303 -0.13556 0.034484 -0.029994 0.0068292 0.18965 -0.13629 0.38192 0.13317 0.18181 0.078185 
basil 0.16846 -0.40307 0.24131 0.46043 -0.23518 -0.50079 -0.064317 0.13752 0.35143 0.047283 -0.0039395 -0.02961 0.20975 -0.11187 0.20101 -0.14713 0.22394 -0.035349 -0.1785 -0.041443 0.080294 -0.38917 -0.0048571 -0.095504 -0.15972 -0.21348 0.12271 -0.066788 0.24787 -0.17961 -0.16931 -0.15849 0.3553 0.10941 -0.014814 0.040579 0.20545 0.20957 0.011108 0.22531 -0.09716 -0.22338 0.21559 0.026069 -0.11618 0.041797 0.137 0.1747 0.04553 -0.11857 0.058224 -0.15124 0.015244 0.017376 -0.21491 0.38146 -0.080746 0.2177 -0.0038271 0.18142 -0.0051875 -0.25451 -0.26865 -0.11047 -0.06217 0.026151 -0.14706 0.067876 -0.1275 0.093164 -0.39719 0.060187 -0.31539 0.3891 -0.11524 -0.20278 -0.10566 -0.11435 0.33557 -0.1013 -0.19124 -0.32109 -0.07239 -0.23397 -0.094958 0.096713 -0.06396 -0.2639 0.11011 0.21058 0.091502 -0.20604 0.047712 -0.15805 0.20374 0.29168 -0.030223 -0.089284 0.2011 0.34711 
bread -0.18431 -0.44581 0.025372 -0.071003 -0.17039 -0.17442 -0.09737 -0.081914 0.33365 -0.095309 -0.42472 -0.12986 -0.067395 0.25234 0.0017263 0.22348 0.28287 -0.094382 -0.11119 0.1152 -0.24102 -0.3489 0.036211 -0.26232 0.20555 -0.0016036 0.005565 0.13458 0.13103 -0.094256 0.056016 0.21305 0.11666 -0.13854 0.026729 -0.025116 0.23767 -0.059834 -0.074836 -0.094201 0.033483 0.081839 0.11177 -0.34592 -0.23349 0.049858 0.26937 0.094165 -0.014978 0.52437 -0.2041 -0.057141 -0.14653 0.053111 0.042583 -0.10702 0.34827 0.092802 0.058025 0.053655 0.25917 0.18678 0.067257 -0.081821 -0.17157 -0.15307 0.016731 -0.03354 0.099173 0.021992 -0.062419 0.14594 -0.011584 0.15819 -0.11822 0.12577 0.096483 -0.0096571 0.10219 -0.36429 -0.036246 0.22425 0.063426 -0.0098901 -0.1288 0.038187 0.005634 -0.012437 -0.021798 0.13169 0.04195 0.32618 0.2569 -0.24173 -0.015259 0.13877 0.11162 -0.24824 -0.11326 0.068823 
sugar 0.011709 0.13147 -0.06589 -0.18479 0.2293 -0.079178 -0.067745 -0.030217 -0.2555 -0.16254 0.094865 0.17814 -0.10195 0.00089767 -0.071983 -0.0014593 -0.1859 -0.21026 -0.10392 0.15166 -0.38847 0.25725 0.021939 -0.30771 -0.083795 -0.035251 -0.11728 0.30863 -0.11703 0.025952 -0.21421 -0.031005 -0.0087113 0.068177 -0.19259 0.00070321 0.065392 -0.62215 -0.031066 -0.04208 0.22078 -0.37972 0.19684 0.037497 -0.1212 -0.12829 -0.18143 0.40401 0.42057 0.060853 0.11015 -0.37554 0.31598 0.30337 0.20118 -0.094038 -0.14653 0.097647 -0.25507 -0.0006768 0.26519 0.24695 0.53753 -0.22516 0.26617 -0.25904 -0.13649 -0.15948 0.050496 0.19949 0.25067 0.4788 -0.20101 0.09782 -0.0086383 -0.086365 -0.13113 0.3664 -0.18768 0.29007 0.0030169 -0.04034 0.19582 0.34135 0.0019943 0.059235 0.21628 -0.12294 -0.038263 0.32537 -0.17728 -0.059381 -0.33625 -0.030319 -0.087991 -0.37189 0.29074 -0.041358 0.33116 0.34351 
lime -0.21406 0.2598 0.012585 -0.16973 -0.29984 0.34802 0.29262 0.3802 -0.36457 0.15347 0.17157 0.049593 0.17413 0.15417 -0.15726 -0.078592 -0.083342 0.18995 -0.12528 -0.48483 0.028783 -0.011249 -0.091727 -0.072773 0.11334 -0.29344 -0.29713 -0.12664 0.22141 -0.098261 -0.025749 -0.059258 0.13195 0.002778 0.07217 -0.065236 0.37299 0.070649 -0.13803 0.029897 0.3858 -0.076241 0.031248 0.1797 -0.035274 -0.078547 -0.32084 0.25421 0.072474 -0.094068 0.28475 -0.38757 -0.049532 -0.10846 0.26669 -0.42396 -0.30127 0.22738 0.31427 0.46183 -0.04313 0.20154 -0.040531 -0.13081 0.27521 -0.081346 0.28222 0.10254 -0.060653 0.041352 -0.12902 -0.16803 -0.010806 0.16204 -0.030696 0.16795 -0.048816 -0.091045 0.057679 0.14198 -0.51054 -0.13175 0.12346 0.15686 -0.10024 0.23974 0.17923 0.063818 -0.066273 0.12906 -0.12605 0.04666 0.071448 0.37002 -0.022107 -0.1023 0.091157 0.052694 0.074388 0.14978 
oregano 0.11648 -0.10539 0.038559 -0.030371 -0.17798 -0.4051 -0.26415 0.22986 0.11763 0.017766 -0.23374 -0.16666 0.54136 0.13966 -0.075727 -0.33614 -0.04459 0.14122 -0.1974 0.037161 0.14626 -0.072032 -0.011096 0.060676 -0.099001 0.045891 -0.11904 -0.22192 0.21383 -0.058146 0.083283 0.040204 -0.17923 -0.20305 0.073576 -0.54869 0.029108 0.19907 0.11137 0.084766 0.28599 0.17357 0.056286 -0.25021 -0.092208 0.026156 -0.38485 0.029084 -0.19494 0.033349 0.24889 -0.013381 0.38015 -0.14678 -0.067236 0.40642 0.031404 0.38304 0.029195 0.040374 0.072276 0.23889 -0.22133 0.25516 -0.36751 -0.074814 0.081165 -0.25857 0.32968 -0.24192 -0.042534 0.14726 0.013412 0.22217 0.10058 0.20446 -0.22993 -0.53335 0.25879 -0.081938 -0.092814 -0.27703 0.1187 -0.3861 -0.13397 0.020589 -0.070758 -0.025834 0.13326 0.11897 0.3082 0.24054 -0.090761 -0.21566 -0.079457 0.15169 0.0016935 -0.093338 0.15091 0.035872 
mustard 0.035365 -0.47516 0.27708 -0.11095 -0.2706 0.11882 0.028935 0.026718 -0.11716 -0.30102 0.19303 0.1119 0.055701 0.27932 -0.10035 -0.15459 0.023752 0.022888 -0.09701 0.12475 0.01414 0.078229 -0.045235 0.017462 0.29221 0.14268 -0.17843 -0.17483 -0.46632 0.1209 0.18483 0.23103 0.070136 0.23008 0.037039 -0.18345 -0.026818 0.32676 0.023108 0.15837 -0.18049 0.43396 0.11408 0.14692 -0.15135 -0.010306 0.39961 0.092181 -0.1244 0.26979 0.06009 0.19908 0.035244 0.17612 0.027867 0.20118 0.030978 -0.19298 0.029284 -0.027522 0.27039 0.019992 0.37304 0.028009 -0.0052647 -0.12002 0.20028 -0.22049 0.32239 0.0031782 -0.27046 0.27903 -0.26542 0.16867 0.16279 -0.3475 0.027378 -0.088056 0.14311 -0.050667 0.010882 0.32983 0.013017 4.9407e-05 0.077477 -0.22636 0.25026 0.086734 -0.20156 0.2533 0.063263 0.2653 0.58962 0.16959 -0.21543 -0.36167 -0.032648 0.065071 0.04106 0.16111 
bell_pepper -0.030664 0.045283 -0.25929 0.014561 0.13769 0.0015751 0.4762 -0.076246 0.44195 0.31496 -0.061634 0.23714 -0.124 0.23012 0.52769 0.041768 -0.066774 0.64266 -0.11412 -0.2657 -0.11068 -0.11804 0.066928 -0.36812 0.15881 -0.078809 0.27137 -0.05474 0.023048 0.21065 0.11276 -0.10949 -0.22965 -0.023716 -0.080885 0.055563 -0.1157 -0.13165 0.34401 0.27428 -0.28565 0.14454 0.48206 0.17577 0.11185 -0.1621 -0.3703 -0.12949 -0.014563 0.12213 -0.01052 0.39256 -0.18294 0.095511 0.14362 0.11914 0.17131 0.28812 -0.042102 0.037429 -0.34252 -0.06082 -0.023182 0.36708 -0.066187 -0.1484 0.3151 0.088824 0.32015 0.03227 -0.57766 0.30322 0.35718 0.041576 -0.026657 -0.23823 0.28394 -0.11311 -0.099285 -0.45152 -0.19671 0.34969 -0.23789 -0.17189 0.3926 -0.13619 0.043264 -0.067515 0.1283 -0.3426 0.27548 0.37541 0.52029 -0.15177 0.086201 -0.14685 -0.23623 0.0058202 0.2807 0.40828 
celery -0.32131 0.1302 0.044178 -0.13225 -0.0053761 0.22052 -0.038059 -0.016106 0.18469 0.13402 0.094264 0.0072968 0.03191 0.027607 0.30669 -0.13428 0.27749 -0.015239 -0.083478 -0.24257 0.141 0.21877 0.35962 -0.028956 -0.024105 0.0061422 0.096381 -0.31992 -0.13689 -0.024983 0.29791 -0.333 -0.053877 0.013446 -0.18914 -0.27852 -0.36492 -0.011135 0.336 0.022691 -0.12222 -0.14261 -0.1443 0.03831 0.030813 0.20531 -0.14902 0.2089 0.012879 0.32867 -0.07477 -0.4148 0.34585 -0.039325 -0.25692 0.22104 -0.13126 0.045975 -0.040106 0.0085111 0.28872 0.19345 0.0043764 0.082419 -0.12997 -0.19479 0.20026 -0.084472 -0.057879 -0.27503 -0.003513 0.0015633 -0.33142 0.11799 -0.13269 -0.028707 0.013184 -0.026485 0.37824 -0.016315 -0.015499 0.073409 -0.33926 -0.40076 -0.090392 0.05744 0.0081514 0.00077457 -0.14291 0.17748 -0.031604 0.053118 0.3198 -0.22687 -0.12773 0.14879 -0.073325 -0.11258 -0.25246 0.4141 
thyme -0.164 0.097561 0.019743 0.0029381 -0.029527 -0.073957 0.07946 0.22391 0.35991 0.05048 -0.0099144 -0.24384 0.25916 0.013559 -0.17 0.087423 -0.14996 -0.10739 -0.17397 0.048788 0.067841 -0.27273 -0.016386 -0.13686 -0.25236 0.016003 0.16488 -0.26891 -0.034486 0.030647 0.21416 0.062758 0.24383 0.18549 -0.26017 -0.14451 -0.036168 -0.22084 0.39937 -0.08445 0.036933 -0.060457 0.055433 -0.3421 -0.2637 0.036281 0.048346 0.2704 0.10902 0.15417 0.066284 -0.45459 0.22232 0.18406 -0.30827 0.22724 -0.13814 -0.23845 0.13067 -0.065802 0.30283 -0.075812 -0.13823 0.22214 0.070924 -0.10479 -0.13248 -0.21394 -0.074021 -0.20899 -0.1597 -0.15024 0.085046 0.11474 -0.054056 -0.050504 0.17211 -0.013486 -0.019904 -0.13384 0.19294 -0.069331 0.056563 -0.40527 -0.24826 0.23129 -0.32888 0.27565 -0.20713 0.034958 0.11702 0.062935 0.25485 -0.21316 0.33097 0.077642 -0.10165 -0.20536 0.0046867 0.33643 
cocoa 0.22318 0.069506 -0.25434 -0.22872 0.43957 -0.057491 -0.15051 0.094752 -0.40702 -0.026332 0.25653 0.26179 -0.76726 0.41481 -0.45144 -0.08935 0.14004 -0.21991 0.45242 0.45489 0.32412 -0.2256 0.3291 -0.29925 -0.28896 -0.08964 -0.13452 -0.56499 0.1365 0.14308 -0.12889 -0.28424 -0.16746 0.053562 0.11004 0.51398 0.14613 0.15258 -0.26238 0.30655 -0.0095198 -0.14627 -0.30317 -0.088425 0.27821 -0.37846 0.38151 -0.063085 0.44833 -0.311 -0.70318 -0.0042886 0.37047 0.39278 -0.15845 -0.27945 0.48601 0.50282 -0.5978 -0.2017 -0.30892 0.56502 0.53217 0.26829 -0.22818 0.66488 -0.087646 0.043222 -0.33707 0.27011 -0.090945 -0.29073 0.15838 0.051329 -0.51328 0.27056 0.075425 0.34593 -0.10222 0.089765 0.12824 -0.37288 -0.24962 -0.17615 0.26624 0.053528 0.55948 0.60589 -0.0028041 0.53445 0.2627 -0.28057 -0.12384 -0.46927 -0.1737 -0.32944 -0.32796 0.42576 0.03976 -0.14525 
lemon_juice 0.2001 -0.06701 0.25309 -0.13336 0.24937 0.17103 0.040306 0.011039 0.060775 0.32109 0.28944 0.11 -0.026349 0.51767 0.26819 0.3285 -0.35997 0.35916 -0.30177 -0.3562 -0.20175 -0.20572 0.087329 0.056313 0.022643 0.17813 0.34996 0.029791 -0.0096134 0.013319 0.0097357 -0.082225 -0.20716 -0.03591 -0.16689 0.01805 -0.14787 -0.28972 -0.032737 0.0616 -0.15706 -0.1498 0.18399 -0.10375 0.18244 -0.29881 0.32446 0.03347 -0.26852 0.0053873 -0.26305 0.2676 -0.1372 -0.033546 -0.13183 -0.32071 -0.035042 0.32707 0.29224 0.095664 -0.20721 0.22031 0.033786 0.41925 -0.18719 0.1107 -0.14917 0.3513 0.096831 -0.081403 -0.27098 -0.018449 0.15899 -0.39413 -0.017156 -0.35899 0.25547 -0.066882 -0.3914 -0.51187 -0.16571 0.25664 -0.23309 0.12419 0.16923 -0.31713 0.060939 0.57984 0.053319 -0.083155 0.22816 -0.031811 0.28121 -0.19053 -0.32734 -0.50073 -0.16325 0.20175 0.012347 0.25297 
wine -0.11939 -0.056148 -0.10826 0.078176 -0.27404 -0.060859 -0.094918 0.3489 -0.18899 -0.1893 -0.058176 -0.10906 0.19541 -0.091746 0.037277 0.32175 -0.0063356 0.030341 -0.17212 -0.2067 0.076421 -0.15713 -0.078346 -0.052298 -0.42145 -0.29849 0.074967 0.097066 0.082104 -0.12787 0.12746 0.15284 -0.063103 -0.088471 -0.13532 -0.29524 -0.092056 -0.12045 -0.057673 -0.028657 -0.27847 -0.12606 -0.1272 0.17353 -0.10769 0.16821 -0.035117 0.29933 0.089398 0.26854 0.18801 -0.37927 -0.22908 -0.066389 -0.13675 0.11092 0.076514 -0.036759 -0.0061303 0.18508 0.30982 -0.35035 0.056482 -0.21261 0.10775 -0.17053 0.013557 0.064901 0.12944 -0.38534 -0.15039 0.31888 -0.15731 -0.14165 -0.14052 -0.10031 -0.06675 0.01645 -0.091384 -0.0065931 -0.043558 -0.031078 -0.12409 -0.098881 -0.03288 0.071678 0.032367 -0.071565 -0.034937 0.33828 -0.051246 -0.080803 -0.13228 -0.36277 0.089228 0.17668 -0.17404 -0.051213 0.053563 0.27374 
all_purpose_flour -0.23773 -0.41349 -0.38125 -0.041398 0.18324 -0.62219 -0.13354 0.27013 -0.47144 -0.65781 0.16387 0.034377 0.056394 -0.29828 -0.25547 -0.098408 -0.035954 -0.32932 0.030974 0.18473 -0.011031 -0.25226 0.019806 -0.027587 0.15094 -0.25699 -0.023991 -0.08858 0.16896 0.51862 0.30515 0.37908 0.36525 0.023021 0.028218 0.029131 -0.11544 -0.44881 0.34473 -0.074556 0.0053405 -0.23902 0.018217 0.00062406 0.0020387 -0.18526 -0.36349 0.18836 0.21192 0.37086 -0.10295 -0.58122 0.23719 0.31944 0.12555 0.0059522 0.12391 0.0916 0.07871 -0.17682 0.17543 0.05595 0.042123 -0.14678 -0.11429 -0.044137 0.15208 0.36665 -0.094986 0.171 0.36853 0.18429 0.20371 -0.11642 0.16468 0.047337 -0.11471 0.32818 0.064834 -0.11212 0.0037153 0.24598 0.17289 -0.25167 -0.24657 -0.29124 0.2806 -0.077793 0.016146 -0.14989 -0.16457 -0.021065 -0.34907 -0.16855 0.030493 -0.35182 -0.13588 -0.087259 -0.16441 0.34153 
pork -0.010881 0.096611 0.14802 -0.35089 0.0042061 0.16772 0.19077 -0.060027 -0.11007 -0.16749 -0.32987 -0.0023382 -0.071684 -0.20629 -0.16756 0.34029 0.034856 0.0092378 0.067163 -0.015289 -0.089738 -0.07027 0.13331 -0.047952 -0.12219 -0.23608 0.15183 -0.019051 0.034797 -0.35151 -0.21006 0.053495 -0.23757 0.094343 -0.17636 -0.053507 0.062598 0.05132 0.10215 0.1097 0.10506 -0.11896 0.10801 0.052772 0.12702 0.36406 0.12446 -0.06709 -0.15703 0.057972 0.22138 -0.3617 0.0389 0.047674 -0.0028287 0.0021366 -0.16011 0.038926 0.13981 0.063358 0.039334 -0.0073978 0.13667 -0.020116 -0.0607 -0.34122 -0.12134 -0.062128 0.21846 -0.14989 -0.24593 -0.25652 0.021 0.37097 0.22019 -0.37766 -0.15846 0.028136 0.076732 0.23197 -0.087759 0.046397 -0.13351 -0.41492 -0.11436 -0.062377 0.081554 0.0044078 0.1884 -0.087461 0.029048 -0.016128 0.15583 -0.09445 -0.16083 -0.15555 0.0022098 -0.13212 -0.036325 0.045646 
scallion 0.31667 0.13541 0.15946 -0.12995 0.42987 0.10199 0.45 -0.16765 0.30618 0.21384 0.030705 0.19967 -0.18499 -0.011604 0.14953 0.29683 -0.025949 0.44929 -0.2266 0.020175 -0.071791 -0.20438 -0.046924 -0.32934 0.33323 -0.20686 0.3176 0.0049438 -0.21838 0.28499 0.072545 -0.099571 -0.073222 -0.076057 -0.25798 -0.22446 -0.25237 -0.15356 0.046908 0.12929 -0.027459 -0.014065 0.15177 0.0035042 0.32717 -0.098127 0.026063 -0.059302 -0.16337 -0.10624 -0.070891 0.29082 0.08156 -0.21087 0.20052 -0.026986 0.079619 0.21064 -0.025248 0.34861 -0.32878 0.10967 -0.080577 0.16962 -0.1262 -0.094031 0.2228 0.18253 -0.066564 -0.043842 -0.344 0.22973 -0.15787 -0.1657 -0.022463 -0.20222 0.32771 -0.019455 0.24564 -0.37831 0.22827 0.045069 -0.29654 0.14554 0.20938 -0.35494 0.034186 0.015716 0.13184 -0.20986 0.15809 0.65905 0.37095 0.032668 0.073049 -0.21676 0.028387 -0.22199 0.37524 0.039171 
yeast -0.044587 -0.46124 0.05556 -0.13618 0.060279 -0.33621 -0.18156 0.042247 0.028328 0.094661 -0.6313 -0.13604 -0.21635 0.032414 0.10816 0.53507 0.079515 -0.34117 0.086513 -0.026068 -0.15226 -0.48121 0.2198 -0.50544 -0.25804 0.12316 -0.23049 0.20561 0.33464 0.28321 -0.093838 -0.14084 -0.1913 -0.11184 0.042512 0.31321 0.036311 -0.10526 -0.046268 0.082062 0.34065 0.15589 0.24724 0.096687 -0.20277 0.063974 0.10758 -0.16766 0.26047 -0.053474 -0.41774 0.027092 -0.0025796 0.16176 -0.09052 -0.076737 0.14231 -0.27529 -0.20629 0.08024 -0.27085 0.22377 0.31116 0.096054 -0.077194 0.1182 -0.12847 -0.18411 -0.3621 -0.050301 -0.22437 0.034274 0.045742 -0.035284 0.0042464 0.10905 -0.16639 0.23907 0.046196 -0.43741 0.016832 -0.23934 0.25812 0.021942 -0.021346 -0.0063212 0.064737 0.5222 -0.47214 0.11225 -0.11145 0.17747 0.18142 -0.14651 -0.44209 -0.065722 -0.28803 -0.13782 -0.32052 -0.34816 
potato 0.26448 0.02412 -0.10152 -0.050395 -0.10138 -0.056785 0.034015 -0.28069 0.21546 0.2695 -0.11948 -0.17051 0.13179 -0.083999 0.12801 0.012129 0.31047 -0.13802 -0.34919 -0.015256 -0.15135 -0.2449 0.077638 -0.096034 0.083448 -0.035483 0.20763 -0.12706 -0.14438 0.27235 0.54217 -0.11035 -0.22775 -0.019235 -0.14416 0.11986 -0.039757 0.18797 -0.038964 -0.13426 0.064946 -0.11715 0.19375 0.10053 0.040049 -0.094167 0.11507 0.40361 -0.075246 0.3086 -0.030092 0.19982 -0.11266 0.093687 0.013247 0.027322 -0.022094 -0.074192 -0.18492 -0.088403 0.065757 0.26923 0.21941 0.30965 -0.10924 -0.13348 -0.11222 -0.019406 0.030269 0.025705 -0.11829 0.20109 0.27293 0.19967 -0.062674 -0.14751 0.1571 -0.38533 0.20621 -0.20977 -0.0050816 0.30147 -0.063732 -0.43926 -0.10439 -0.23723 0.091313 0.2534 -0.35354 0.1958 -0.14358 0.16032 0.48451 -0.063819 0.48394 0.11737 0.0051515 -0.36997 -0.14154 0.10861 
coconut -0.24546 0.2804 0.26278 -0.012774 0.30079 0.42106 -0.34481 0.15816 -0.035018 0.19278 0.28671 0.42872 -0.069826 0.022675 -0.40541 -0.53585 0.064354 0.30295 0.24543 -0.35487 -0.082103 0.17375 0.19387 0.066952 0.1243 -0.17679 -0.42654 -0.12176 0.12808 0.18387 -0.010094 -0.15207 0.17366 0.24029 0.083401 0.13615 0.0091294 -0.18672 -0.20269 0.4029 -0.053453 0.22643 -0.0032748 0.59448 -0.013607 -0.13108 -0.087541 -0.21389 0.26694 -0.058158 -0.16879 -0.15872 0.091556 0.36331 -0.15278 -0.0032052 -0.3749 -0.20705 -0.20968 0.24106 0.12908 0.078661 0.065039 -0.004572 0.233 0.094835 0.1768 0.28512 -0.019633 -0.022831 0.14307 0.080461 -0.17302 0.30108 0.077912 0.32322 0.16264 0.058003 -0.085847 0.16996 -0.59017 -0.33415 0.20281 0.15542 -0.48007 0.26287 0.14852 -0.088377 -0.049254 0.031515 -0.057064 -0.12517 -0.092583 -0.13093 0.16648 -0.40327 0.13511 0.30428 -0.012168 -0.18842 
shrimp -0.022122 -0.21238 0.21345 0.12867 -0.020014 0.12983 -0.013908 0.16766 -0.058511 0.27278 0.082886 -0.048947 -0.0035048 -0.053519 -0.066352 -0.059656 -0.26834 0.24123 -0.16897 0.0090244 -0.14791 -0.4042 -0.16553 -0.11137 0.20744 -0.30851 -0.049756 0.29236 0.27825 -0.4369 0.16906 0.068759 0.26632 0.046885 -0.23338 -0.25728 -0.10281 0.49039 0.32833 -0.15094 0.12307 -0.038555 0.038388 0.074632 -0.20486 -0.078304 -0.05266 0.053171 -0.0035857 -0.060795 0.31011 -0.12612 0.022695 0.22492 0.18894 0.24191 -0.10782 -0.094485 0.055639 0.35034 0.23586 0.023275 0.16802 -0.23346 -0.021606 0.070114 0.15819 0.18374 0.31718 -0.4236 0.1057 -0.38352 -0.25184 0.13832 -0.27829 0.15643 0.041788 -0.20068 0.24026 0.044226 -0.066936 0.11021 -0.27552 -0.11573 -0.24004 0.16423 -0.027477 0.29296 0.3473 0.022575 -0.19737 0.0032598 0.027732 -0.043674 -0.030007 -0.14774 -0.083697 -0.055861 0.15677 0.16619 
honey 0.06208 -0.03105 0.0080299 -0.052352 0.0040158 0.057915 0.044635 0.031323 0.03454 -0.052931 -0.16218 0.38478 -0.016888 7.4902e-05 -0.36957 0.046729 -0.031295 0.035779 0.12259 0.03331 -0.62284 0.087136 0.084994 -0.050571 -0.4527 -0.062031 0.056883 0.025264 -0.16147 -0.030171 -0.079141 -0.27433 -0.29406 0.036076 -0.16302 -0.16698 0.099234 -0.3584 -0.18099 0.041142 0.068303 0.041257 -0.10088 0.02669 0.13709 0.049986 0.35956 -0.16302 0.10247 0.026667 0.045577 -0.10597 0.033981 0.044653 -0.0085181 -0.15055 0.00067744 0.23514 -0.034353 -0.011241 -0.0076829 0.16324 -0.24527 -0.10762 0.0063746 -0.057215 -0.0048655 0.16688 0.09295 -0.2713 0.094138 0.067379 -0.022295 0.037229 -0.031168 0.018986 -0.10387 0.14324 -0.092446 -0.041292 0.014684 0.093576 0.0041205 0.16248 -0.0019302 0.18686 0.055777 -0.053979 0.048385 0.053274 0.049115 -0.012576 -0.026712 0.030904 0.16794 -0.28755 0.032828 -0.19605 0.10296 -0.071982 
fish 0.10766 0.074241 0.40068 0.19343 -0.02435 0.14006 0.17879 0.35748 -0.23144 -0.014275 0.0016245 0.08514 0.082985 -0.058436 -0.36036 -0.21171 -0.1645 0.059019 0.20002 0.17588 0.016042 -0.23202 0.083535 -0.29271 0.38539 -0.21803 0.1885 0.30963 0.16342 -0.2605 0.21542 0.33509 -0.097648 -0.10418 0.099594 -0.28455 -0.088715 0.069232 0.23003 0.19 -0.073445 0.21053 0.20677 0.44242 -0.1501 -0.22065 0.098199 -0.18514 0.089574 0.031926 0.156 -0.28233 0.0819 0.15086 0.1565 0.18076 -0.23931 -0.11779 0.24433 0.45991 -0.11835 0.035817 -0.064162 0.0060955 0.477 -0.30616 0.12667 -0.01247 -0.17154 -0.57266 -0.15477 -0.17444 -0.37794 0.23506 -0.11559 -0.23667 0.10306 -0.44153 0.069716 0.070188 -0.28136 -0.27563 -9.9717e-05 -0.10137 -0.11069 0.17889 0.26281 -0.24056 0.010803 0.00081224 -0.338 -0.28848 -0.064418 0.016513 0.1778 0.015219 -0.10114 -0.029897 -0.18793 0.061374 
coriander -0.28359 0.14249 0.27828 0.022844 0.013925 0.4 0.042469 0.06894 0.15168 0.24887 0.078991 0.17132 0.34537 0.070805 -0.29682 0.027518 0.11871 -0.045757 -0.27064 0.099249 0.071204 0.21152 -0.22983 0.017902 -0.23628 -0.11415 0.085116 0.24473 -0.18155 0.5044 -0.21609 0.030119 0.1229 -0.17548 0.014083 -0.20099 0.039253 -0.049004 -0.081086 0.30055 -0.17082 0.43746 0.15379 0.4204 -0.14596 0.096348 0.30853 -0.092334 0.059254 0.016985 -0.030229 -0.14596 -0.070374 0.10002 0.20081 0.11945 -0.23461 0.29256 0.16922 -0.067858 0.55131 0.065948 0.0086852 -0.18769 0.24034 -0.22146 0.085247 0.07829 0.20596 -0.044649 -0.18175 -0.026582 0.21103 0.048061 -0.044939 0.38005 0.10444 -0.53221 -0.054061 0.30871 -0.30648 0.22912 0.24009 0.18622 0.028304 0.033963 0.16233 -0.14378 -0.048268 -0.12073 0.082122 -0.10673 0.21305 -0.060994 0.17587 -0.10598 -0.084403 -0.11593 -0.092432 -0.13698 
sesame_oil 0.20819 0.015278 0.2815 -0.35315 0.2972 0.42121 0.013895 0.11197 -0.18262 0.12575 0.11855 0.45792 -0.20371 0.073062 -0.19083 0.20967 -0.13903 0.25309 0.19974 -0.27108 -0.30517 -0.25918 -0.016393 -0.38637 -0.261 -0.12429 0.45675 -0.1508 -0.080737 0.23179 0.011262 0.49094 -0.43801 0.19394 0.49283 0.10897 -0.21157 0.00037313 0.18536 -0.61554 0.12222 0.011743 -0.28014 0.13399 -0.24919 0.38767 -0.13669 0.045387 -0.061477 0.064081 0.0091506 -0.23761 -0.0059367 0.24763 0.069101 -0.2843 -0.22697 0.15686 0.27757 0.32235 0.42508 0.24406 0.0061497 0.031786 0.17606 -0.59641 -0.0071247 -0.14009 0.035276 -0.26783 -0.2102 -0.39706 -0.37021 0.48538 -0.1792 -0.32171 -0.41512 0.23714 0.29479 0.58121 -0.092373 -0.25834 0.25049 0.32258 -0.19221 0.26312 0.025642 -0.32971 0.35507 0.37623 3.8735e-06 0.13052 -0.18591 0.28447 0.56458 0.048104 -0.30292 -0.20623 -0.10386 -0.0018257 
carrot 0.33399 0.34789 -0.2651 -0.080952 0.096422 0.19044 0.048694 -0.17847 0.41683 0.20942 0.0083049 0.045066 0.010816 -0.0097346 0.020414 0.16161 -0.16594 0.16614 -0.42478 0.15487 0.2189 -0.32595 0.16109 -0.16257 0.0095947 -0.015671 0.57748 0.011419 -0.063252 0.51922 0.086113 -0.16039 -0.15409 -0.21407 -0.38301 0.070448 -0.11995 -0.23042 -0.33401 0.063832 -0.205 0.23605 0.13148 0.17095 0.28164 -0.10859 -0.16609 0.22326 -0.22157 0.14342 -0.089596 -0.14792 -0.40912 0.1821 -0.012631 0.16898 -0.093457 0.17479 0.0081684 0.31282 -0.19154 -0.0012538 0.42663 0.52478 -0.21569 0.2462 0.25988 -0.30792 0.14835 0.1176 -0.29058 0.20316 -0.14187 0.023405 0.028144 -0.37701 0.28612 -0.063475 -0.22377 -0.34925 -0.059663 -0.025588 -0.21574 -0.30582 0.14883 -0.33445 -0.40578 -0.078248 -0.15896 -0.35257 0.13783 0.13645 0.50964 0.24472 0.18347 -0.11887 -0.38567 0.1169 -0.087221 0.26269 
nutmeg -0.029349 0.25058 -0.059664 0.10989 -0.18401 0.078627 -0.14627 -0.24648 -0.092388 -0.49073 -0.48779 0.051658 -0.19806 0.16875 0.18148 -0.1308 0.040238 -0.29262 0.39807 0.40059 0.33113 -0.21899 -0.23566 -0.021854 -0.044304 0.18241 0.059479 -0.086076 0.0096331 0.36655 0.36357 -0.16318 0.10115 0.15918 0.094649 0.22518 0.066741 0.0081124 -0.15549 -0.0059268 0.15233 0.20202 0.17757 0.012641 0.14678 0.21645 0.64722 -0.17791 0.049499 -0.14098 -0.018374 -0.050933 -0.076905 0.46555 -0.16083 -0.016713 -0.01802 0.035399 0.0087088 0.40172 -0.082187 0.40987 0.023712 -0.30802 -0.20242 -0.019806 0.14786 -0.076399 -0.0083758 -0.0067336 -0.11099 -0.082456 0.01269 -0.12887 0.18795 0.12201 -0.12358 0.15742 -0.36677 -0.082257 0.10691 0.041514 0.17618 -0.086256 0.12713 0.51251 -0.20252 0.14623 -0.37342 0.075423 0.12501 0.29773 0.049353 -0.4386 -0.018228 -0.2551 -0.21987 0.036811 -0.18824 -0.15437 
bay -0.17518 0.20981 -0.0023287 0.070342 0.13006 0.079877 -0.13064 -0.17033 0.15949 -0.062342 -0.095195 -0.248 0.26387 0.14305 -0.16569 -0.058949 0.2247 -0.12194 -0.033308 0.23264 0.2724 -0.12151 -0.39009 -0.14958 -0.25827 0.0073368 0.23286 -0.28166 -0.039017 -0.26222 0.20725 -0.1793 0.18556 0.22367 -0.18681 -0.20859 -0.013403 0.017964 0.12907 0.077376 -0.063785 0.33383 -0.33625 -0.034845 -0.24144 0.16756 0.11062 0.2655 0.17878 0.14083 0.19979 -0.090749 0.11059 0.24319 -0.022074 0.11937 -0.18428 0.207 -0.24409 0.034476 0.28871 0.049036 0.16897 0.014713 -0.015367 -0.30482 0.278 0.09984 -0.010746 -0.22626 0.093831 0.057351 0.16906 0.038012 0.23064 -0.20379 0.010106 -0.36603 0.079209 0.14773 -0.15578 0.14811 -0.17122 -0.55225 -0.07504 0.22914 -0.010464 0.17069 -0.19508 0.14494 -0.12941 0.283 0.36989 -0.39651 0.12232 -0.14107 -0.17647 -0.0045743 0.10707 0.01978 
mushroom 0.39796 0.10213 -0.15678 0.097459 0.22112 0.2178 0.20115 -0.095075 0.48008 0.27869 0.0020215 -0.1359 -0.11664 -0.24603 0.23765 0.17 -0.028171 0.19989 -0.21792 -0.018197 -0.20467 -0.010701 -0.042176 -0.10419 -0.089797 0.058914 0.23937 -0.17898 -0.16148 0.149 0.32808 -0.1005 0.07855 0.00082579 -0.139 -0.015399 -0.21969 0.12121 0.042506 -0.32837 -0.33839 -0.043522 0.15069 0.21765 0.0028155 0.029832 0.085038 0.20897 -0.12029 0.14494 -0.24046 0.19576 0.060891 0.064003 -0.021153 0.39594 0.16922 0.26417 -0.22473 0.31683 -0.33707 -0.056657 -0.0029567 0.14437 -0.26654 -0.080406 -0.28382 -0.084717 -0.042504 0.25122 -0.2047 0.20334 0.022755 0.039489 -0.028953 -0.22325 0.22568 0.053729 0.066928 -0.4034 -0.13304 0.26217 0.058513 -0.44674 -0.32759 -0.081353 -0.2404 0.10549 -0.11066 0.20333 0.19594 0.42829 0.33484 -0.2617 0.32454 0.26569 -0.0017611 -0.20745 0.1641 0.19383 
orange -0.098782 0.22857 -0.097256 -0.0014741 -0.25476 0.10714 -0.055927 0.034051 -0.19198 -0.14808 -0.088784 0.21658 0.13367 -0.12347 -0.28049 -0.060675 0.075246 0.011222 0.17763 0.1383 -0.37153 -0.22091 0.045327 -0.26843 -0.23722 -0.056572 -0.22709 -0.069722 -0.062179 -0.10894 0.16803 -0.10791 -0.13534 0.01865 0.20327 -0.074703 -0.24604 -0.12604 -0.19564 0.2211 0.00092267 -0.069192 -0.1269 -0.14561 0.26065 -0.020864 -0.18336 -0.13951 -0.047129 -0.036912 -0.11226 -0.17078 0.12305 0.15626 0.072023 -0.38051 -0.12937 0.22152 0.26812 0.28393 0.20487 -0.052595 0.019759 -0.099359 -0.028644 -0.28978 -0.030491 0.070679 0.19456 -0.16831 0.067442 -0.01274 0.10466 0.069908 0.042497 -0.1802 0.017018 0.18972 -0.28585 0.13695 0.068691 -0.03898 0.088455 0.27105 0.036756 0.29679 0.073326 0.423 -0.21197 0.037739 0.097265 -0.17339 -0.11352 -0.09899 -0.07602 -0.15554 -0.16035 0.046618 -0.013974 0.07786 
chicken_broth 0.38161 0.35684 0.09624 -0.19343 -0.060317 0.4778 0.25734 -0.35734 0.45432 0.11249 -0.14324 0.053206 0.10905 -0.10717 0.29992 -0.056002 -0.063854 0.25288 -0.31131 -0.1354 0.31201 -0.2263 0.10446 -0.11866 -0.1304 -0.21225 0.26527 -0.34589 0.062376 0.48816 0.42095 -0.11859 0.0077086 -0.48242 -0.26849 0.25871 -0.22738 -0.09285 0.2764 -0.042027 -0.025244 0.15133 0.39569 0.40526 0.13979 -0.25332 0.026483 0.22929 -0.35701 0.11493 -0.012307 0.2226 0.0042489 0.17833 -0.0064446 0.27608 -0.10535 0.088695 0.1304 0.34282 -0.36195 0.1368 -0.22524 0.32159 -0.29953 -0.067841 -0.050913 -0.062113 -0.31187 0.046878 -0.15811 0.25193 0.25308 -0.149 -0.66909 -0.33206 0.39546 -0.16055 -0.26264 -0.40509 0.059064 0.33507 -0.12337 -0.25677 0.0090135 -0.1068 -0.17649 0.022023 -0.063489 -0.23269 0.081131 0.35489 0.33293 -0.24976 0.32006 -0.22893 -0.0084455 -0.018289 0.17645 0.27542 
eggs 0.1504 -0.18158 -0.37504 -0.15704 -0.20326 0.032997 0.11248 0.08384 -0.57809 -0.16165 0.073481 -0.0027612 -0.081436 -0.40008 -0.065474 0.012864 -0.23948 -0.1659 0.036612 0.057849 0.2518 -0.37257 -0.21099 0.0044222 -0.24913 0.1722 0.038621 0.0026083 -0.1335 0.017885 -0.28466 -0.032819 0.042106 -0.11293 -0.081311 0.070183 -0.027052 -0.255 0.13989 0.013913 0.43928 -0.1027 -0.13965 0.52968 0.051893 -0.050831 -0.18241 0.051227 0.051066 0.15702 -0.42832 -0.3286 0.055878 0.052393 0.17578 0.20267 -0.066288 0.01168 -0.3038 -0.069318 0.40157 -0.13036 0.24547 -0.14505 0.26919 -0.36557 -0.11515 0.058123 -0.32449 0.0038144 0.29845 0.091445 -0.013682 0.032862 0.23048 0.21021 -0.23036 0.53652 -0.22108 -0.056115 -0.28262 0.0063164 -0.10237 0.11172 -0.15429 -0.01348 -0.23128 -0.32138 -0.084985 0.26548 -0.24892 0.36956 -0.32843 -0.32356 -0.17792 0.053168 0.064732 -0.19747 0.21613 0.18316 
bacon -0.092692 0.090565 0.02936 0.26785 -0.092573 0.095646 -0.11288 0.066507 0.26188 -0.10219 -0.31519 -0.10679 0.074482 0.039998 -0.00053291 -0.14528 0.088979 0.22992 0.42152 0.19876 0.22695 -0.01605 0.14627 0.011105 0.13984 0.019777 0.039779 -0.16239 0.053036 0.11414 -0.01366 0.048841 -0.023819 -0.020231 -0.096172 -0.0011126 -0.10388 0.20306 0.17673 -0.31548 -0.12083 -0.059044 0.14604 -0.12089 -0.1642 0.28679 -0.081441 0.1833 -0.085897 0.39077 -0.0098636 -0.18594 0.23039 -0.036793 -0.00021187 0.1379 0.022908 -0.057289 -0.10867 -0.0024187 0.19779 0.40905 0.27104 0.036893 -0.0093486 0.069905 -0.13036 -0.15933 0.16644 -0.24203 0.019105 -0.011845 -0.091217 0.13975 -0.14369 -0.051048 0.028182 0.30215 0.26645 -0.21969 -0.13949 0.043978 -0.090086 -0.31309 -0.2268 -0.13012 -0.18689 0.095485 -0.17898 -0.055217 0.27119 0.11804 0.44866 -0.24063 0.15293 0.11498 0.15383 -0.18135 0.036289 0.39846 
lard -0.03982 0.022678 0.0256 -0.43043 -0.24902 -0.12492 -0.16821 -0.14516 0.32314 0.12832 -0.22558 0.32537 -0.27992 0.23359 0.18677 0.24279 -0.057684 -0.49902 0.37942 0.01114 -0.22378 -0.068455 0.46332 -0.1175 -0.18214 0.12314 -0.11456 0.18059 -0.035146 0.33176 0.43926 -0.11618 -0.088583 -0.19182 -0.20973 0.42456 0.015088 -0.069131 -0.29017 0.059566 0.35526 0.049967 0.20236 -0.10053 0.35457 -0.47059 0.37663 0.062606 0.53435 -0.16977 -0.1962 0.036771 0.095845 0.020926 -0.16669 -0.20649 -0.073847 -0.20217 -0.25424 -0.066506 -0.21788 0.4334 0.36646 0.28423 -0.050802 0.16523 -0.0071799 0.087335 -0.21344 -0.14236 0.041498 0.24766 0.15774 0.085354 -0.21182 0.18766 -0.35608 0.025485 0.042319 -0.26416 0.22816 0.059581 0.23809 -0.29478 -0.1059 -0.066516 0.093344 0.074884 -0.27865 0.14896 0.18754 -0.1976 0.39329 -0.21454 -0.13525 -0.35137 -0.2524 0.19467 -0.027961 -0.30122 
macaroni -0.040294 -0.10859 0.13942 0.096171 -0.012634 -0.21177 0.24358 -0.41147 0.46543 0.56583 -0.021891 -0.18969 0.29224 0.19378 0.5423 0.36147 -0.20736 0.24772 -0.39933 0.081778 -0.034106 -0.40967 0.49195 -0.25622 0.069273 0.089323 0.1903 0.24173 -0.096889 0.13569 -0.0023345 -0.32233 -0.019188 -0.14582 0.050913 0.041585 -0.34895 -0.081589 -0.19051 -0.23215 0.027116 -0.001915 0.23217 -0.05448 -0.30133 -0.47036 -0.19276 0.31842 0.010329 0.025594 -0.23338 0.26383 0.10911 0.075326 -0.018149 0.11026 0.043241 0.34366 -0.11974 0.14743 -0.40249 0.053891 -0.35434 0.040463 0.16231 0.093064 -0.2562 -0.20124 0.072063 0.011288 -0.27096 0.43619 -0.15797 0.20392 0.028775 -0.20994 0.27727 -0.15906 -0.0018216 -0.26578 -0.0067467 0.20466 0.14824 -0.30253 -0.29223 -0.25334 -0.0306 -0.10337 0.11106 -0.083669 0.054426 0.32913 0.44231 -0.12473 -0.066601 0.34798 -0.0038771 -0.34715 0.27935 0.35884 
parmesan_cheese -0.031632 -0.29831 -0.24355 0.40267 -0.16353 0.1126 0.3178 -0.085771 0.57628 0.24018 0.18373 -0.28182 -0.089453 0.15654 0.32634 0.22171 -0.23096 0.59782 -0.40855 -0.10206 -0.12371 0.0099673 0.21423 -0.31903 0.1257 0.1834 0.29574 -0.10385 0.13386 0.58432 0.23475 0.017941 -0.34918 0.20838 -0.28586 0.40371 -0.29539 0.11424 0.45602 0.24232 0.054535 -0.28983 0.31293 0.28873 -0.14716 -0.27166 -0.072658 0.30673 -0.44701 0.012504 -0.028252 0.16749 -0.1408 -0.013763 0.22441 0.43709 0.29559 0.33468 -0.053586 0.35586 -0.53043 -0.18651 -0.35442 0.31259 -0.1779 0.043065 -0.078002 -0.058085 0.089877 0.22576 -0.019044 0.070454 -0.2991 0.0097959 -0.064301 -0.28403 0.14667 0.027845 -0.022525 -0.65815 -0.13712 0.034877 0.23641 -0.21482 -0.07381 -0.28998 -0.25634 0.31357 0.11229 0.099162 0.2915 0.29429 0.38958 -0.5031 0.035041 0.35079 -0.2781 -0.26958 0.41056 -0.19959 
kosher_salt -0.1974 -0.022537 -0.40775 -0.15954 -0.10044 -0.089402 0.54155 0.047554 -0.27666 -0.43507 0.22505 -0.29723 0.20854 -0.080126 0.068288 -0.24703 -0.17054 0.14277 0.085332 0.060828 -0.32564 -0.082389 -0.10251 0.10961 -0.17549 -0.2633 -0.38328 0.015958 0.18681 0.071032 0.1421 0.08541 0.34503 -0.14865 -0.0068636 -0.019423 0.23673 -0.36129 0.15522 0.13803 0.28007 -0.16567 0.12287 0.005698 0.02633 0.12043 -0.097135 0.13392 0.028732 -0.18948 0.30889 0.015239 0.23647 0.097577 0.064644 -0.14076 -0.32284 0.27134 -0.027698 0.12618 0.25515 0.23518 0.31657 0.058598 0.14822 -0.042944 0.14618 -0.15812 0.002532 -0.24058 -0.013497 0.16196 0.018512 -0.15451 0.0014929 -0.12268 0.105 -0.13022 0.07542 0.17578 0.07455 -0.040914 -0.13035 0.039493 -0.028104 -0.16331 0.074439 -0.26173 0.19419 0.1663 -0.33415 -0.042744 -0.028216 -0.24142 0.20823 -0.096926 -0.13174 -0.23876 0.17005 0.12002 
green_onions -0.056236 0.16294 -0.29397 -0.19005 0.01507 0.17745 0.22397 0.085088 -0.35994 -0.27539 0.093793 -0.085926 0.04025 -0.26998 0.32857 0.26763 -0.13134 0.28615 0.055102 -0.19034 -0.11326 -0.36025 -0.10201 -0.066119 0.12588 -0.10657 -0.17326 -0.019809 0.22103 0.32933 -0.052038 0.048036 0.11342 0.035216 -0.11697 -0.23624 -3.2238e-05 -0.088133 -0.073577 -0.25954 0.21294 -0.19843 0.31521 0.22505 0.036668 0.19664 -0.060841 0.19082 0.11261 -0.022769 0.41706 -0.23849 -0.15056 -0.30888 -0.019362 0.10084 -0.19251 0.24946 -0.21894 0.2086 0.4419 0.15306 0.097031 -0.25487 0.022421 -0.29734 -0.15662 0.18084 -0.031921 -0.24581 0.064204 -0.094527 -0.12449 -0.19682 -0.070315 -0.14062 -0.18745 0.21356 0.29543 0.28468 -0.16712 -0.23059 -0.029438 -0.1038 -0.34561 -0.15081 0.37279 0.1235 0.35084 0.11643 -0.45132 0.13084 -0.16109 0.21431 0.097929 -0.14369 0.10275 -0.12523 0.086072 0.021805 
tomatoes -0.26924 -0.12314 -0.16629 -0.21147 0.14654 0.050795 -0.17693 0.17839 -0.31862 -0.30385 0.23222 -0.16328 0.29557 0.33819 0.076986 0.13758 -0.1752 0.10585 -0.34345 0.057896 0.49922 0.11934 -0.35907 -0.25875 0.020908 -0.24155 -0.47075 0.28731 0.22612 0.02892 -0.019145 -0.12987 0.12731 0.080588 -0.024021 -0.14937 -0.0073937 -0.12539 0.16512 0.29283 0.099019 0.17245 -0.036262 -0.04131 0.1032 -0.046636 -0.13855 0.27919 0.24069 0.017655 0.13118 0.092004 0.2034 0.10711 0.084579 -0.073941 -0.24487 0.23589 0.34848 -0.075341 0.42301 0.2134 0.10651 -0.21383 -0.070971 0.078774 0.047018 -0.10058 -0.10282 0.020003 0.17326 -0.009891 -0.13161 0.17886 0.35989 -0.1859 -0.1479 -0.15339 0.11369 0.32013 -0.31974 0.11152 0.03073 -0.1097 -0.030123 0.028719 0.11371 -0.11289 0.34141 -0.18878 -0.11636 0.014588 -0.067912 -0.29879 0.027652 -0.11325 -0.13922 -0.17068 0.29067 0.077616 
cheddar_cheese -0.38047 0.17099 0.0022093 0.16176 0.4303 0.11832 0.36458 -0.26895 0.27182 0.24582 0.31216 -0.13606 -0.31161 0.27767 0.19911 0.20295 0.082943 0.34312 -0.36066 0.083882 0.14555 -0.23903 -0.17996 -0.26973 0.32601 -0.24378 0.32175 0.0446 0.13283 0.99144 -0.007594 -0.034535 -0.30576 0.20313 -0.15681 0.67194 -0.023771 0.027761 0.26743 0.04264 0.034896 -0.080774 0.32317 -0.15285 0.4111 -0.071278 -0.10528 -0.030907 -0.54317 0.36251 -0.19563 0.37718 -0.0145 -0.22207 0.23539 0.54291 -0.051453 -0.075651 -0.038163 0.09422 -0.50669 0.67483 -0.13501 0.32566 -0.24046 0.16231 -0.12296 -0.14625 0.14851 0.076643 -0.042567 0.4819 0.017809 0.16944 -0.10073 -0.1164 -0.051279 0.27768 0.2076 -0.56852 0.122 0.34916 -0.049521 -0.15645 0.35578 -0.41605 -0.20732 -0.03272 0.010844 0.19502 0.23981 0.34305 0.67814 -0.57638 0.32792 0.030687 0.059886 -0.14185 0.10955 0.18036 
large_eggs 0.14001 -0.06232 -0.57298 -0.13934 -0.050849 -0.47515 0.050161 0.15117 -0.71392 -0.29696 0.33969 0.051198 0.18954 -0.45172 0.03365 -0.21133 -0.26254 -0.1599 0.024412 -0.028201 0.021604 -0.1352 -0.064435 -0.095572 -0.23366 0.1363 -0.075954 0.018917 0.20719 0.11822 -0.1193 0.086454 0.13589 -0.063512 -0.122 0.070671 -0.19653 -0.26233 0.10247 0.072411 0.55434 -0.20327 -0.24393 0.39671 -0.024469 0.073648 -0.12913 0.033259 -0.0032902 -0.071984 -0.42028 -0.40209 0.15269 0.13179 0.13937 -0.13953 -0.056709 -0.16267 -0.16227 -0.042095 0.17657 -0.17531 0.32599 -0.37237 0.1872 -0.1254 -0.178 0.3181 -0.038434 0.067109 0.40033 0.1152 0.17109 0.030477 0.011901 0.018895 0.069395 0.34705 -0.027266 -0.18135 0.11589 -0.056948 -0.07807 0.14268 0.10788 0.079635 -0.062264 -0.16277 -0.16844 0.20513 -0.27822 0.64059 -0.15329 -0.37999 0.046997 -0.043719 0.079185 -0.14807 -0.061114 0.21745 
cucumber 0.20193 0.2009 -0.047951 -0.086468 -0.5615 -0.33247 0.0030026 0.24265 -0.12495 -0.21996 -0.092234 -0.16964 -0.38121 -0.0021709 -0.31324 -0.05147 -0.14932 0.045638 0.007406 -0.32312 -0.020036 0.01822 -0.1977 0.42576 0.1452 -0.16218 0.077173 0.19151 0.1116 -0.094928 -0.26723 -0.32234 -0.47151 0.057966 -0.060029 0.12981 -0.0062303 0.027702 0.079463 -0.23853 -0.2494 0.42845 -0.026821 0.27446 -0.34829 -0.36944 0.22663 -0.27573 0.24115 -0.11648 -0.23993 0.35521 0.10338 -0.0023267 -0.055493 -0.080042 0.0074576 0.07958 0.061183 0.046057 0.37368 -0.099583 -0.027649 0.23461 0.33273 -0.15242 0.09262 0.43404 -0.072242 -0.43458 -0.029995 0.070634 -0.52684 0.20465 -0.28196 -0.55327 0.041579 -0.017946 0.25485 0.054731 -0.075913 -0.049209 -0.17251 -0.0098412 0.16666 -0.21609 0.31819 0.50403 0.17208 0.51487 -0.026466 0.30027 0.092539 -0.090063 0.30959 -0.37992 0.40291 -0.087544 0.072997 -0.35308 
apple 0.12168 0.030324 -0.3405 0.016476 -0.45751 0.020938 0.13268 0.37797 0.21201 -0.040803 -0.18854 0.28303 0.014105 0.023625 -0.14581 0.063977 0.0013627 -0.19682 0.42638 0.013532 -0.050901 -0.010966 0.50531 -0.0070331 0.11927 -0.029199 0.14139 -0.15399 -0.068952 0.22797 0.41555 -0.22792 -0.052671 0.098914 -0.11873 0.13593 -0.025938 0.032 -0.059147 0.15594 0.045026 0.12991 0.037408 0.22195 0.30264 0.12848 0.22977 -0.046474 -0.20729 -0.026751 0.17224 0.10417 -0.11066 0.44307 -0.14301 -0.27919 -0.13855 0.1904 0.016275 0.22985 0.12654 0.37028 0.22168 0.12091 -0.20486 0.080855 -0.058345 0.34859 0.33332 -0.10947 0.062293 -0.082997 0.29266 -0.1384 0.033615 0.069272 0.064562 0.22923 -0.36001 0.25495 0.25098 0.099085 -0.24472 0.030648 0.14966 0.073058 -0.065222 0.14969 -0.1845 0.012068 0.19402 -0.15385 0.33986 -0.1239 -0.28832 -0.19796 -0.21779 -0.068015 -0.21875 -0.44764 
cream_cheese -0.12696 -0.39261 -0.081158 -0.51591 0.3572 0.15758 -0.38271 0.087989 0.11561 0.40459 -0.21426 -0.02423 -0.090898 0.21607 0.40954 0.22377 -0.47237 -0.018979 0.50608 -0.21988 0.11511 -0.27898 0.21073 -0.071249 0.14712 0.063984 0.21401 0.10003 -0.17954 0.21171 0.42522 0.023742 -0.028594 0.16457 -0.12728 0.4283 -0.10951 0.12884 -0.016087 0.21825 0.10073 0.25242 0.1856 0.11333 0.55157 -0.95513 0.18605 -0.35689 -0.16364 -0.027299 -0.62563 0.44642 -0.063664 -0.15716 -0.084239 0.069719 0.077744 0.26861 -0.19583 0.18069 -0.3082 0.2661 -0.1644 0.13891 -0.18488 0.10034 -0.030417 0.52018 0.058714 0.2037 -0.1267 0.28478 -0.060226 0.077423 -0.007846 -0.13635 -0.082901 -0.094312 -0.02878 -0.13756 0.12366 0.046028 -0.14622 0.35048 -0.03853 0.0464 0.15646 0.2658 -0.3482 0.16647 0.1562 -0.13089 0.31275 -0.31023 -0.33902 -0.040754 -0.035858 0.10915 0.1903 0.03519 
carrots 0.19576 -0.11009 -0.20587 -0.32643 0.19776 -0.036402 -0.16165 -0.054826 -0.27797 -0.28398 0.077615 -0.30775 -0.047457 -0.10262 -0.27785 0.2821 -0.13068 -0.076777 0.04429 0.16878 -0.014 -0.3866 -0.17892 -0.031405 -0.020936 -0.028156 -0.012606 -0.08606 0.25156 -0.0028608 -0.10314 -0.035465 0.208 -0.0022966 0.036602 -0.078714 -0.086797 -0.2546 -0.094575 0.0037258 0.017012 0.023314 -0.037402 0.56552 0.27802 0.052447 -0.38214 0.38711 -0.13831 0.2853 0.54321 0.017879 -0.041131 0.056684 -0.20045 0.070603 -0.26951 0.21002 -0.0082352 0.08239 0.60297 0.19307 0.39824 -0.019827 0.22814 -0.052572 -0.20323 -0.06942 0.14448 -0.20511 -0.17957 -0.0066575 -0.083326 0.024854 0.029614 -0.18578 -0.2586 -0.027171 0.051543 0.12652 -0.2088 0.046634 0.011206 -0.0051167 -0.37789 0.17427 0.17505 -0.24692 0.043189 0.0060288 -0.31146 -0.26058 0.012069 -0.1292 0.36999 0.019597 0.057754 -0.0067054 0.1101 0.15597 
walnut 0.32685 0.3155 -0.36676 0.029659 -0.2329 -0.26232 0.11241 0.1849 0.15764 0.01437 0.27686 0.59179 -0.2981 0.31096 -0.050115 -0.051377 -0.24622 -0.25521 0.45021 -0.33495 -0.064926 -0.1502 0.62022 -0.19241 -0.026977 0.18936 0.15081 0.04927 -0.30341 0.025672 0.067482 -0.091818 0.092055 0.077857 0.21082 0.57781 0.071108 -0.2138 -0.21348 0.20344 -0.064668 0.5602 0.011878 0.037611 0.59914 -0.37869 0.16405 0.038884 -0.1719 -0.15442 -0.20389 0.26537 -0.066462 -0.053544 -0.3413 -0.30173 -0.19169 0.15194 0.36367 0.37575 -0.30757 0.45266 0.34771 -0.036501 -0.13279 0.43523 -0.20131 0.40443 0.035579 -0.018265 -0.19036 0.091389 0.047946 -0.30498 -0.053294 0.25743 -0.10552 -0.13152 -0.12111 -0.22713 0.51257 0.11543 0.18231 -0.10151 0.26158 0.3156 -0.046935 0.42555 -0.37065 0.028639 0.10433 -0.2847 -0.038399 -0.50175 -0.49126 -0.098183 -0.28586 -0.019573 0.030849 -0.44126 
rosemary 0.085138 -0.13145 -0.15504 0.32755 -0.15943 -0.074942 -0.19538 0.18641 0.67814 0.029052 -0.41306 -0.32206 0.33545 0.23209 0.26573 0.10381 0.28759 0.080938 -0.048506 -0.024474 0.099268 0.04328 0.25041 -0.043654 -0.33099 -0.09551 0.13336 -0.28812 0.23121 -0.06255 0.25049 -0.063889 -0.13598 -0.04558 -0.11351 -0.024492 -0.21121 -0.27788 0.15008 0.17979 0.0046617 -0.3274 0.080262 0.085144 -0.18209 0.13178 0.036909 0.24701 0.18935 0.2501 0.090379 -0.29978 0.17654 0.38294 -0.093695 0.26685 0.033479 0.11262 0.038387 0.20372 0.0008625 -0.15824 -0.13433 0.056624 -0.17968 -0.053367 -0.0034796 -0.24329 0.081839 -0.19247 0.10242 0.01545 0.1962 0.12109 -0.22285 -0.34743 -0.042158 -0.078072 -0.12375 -0.33253 0.033666 -0.18636 0.22501 -0.36485 -0.036551 0.33743 -0.14743 0.059822 -0.29414 -0.11976 0.19414 0.057976 0.17444 -0.45392 0.1633 0.33413 0.037002 -0.18347 0.0063375 0.29033 
starch 0.09925 0.19738 -0.35632 -0.13 0.21006 0.084057 -0.060404 -0.12952 0.10945 0.32555 0.093144 0.46816 -0.11903 -0.082162 -0.09551 0.098093 0.0081826 0.26973 0.14071 -0.17241 -0.21992 -0.23667 0.29072 -0.16905 -0.18282 -0.11641 0.25627 0.10327 -0.2573 0.33439 0.43156 0.023429 -0.33374 -0.096257 -0.22109 0.42529 -0.11653 -0.19588 -0.46143 -0.017517 0.035402 -0.008207 -0.012496 -0.042343 0.11811 -0.30657 0.24791 -0.050637 -0.40185 0.091941 -0.13262 -0.066122 -0.10054 -0.14209 0.018371 0.14287 0.17089 0.088413 -0.046127 0.21528 -0.36793 0.01239 0.031453 0.16705 -0.2142 0.066644 0.1338 0.2325 -0.081459 -0.023392 -0.2608 0.094071 -0.098962 -0.39962 0.028036 -0.394 -0.19431 -0.068624 -0.02685 -0.02984 -5.3735e-05 0.1964 -0.06312 -0.061404 -0.0052766 -0.10125 -0.043687 0.17806 -0.33846 0.022916 0.0017328 -0.26192 0.025803 -0.29502 0.065477 0.090836 -0.2024 -0.081533 -0.069443 -0.0064697 
almond 0.00099904 0.21065 -0.1027 0.1748 -0.054885 0.066144 -0.08107 0.052523 -0.0043386 -0.12647 -0.0028662 0.20291 -0.099365 0.012466 -0.13118 -0.088991 -0.16828 -0.24294 0.23118 0.083953 -0.25603 0.0061542 0.42576 -0.31965 -0.19012 0.1289 -0.073023 -0.30382 -0.0092317 0.29565 -0.077543 -0.16847 -0.094272 -0.13063 0.20307 0.19925 0.073404 0.035483 -0.29428 -0.028977 -0.20379 0.12614 -0.030539 -0.058127 0.15296 -0.27524 0.019672 -0.023258 -0.13152 -0.017436 -0.18493 0.29145 -0.10137 0.14101 0.011243 -0.061523 -0.13336 0.044502 0.13579 0.26398 -0.059122 0.2017 0.30337 -0.20969 -0.15763 0.20099 -0.40867 0.28169 -0.044831 0.01231 -0.20451 0.11112 0.003464 -0.19667 -0.34399 0.10335 -0.055815 -0.020099 0.17685 -0.022023 0.35957 0.098046 0.11524 0.16293 -0.1645 0.088935 0.26026 0.56248 -0.12672 0.12289 0.19475 -0.29379 -0.032388 -0.26474 -0.45163 -0.21367 -0.20747 0.014216 -0.016122 -0.30032 
buttermilk 0.25182 -0.37328 0.0024506 -0.081618 0.027962 -0.26247 -0.040134 0.40425 -0.33177 -0.0097883 -0.048322 -0.23911 0.27568 0.2111 0.035477 -0.024297 -0.28886 -0.20823 0.55487 0.38022 0.059085 0.05631 0.27786 -0.3139 -0.16331 0.16876 0.063098 -0.50964 0.077413 0.50147 0.017733 0.11749 -0.17138 -0.14663 -0.22192 0.067812 0.14548 -0.048678 0.051885 0.021785 0.063694 -0.20384 -0.21307 -0.16828 0.069832 0.33933 0.079653 -0.10684 0.31131 0.2792 -0.25796 0.14881 -0.093651 -0.14262 -0.045632 0.033366 0.20074 -0.47621 0.089194 -0.14357 -0.083799 0.36911 0.22858 -0.22789 0.12753 0.037555 0.14734 0.37395 -0.2287 0.075878 0.078931 -0.080756 -0.024624 0.32861 -0.23053 0.28486 -0.14076 -0.053435 0.1644 -0.42824 0.057262 0.071449 0.073216 0.1622 -0.39721 -0.087022 -0.010305 0.24904 -0.30454 -0.069297 0.22616 0.31935 0.22192 -0.036454 -0.33326 -0.37766 -0.35429 -0.082297 -0.12549 -0.14932 
green_bell_pepper 0.17987 0.11447 -0.18062 0.093371 0.24579 0.15794 0.31744 -0.23741 0.55987 0.31883 0.33782 -0.17888 0.082282 0.19447 0.17764 0.06428 -0.14614 0.41689 -0.22986 -0.039182 0.11224 -0.26627 -0.088158 -0.24137 0.33343 -0.21855 0.12393 -0.26981 -0.07579 0.24948 -0.051235 -0.12299 -0.088613 -0.29499 -0.32286 0.17823 -0.16162 -0.15134 0.11253 0.040185 -0.14798 0.10701 0.0091282 0.057275 0.10279 -0.048806 -0.25236 0.11796 -0.23719 0.21632 0.054911 0.4851 -0.24591 -0.15655 0.24924 0.20495 0.12097 -0.048944 0.0059733 0.2842 -0.32646 0.052931 -0.0020646 0.46187 -0.18394 -0.26399 -0.090636 -0.21032 0.23564 0.016125 -0.47966 0.28884 -0.0034516 0.28272 0.17118 -0.52149 -0.035215 -0.15562 0.2845 -0.17861 0.20177 0.29143 -0.088161 0.10745 -0.13344 -0.15214 -0.21622 -0.04462 -0.24255 -0.25146 0.22772 0.14109 0.33647 -0.16641 -0.030437 0.054458 -0.15399 -0.038881 0.28816 0.27264 
bean 0.40041 0.31848 0.059616 -0.11711 -0.13724 -0.079377 -0.030392 0.026283 0.14704 0.084229 -0.039873 -0.10955 -0.12125 -0.17238 -0.17414 -0.066587 0.021315 0.02815 -0.043307 -0.029809 -0.099721 -0.16342 -0.11492 -0.18001 -0.10178 -0.26149 0.43035 0.08178 -0.10429 -0.19488 0.11175 0.1263 -0.21126 -0.085503 -0.31126 -0.094231 -0.1179 -0.11606 0.036162 -0.087603 0.00016459 0.088205 -0.071826 0.25847 -0.24578 0.066806 -0.082779 0.11498 -0.13705 0.12859 0.087584 -0.15371 -0.064153 0.12375 0.14555 0.12983 0.11998 0.0688 0.029032 0.059667 -0.23605 -0.037361 0.049964 0.29175 0.079036 -0.27965 -0.17996 -0.15176 -0.010517 0.037567 -0.22093 -0.0068628 0.13244 0.34343 -0.082476 -0.1118 -0.16551 -0.13367 0.3331 0.1739 -0.095138 0.061037 -0.14388 -0.16823 0.05415 -0.18706 0.14134 -0.22681 0.27392 -0.14233 -0.24413 0.1303 0.17758 -0.080654 0.22033 -0.20902 -0.2192 -0.10428 -0.17351 0.037147 
pecan 0.12978 0.49874 -0.27335 0.071362 -0.09231 0.11492 0.025142 0.22235 -0.091409 0.093925 0.21901 0.39753 -0.17538 0.20771 0.07891 -0.19869 -0.14406 -0.37774 0.42568 -0.044666 -0.045915 -0.14539 0.26265 -0.2915 0.011691 0.095633 -0.15261 -0.0165 -0.13382 0.30726 0.098117 -0.0070373 -0.12423 0.053282 0.14849 0.60825 0.17993 0.002721 -0.20507 0.10616 0.11785 0.28068 -0.075903 0.06974 0.46264 -0.31195 0.38624 -0.052025 -0.10997 -0.053469 -0.3475 0.031446 -0.059929 0.085113 -0.2519 -0.22692 0.16213 0.097015 0.13168 0.15045 -0.42787 0.31229 0.53335 -0.091432 -0.12366 0.085662 -0.063186 0.45248 0.32828 -0.028908 -0.037999 0.12871 0.062825 -0.14144 -0.1532 0.49131 0.16015 -0.12503 -0.015819 -0.1364 0.61043 0.15533 0.15425 -0.23997 0.093824 0.27279 0.076302 0.45658 -0.43336 0.13991 0.096007 -0.22964 0.029148 -0.45801 -0.68396 -0.022945 -0.21117 0.018432 -0.00044722 -0.29217 
mint 0.057094 0.11514 -0.023677 0.11831 -0.15593 -0.1857 -0.029546 0.40144 -0.047428 -0.10516 0.069047 -0.022952 0.059005 0.0077977 -0.35335 0.11892 0.2411 -0.001078 -0.3937 0.014999 -0.16378 0.20104 -0.27459 0.14735 -0.0070333 0.017526 0.085675 -0.18482 0.0062614 -0.14651 -0.15197 -0.063448 -0.18006 -0.016936 0.085528 -0.10588 0.15644 -0.17532 0.022239 0.006328 -0.025607 0.30415 0.34514 0.06673 0.11659 -0.40634 0.10806 -0.20652 0.018865 -0.1939 0.031546 -0.35789 -0.28896 0.37675 0.22991 -0.20613 -0.12132 0.17503 0.037832 0.43439 0.11497 0.061716 0.0088783 0.010806 0.33052 -0.12398 -0.07614 -0.057289 -0.13667 -0.20156 -0.105 0.010469 -0.21042 -0.16897 -0.042786 -0.1002 -0.09857 -0.31228 0.12189 0.10844 -0.14656 -0.058719 0.27265 0.36005 0.038705 0.15501 0.078517 -0.048363 -0.099411 -0.034636 -0.26059 -0.26368 -0.089976 0.059323 0.093615 -0.13889 -0.12494 0.1335 0.11848 0.15021 
lettuce -0.044585 -0.028045 0.051828 -0.041052 -0.47883 -0.1364 0.34606 0.23565 -0.072377 -0.11414 0.14035 -0.052176 -0.0091535 -0.0099627 0.12497 0.10051 0.06409 0.4056 0.24898 0.084431 0.17088 -0.21104 -0.017805 0.32869 0.001652 -0.20882 0.12636 -0.066032 -0.12505 -0.20705 -0.059654 0.030504 -0.29699 -0.12486 -0.10606 -0.28264 0.14307 0.26078 -0.088908 -0.19274 -0.047449 0.26527 0.29686 0.028549 -0.11181 -0.19228 -0.10062 0.09946 0.0089697 -0.017117 0.1411 -0.028509 0.29265 -0.25589 -0.10056 -0.17396 -0.13553 0.26576 0.22736 0.17712 0.045541 0.039992 -0.28464 0.069121 0.301 -0.094269 -0.18538 0.053773 -0.1376 -0.25221 0.013513 0.062852 -0.02224 0.086788 -0.31904 0.044419 -0.22697 0.11164 0.22092 0.22711 -0.080776 -0.17323 -0.10054 0.11317 0.066972 -0.019091 0.55173 -0.087793 0.21694 0.05704 -0.040099 0.24637 0.39128 0.27606 -0.26091 -0.13198 0.38493 -0.34851 0.18001 -0.005526 
turmeric -0.32852 0.41966 0.39448 -0.25252 0.27412 0.31032 -0.24948 -0.002528 0.11838 0.13498 -0.018526 0.029356 0.09379 0.21656 -0.49277 -0.24851 -0.014034 0.085302 -0.5922 0.37047 0.054603 0.0098358 -0.25362 0.2227 -0.24812 0.22804 0.2458 -0.050745 -0.065477 0.59623 -0.064755 -0.09697 -0.058883 0.071728 0.082027 -0.095999 0.23156 0.13261 -0.10295 0.44613 -0.46645 0.22567 0.37796 0.32936 0.090903 0.044976 0.11136 -0.35608 0.2024 0.26599 0.31964 -0.24414 -0.26845 0.018655 -0.12038 -0.23789 -0.1235 0.19548 0.37417 0.081702 0.33415 0.037088 0.038771 -0.41053 0.20062 0.024555 0.21428 0.41995 0.003034 -0.14975 -0.029502 0.12073 0.12529 0.35178 0.26449 0.44258 0.22747 -0.38718 0.40426 0.12411 -0.40575 0.38329 0.22351 -0.18434 -0.22268 -0.2 -0.1073 0.036475 -0.19445 0.13936 0.0044522 -0.079441 0.60461 0.13856 -0.044414 -0.29528 0.047504 -0.078209 -0.039726 -0.088104 
cabbage 0.32058 0.23822 0.080581 -0.11154 0.050966 0.020114 0.22765 -0.021008 -0.071082 0.047999 -0.092666 -0.12721 -0.11333 -0.16425 -0.029402 0.025105 0.33535 0.08123 0.23159 -0.13126 0.11495 -0.20781 0.18642 -0.030796 0.074008 -0.18687 0.14923 -0.087044 -0.17493 -0.10042 -0.22722 0.040589 -0.50477 0.065059 -0.32467 -0.15996 -0.25558 -0.062226 0.093909 -0.11282 0.13315 0.18525 -0.10296 0.082994 0.14449 0.29033 -0.053871 0.13397 -0.10587 0.2593 0.11328 -0.20429 -0.0027609 0.030689 -0.23263 0.11765 -0.43203 0.12813 0.19285 0.10288 0.25008 0.15796 0.2721 0.0049074 0.36674 -0.21501 0.051308 -0.073869 0.027583 -0.34316 0.036033 -0.15115 -0.139 0.34194 0.043925 -0.10095 -0.079088 -0.17297 0.15012 0.27684 -0.096992 -0.14814 0.028569 -0.18268 0.35632 0.04905 0.071523 -0.0042972 0.1278 0.017052 -0.25362 0.14348 0.2957 0.13735 0.3151 -0.1191 0.18495 -0.16507 -0.17601 0.13479 
white_wine 0.15614 0.23847 -0.10655 -0.00097567 -0.23713 0.13203 0.051577 0.0032113 0.58488 0.083949 0.08839 0.35381 0.020628 0.09543 0.44131 0.097755 -0.41076 0.30086 -0.2505 -0.30375 -0.067341 -0.20808 0.0034302 -0.24706 0.016722 0.34331 0.28758 -0.16105 -0.0321 -0.026784 0.27149 0.0092358 -0.29428 -0.01914 -0.054871 -0.065956 -0.19964 -0.14817 0.11931 -0.074432 0.11043 -0.014365 0.25712 0.099587 -0.13932 -0.33481 0.022487 0.34901 -0.12857 0.18552 -0.11221 0.36474 -0.27695 -0.1272 0.15892 -0.078532 -0.066136 0.20689 0.080039 0.48777 -0.13194 0.071515 -0.2731 0.16527 -0.32051 -0.1302 0.11432 0.2133 -0.32436 0.1375 -0.11144 0.049174 -0.15255 -0.095618 -0.17336 -0.4139 0.5753 -0.31959 -0.30903 -0.61653 0.084038 0.33289 -0.26174 -0.12419 0.16496 -0.29569 -0.18274 0.21853 0.046386 -0.27119 0.16391 -0.059032 0.55527 -0.32396 -0.066441 0.041406 -0.35423 -0.12425 0.1526 0.51507 
yogurt -0.29295 -0.28691 0.19899 0.030552 -0.16825 -0.22762 0.11036 0.2363 -0.14661 0.044575 0.12526 0.097767 -0.12471 0.26244 0.15477 -0.083149 0.072149 -0.028011 -0.23512 -0.0092064 0.33166 0.23385 -0.22075 0.18403 -0.11546 0.077792 -0.12498 -0.11114 -0.054118 0.22576 -0.003978 -0.16236 -0.2328 -0.12181 0.23764 -0.10088 0.15366 -0.16532 -0.20985 0.12042 -0.23444 0.11324 -0.11801 0.14163 0.23366 -0.093594 0.023274 -0.31774 0.13147 0.0061109 -0.018561 -0.14909 -0.0056017 0.25776 0.16833 -0.11074 -0.10645 0.20623 0.27577 -0.025662 0.22884 0.39471 0.14731 -0.1513 0.35993 -0.0045383 0.10204 0.21175 -0.11789 -0.038882 0.062007 0.11584 0.10435 -0.22654 -0.13151 -0.12471 -0.10147 -0.18778 0.018118 0.0085066 -0.24969 -0.077263 0.18411 0.20503 -0.015106 0.13903 0.101 0.021115 -0.19798 -0.16362 0.20653 -0.22663 0.20935 -0.062655 -0.1113 -0.33202 -0.17775 -0.024625 0.13414 -0.10777 
chili_powder -0.3477 0.022487 -0.21978 -0.25488 -0.031027 0.42755 0.14549 0.24913 -0.090951 -0.066062 0.11045 -0.17034 0.36839 -0.10688 0.016205 -0.15307 0.023553 0.25102 -0.13977 -0.19286 0.45115 -0.060434 -0.49271 -0.058359 -0.23779 0.14435 -0.43831 0.070995 0.20512 -0.069494 -0.095038 -0.16386 0.35113 0.076882 -0.091895 -0.14051 0.010196 -0.098627 0.13393 0.051468 0.2597 0.08315 0.053113 0.14774 0.18237 0.078111 0.13915 0.31255 0.3197 0.088798 0.33107 -0.0074989 -0.017452 -0.071607 0.4006 -0.21684 -0.21168 0.24837 0.14244 -0.4195 0.48068 0.39876 0.0017743 -0.2326 0.25963 -0.19533 -0.069953 0.04351 -0.25383 0.22708 0.067123 0.084063 0.22905 0.12324 0.20382 0.20626 -0.065198 0.0039284 0.27727 0.14022 -0.51769 0.01734 0.024154 -0.088783 0.0065146 -0.017226 0.15868 -0.027605 0.47511 -0.53699 -0.17727 -0.055513 0.021802 -0.379 -0.19786 -0.18691 0.045074 -0.033572 -0.071576 -0.22195 
zucchini 0.13492 0.099143 -0.006067 0.20557 -0.26492 -0.29878 -0.13061 -0.047237 0.18749 0.18048 -0.061683 -0.18964 0.15028 0.26252 -0.10663 -0.11108 -0.097507 0.096927 -0.33278 -0.21489 0.15395 -0.12462 0.17448 0.1536 -0.045128 -0.0387 -0.010463 0.12608 0.047375 0.12107 -0.20317 -0.17736 0.067271 0.06359 -0.07145 0.024828 -0.14999 0.0029473 -0.24658 -0.062707 -0.054779 0.053046 0.19626 -0.016742 -0.033207 -0.06301 -0.12484 0.0679 -0.060987 -0.01707 -0.042471 -0.29389 -0.19055 0.24441 -0.32039 0.21517 0.037019 0.14447 0.19451 -0.038413 0.01592 0.067593 -0.045779 0.1022 0.28678 0.039281 -0.059262 -0.21614 -0.11356 0.067832 -0.054808 -0.034362 0.11933 0.014952 0.05403 -0.011221 -0.23256 -0.20791 0.31917 -0.0082253 0.22136 -0.41714 -0.14391 -0.27353 -0.14881 0.29261 0.092485 -0.15007 0.23339 0.0070748 -0.22094 0.26101 -0.12783 -0.1575 0.094655 0.30562 0.046479 -0.094918 -0.08139 0.12685 
pineapple -0.052091 0.16651 -0.076981 -0.042902 0.043645 0.43211 -0.17706 0.36073 -0.30638 0.25138 0.056477 0.27906 -0.14262 -0.16644 0.0090184 0.0072316 0.14812 -0.043084 0.32302 -0.093862 -0.27915 -0.16293 0.23961 -0.076016 0.20752 -0.16639 -0.275 0.016536 -0.3943 -0.081161 -0.026638 -0.023146 -0.21894 0.13656 0.026854 0.23112 0.28156 -0.13414 -0.45496 0.0039855 0.14524 0.14918 -0.16041 0.024634 0.31807 -0.38521 -0.011394 -0.13668 -0.51028 -0.32858 -0.29726 0.044039 0.087287 0.37497 0.24811 -0.22717 -0.071604 0.3794 0.22113 0.057692 0.17194 0.044558 -0.088746 0.045185 -0.1765 -0.20989 0.091583 0.56609 0.054379 -0.29581 -0.028237 -0.1102 0.040488 0.29271 -0.33658 -0.18785 0.27347 0.019463 -0.030862 0.18764 0.0070251 -0.17196 -0.0058456 0.14127 -0.27611 0.36966 -0.057758 0.12692 -0.26889 0.14117 0.40755 -0.20827 0.12014 0.0027495 -0.25797 -0.077499 0.1644 -0.14319 0.072947 -0.24391 
oil -0.18285 0.095209 -0.10531 -0.13016 0.25753 0.16812 -0.17606 -0.034544 -0.38833 -0.10376 0.021394 0.025905 0.098454 -0.0068368 -0.36827 -0.0032196 0.0063183 0.14125 -0.040398 -0.18409 -0.058434 -0.3688 -0.066977 -0.25334 -0.079955 -0.29064 -0.21585 -0.24531 -0.34393 0.089234 -0.19203 0.15446 0.18918 -0.10512 -0.058622 0.061754 -0.18958 0.097067 0.23782 0.25987 0.048133 0.11069 0.10436 0.42777 -0.20904 0.29802 0.063396 0.3117 0.22324 0.15443 0.083934 0.24043 -0.007831 0.2657 0.07187 -0.25087 -0.32813 0.30557 0.085602 -0.078432 0.49199 -0.051426 0.38271 -0.28969 0.10531 -0.43372 -0.12009 0.011042 -0.064907 0.043024 0.11272 0.12437 0.012413 -0.18549 0.30272 -0.0482 -0.090104 0.37548 0.28861 0.28425 -0.48694 -0.030188 0.071851 0.20201 -0.23132 -0.092384 0.072928 -0.16116 0.6102 -0.21031 -0.27211 -0.20288 -0.25572 -0.16055 -0.174 -0.14079 0.32265 -0.087253 0.46225 -0.11681 
ham -0.11818 0.024947 0.15411 0.12562 -0.14834 0.28018 -0.065607 -0.0045125 0.26939 -0.062765 -0.32026 -0.13371 0.088108 -0.059308 0.13044 -0.015046 0.081768 0.030466 0.22722 0.12712 0.10662 0.032329 0.10093 -0.058774 0.13388 -0.10848 -0.044582 -0.076003 0.015993 -0.014526 -0.12889 0.037701 -0.026424 0.012102 -0.12838 0.2541 -0.17953 0.27624 0.22711 -0.32886 -0.22794 0.063398 0.28367 -0.13968 -0.087615 0.14252 -0.066935 0.10931 -0.17371 0.27562 0.161 -0.32112 0.10164 0.0061103 0.13745 0.082609 0.045059 -0.046048 -0.0128 0.17806 0.20566 0.20106 0.085988 0.076974 -0.19468 0.094936 -0.29214 -0.017029 0.1363 -0.32919 0.10025 0.32629 -0.20359 0.15362 -0.2368 0.24805 0.11982 0.2976 0.2846 -0.1759 -0.038414 0.21296 0.015282 -0.25926 -0.18457 -0.227 -0.18393 0.18613 -0.14422 -0.18559 0.20051 -0.021652 0.38609 -0.2735 -0.10416 0.068292 -0.097274 -0.31939 0.45426 0.13097 
avocado -0.055737 0.025488 -0.048942 0.18617 -0.31362 -0.086816 0.28015 0.45705 0.13231 -0.046611 -0.11642 -0.043624 0.59091 -0.073833 0.082527 -0.094669 0.10375 0.4166 0.046422 -0.1731 0.37384 -0.21873 -0.10498 0.18443 0.023594 -0.24387 0.27695 0.13126 0.30855 -0.13776 0.0040262 -0.34714 0.058048 -0.18744 0.096039 -0.37747 0.31774 0.34863 0.20427 -0.048075 0.32997 0.26063 0.19696 -0.14544 0.19526 -0.092486 -0.21202 0.19648 0.23686 -0.17229 0.10381 0.05951 0.036995 -0.39825 0.23666 -0.31758 -0.42029 0.32626 0.4077 0.00046075 0.073911 0.49659 -0.29241 0.08129 0.33156 -0.12494 0.17852 0.053772 0.16859 0.029549 0.40083 0.03113 -0.13545 0.14753 -0.034003 -0.089391 -0.28171 0.012285 0.27807 0.42617 -0.24413 -0.078126 0.30233 0.13437 0.22548 0.087306 0.39344 0.152 0.027758 -0.15138 0.11318 0.17611 0.0086622 0.21961 -0.15796 -0.2957 0.17968 -0.21096 0.038946 -0.074719 
raisin 0.35681 0.22404 -0.2179 0.16286 -0.058309 0.024944 0.07367 -0.071298 0.0082751 -0.0078024 0.27001 0.54082 -0.48388 0.28979 -0.29129 -0.22067 -0.18461 0.075169 0.095094 -0.091114 -0.082608 -0.14886 0.58782 0.048641 -0.22305 -0.29484 0.14935 -0.20685 -0.22799 0.28613 0.23426 -0.40321 0.063391 -0.072958 -0.2332 0.40954 0.025001 -0.052633 -0.13941 0.48988 0.032474 0.47387 0.19698 0.2796 0.65233 -0.43573 0.43178 0.13092 -0.10745 -0.39046 -0.047037 0.22221 -0.10779 0.22391 -0.27946 -0.33393 -0.22765 0.25645 0.096763 0.27911 -0.28338 0.43626 0.026663 0.24298 -0.53117 0.16606 -0.098449 0.23203 0.093053 0.11876 -0.12749 0.037307 0.27115 -0.07605 -0.11587 0.28638 -0.047477 0.26369 -0.24196 -0.054505 0.63787 0.15539 0.091005 -0.14389 0.20871 0.22101 -0.086884 0.25159 -0.33616 0.032516 0.43111 -0.20063 0.26589 -0.22872 -0.26992 -0.32774 -0.46494 0.11956 -0.18571 -0.28289 
scallions -0.081051 0.20745 -0.070346 -0.25964 0.15079 0.14288 0.14104 0.023038 -0.21795 -0.22539 0.25431 0.015539 0.051364 -0.3066 0.1347 0.20415 -0.10019 0.12203 0.15064 -0.13129 -0.42309 -0.18072 -0.08508 -0.29849 -0.054788 -0.13716 0.0033282 -0.14618 0.18807 0.30566 -0.13655 0.32235 -0.069785 -0.05398 -0.15959 -0.12262 -0.057687 -0.15816 -0.018751 -0.093416 0.43369 -0.12817 0.11766 0.39075 0.098677 0.23422 0.064665 0.26155 -0.020143 0.03929 0.5663 -0.31636 -0.081138 -0.21702 -0.014056 -0.086442 -0.38783 0.2908 -0.020217 0.33934 0.35596 0.21067 0.14878 -0.23888 0.091667 -0.28311 -0.081248 0.096349 -0.024403 -0.11328 0.23784 -0.0053777 -0.16745 -0.027383 -0.14935 -0.15143 -0.21162 0.081304 0.31877 0.30074 -0.12193 -0.33372 0.079387 -0.12827 -0.24837 -0.065313 0.43342 0.052034 0.34261 0.12902 -0.39914 0.16899 -0.22676 0.30285 0.43424 -0.022291 -0.13856 0.18608 0.24524 0.018521 
tamarind 0.10535 0.14148 0.19345 0.10675 0.22908 0.1568 0.097697 0.17841 0.12794 0.10814 0.19914 0.64802 -0.20554 0.15023 -0.34178 -0.093135 0.071979 0.29813 0.18782 0.098421 -0.15634 -0.007626 -0.21874 -0.20707 0.29074 -0.21747 0.026665 -0.10479 0.22752 -0.42372 0.057092 0.21003 0.2583 -0.24136 -0.059659 0.35226 0.1905 0.078748 0.17116 0.15725 0.28524 0.3227 0.29924 -0.055323 -0.58684 0.24314 0.19051 -0.23472 -0.23045 0.30005 -0.044057 0.30092 -0.18503 -0.003352 0.15809 0.066306 0.13613 -0.063365 -0.18625 0.14403 -0.21692 -0.028753 0.29122 0.13961 -0.16586 -0.28276 -0.12581 -0.022438 0.19072 -0.25797 -0.39699 0.22371 -0.029579 0.34124 0.30338 -0.37209 0.13363 -0.061769 0.29563 0.18889 -0.041988 0.45521 -0.29796 -0.44891 0.18201 -0.26192 -0.10141 -0.48471 -0.19231 0.053756 0.19501 -0.073827 0.86984 -0.29091 -0.22331 -0.42349 0.085104 -0.15963 -0.28633 0.14645 
baking_powder 0.22686 -0.24129 -0.2678 0.032744 0.37737 -0.35666 -0.083815 0.17127 -0.71373 -0.34574 0.1948 -0.02291 0.021413 0.027695 -0.004101 -0.063106 -0.12455 -0.46135 0.23401 0.00020936 -0.11648 -0.21069 -0.42529 -0.14362 -0.22064 0.060684 0.073246 -0.13487 0.24102 0.25927 -0.15033 0.093023 -0.003535 -0.29715 0.16932 0.15549 -0.12606 -0.27146 -0.031306 -0.25594 0.3293 -0.32712 0.10769 -0.058729 0.027045 0.50275 -0.10569 -0.1987 0.036721 0.0054363 -0.36432 -0.51122 0.19463 0.32212 0.42321 0.057479 -0.2029 -0.056622 -0.024076 -0.019999 0.23587 0.15155 0.37565 -0.41828 -0.082736 -0.14316 -0.036452 0.21089 -0.29489 0.19867 0.39248 0.02935 0.03965 0.18266 0.12354 0.397 0.17746 0.40048 0.1625 -0.75732 0.15068 0.17867 0.013413 0.070807 0.072621 0.42754 0.52759 0.29094 -0.25998 -0.45148 -0.44549 0.22796 -0.51255 -0.075712 -0.42063 -0.43378 0.036083 0.22353 0.21278 0.2633 
jalapeno_chilies -0.028508 0.080464 -0.25377 -0.2144 -0.34978 -0.014149 0.38627 0.25123 -0.23721 -0.042837 0.29367 -0.2187 0.41602 -0.099759 -0.029087 -0.043431 0.0044407 0.069482 0.089575 -0.23231 0.15572 -0.099704 -0.27514 0.064133 0.056029 -0.34175 -0.2146 0.14063 0.40771 -0.042274 0.077785 -0.045044 0.34893 -0.1458 -0.13772 -0.32461 0.17015 0.088544 0.27287 -0.26676 0.4506 -0.0086094 0.1796 0.15063 0.20575 0.17752 -0.02502 0.21862 0.15076 -0.19679 0.42588 -0.16353 0.062836 -0.27959 0.2323 -0.15724 -0.31633 0.42329 0.26222 0.0073983 0.25038 0.35814 0.12381 -0.19699 0.39229 -0.18225 0.034295 -0.030909 0.12856 0.25505 -0.027667 -0.076674 -0.18521 0.026781 0.093151 0.12737 0.10458 0.038787 0.19508 0.25387 -0.41746 -0.038592 0.15709 -0.028265 -0.1554 0.15547 0.28206 -0.084162 0.12636 -0.21641 0.048804 0.038208 0.051711 -0.091667 -0.072377 -0.24961 0.22717 -0.06227 0.088758 -0.041409 
orange_juice -0.081766 0.12192 -0.19895 -0.021224 0.16066 0.42326 -0.15527 -0.017983 0.22499 0.060366 -0.15597 0.5166 0.10741 -0.044382 -0.17414 -0.11911 -0.15045 0.11587 0.25028 -0.36382 -0.33767 -0.30313 0.49681 -0.3873 -0.28779 0.18223 0.38594 0.11881 -0.35195 0.076778 0.25732 -0.43786 -0.11257 -0.24241 -0.046814 0.02655 0.1629 -0.45868 -0.34365 0.27093 0.0085657 -0.052179 0.043203 -0.043272 0.4893 -0.35844 -0.037109 -0.23342 -0.2766 -0.43101 -0.2627 0.20183 -0.15967 -0.25147 0.42052 -0.56892 -0.16483 0.27226 0.25341 0.3196 -0.17067 -0.027628 0.15619 0.12726 -0.48215 -0.020822 0.0846 0.40522 -0.0173 -0.10599 -0.49556 -0.14432 0.11518 -0.14631 -0.02491 -0.47073 -0.020553 -0.0015237 -0.13888 -0.21041 0.36522 0.21486 -0.18408 0.52644 0.41243 0.26989 -0.053627 0.37665 -0.39241 -0.047511 0.38245 -0.38339 0.25373 -0.26749 -0.27821 -0.32602 -0.19763 -0.1861 0.32854 0.13951 
diced_tomatoes -0.026314 -0.08035 -0.42463 -0.21091 0.16122 0.13074 -0.015021 0.17606 -0.13516 -0.21069 0.35928 -0.13529 0.70076 0.38194 0.25233 0.014474 -0.017379 0.23098 -0.36722 -0.039556 0.48943 -0.12299 -0.34935 0.099252 -0.071661 0.0039277 -0.51589 0.0057616 0.14222 -0.0042582 -0.069891 -0.10662 0.48723 -0.00061544 0.015148 -0.26741 0.022731 -0.010956 0.0032872 0.019516 0.21276 0.1499 -0.17441 0.011823 0.16916 -0.027409 -0.18329 0.33348 0.13147 0.028834 0.1565 0.013745 0.18197 0.0066847 -0.0092926 0.099844 0.03399 0.26997 0.14513 -0.14372 0.44399 0.27359 0.073223 0.071409 0.17601 0.043868 0.18958 0.019789 -0.10043 -0.13292 -0.0057349 -0.030585 0.046709 0.24763 0.14029 -0.2536 -0.12158 0.025314 0.17285 0.1258 -0.12479 0.02946 -0.019398 -0.31878 -0.37447 0.237 0.096642 -0.23828 0.37838 -0.18372 -0.057492 0.013834 -0.26563 -0.25449 0.20316 -0.10145 -0.046571 0.051524 0.0082255 -0.12576 
cherry -0.19996 0.15301 0.034997 -0.016387 -0.092815 -0.082571 -0.47771 0.25815 -0.17662 -0.13 0.065918 0.23389 -0.17441 0.22074 -0.071073 -0.0062009 0.29922 0.2835 0.14744 -0.29947 0.0040826 0.17437 0.37235 0.19479 -0.080408 0.069216 -0.26039 0.35225 0.10101 -0.14535 0.2159 -0.052342 -0.17395 0.41747 0.12109 0.27065 0.029353 -0.15159 -0.29957 0.037345 0.1833 0.050774 0.049052 -0.013006 0.50322 -0.4235 0.051559 -0.0021781 0.119 -0.22706 -0.31226 0.0093982 0.19124 0.19383 -0.084855 -0.17621 0.049226 0.10273 0.22546 0.07793 0.11428 0.14869 -0.11529 0.020744 -0.078325 0.24265 0.13629 0.021299 0.12277 0.13581 0.10129 0.051057 -0.053151 -0.23571 0.011067 -0.13613 0.098445 0.22651 -0.18028 -0.048405 -0.090516 -0.53521 -0.0032905 0.11173 0.039936 0.35579 0.04132 0.20864 -0.19961 0.32233 0.069613 0.083298 0.023444 -0.3768 0.097324 -0.30688 -0.051099 0.058253 0.4341 -0.12046 
fennel -0.12881 0.13828 0.19291 -0.08822 -0.17578 -0.41802 -0.3804 0.0044304 0.36384 -0.10446 -0.13405 -0.13626 0.27689 0.21905 -0.14505 -0.049324 -0.068036 -0.021379 -0.27644 0.1897 0.18852 -0.21734 0.024068 -0.14277 -0.12765 0.04895 0.25197 -0.064635 -0.0159 -0.14339 0.063228 0.041192 -0.015663 0.094371 -0.13299 -0.050499 -0.28613 0.072275 0.28894 0.29085 -0.1221 0.070435 0.13795 0.30965 -0.070742 -0.0010074 -0.074058 0.35511 0.35026 0.18561 0.18081 0.10655 0.12609 0.43552 0.071111 0.089717 -0.26927 0.10646 0.22022 0.090479 -0.0027389 -0.21782 -0.072729 -0.22335 -0.30233 -0.14961 0.087786 -0.14418 -0.12011 -0.030888 -0.30452 0.24609 0.2564 0.095556 0.29515 -0.17112 -0.18213 -0.22026 0.089818 -0.15554 -0.13877 -0.12684 0.09892 0.10203 0.012945 0.0051712 -0.11626 0.10255 0.020196 0.19289 -0.023559 0.047976 0.24139 -0.25807 0.067612 0.12475 -0.3027 -0.30635 0.013485 0.084817 
dill -0.016842 -0.55159 -0.098979 0.32228 0.1427 -0.50362 0.016591 0.10714 0.23833 -0.050278 -0.17905 -0.14676 -0.097697 0.26423 -0.18227 0.065376 0.30553 0.22047 -0.16988 0.13622 -0.11418 -0.043277 -0.15898 0.076222 0.056893 0.013619 0.23023 -0.19963 -0.032699 0.21937 0.046 -0.063143 -0.40155 0.18309 -0.14349 -0.043857 -0.12502 0.089954 0.29278 -0.31431 -0.13778 0.070212 0.14657 -0.28202 -0.12186 0.033872 0.19597 0.077184 0.14019 0.19097 -0.080582 0.021539 0.21326 0.0061507 -0.063717 -0.0036174 -0.0024331 0.048823 0.074914 0.050984 0.47619 0.42937 -0.11146 0.089795 0.34091 0.070305 -0.027156 -0.15992 0.091735 -0.30294 -0.012118 -0.12516 -0.34384 -0.039784 -0.12102 -0.12536 0.23067 -0.094656 0.17715 0.0084064 -0.048999 -0.011087 -0.04007 0.086544 0.24431 -0.20256 -0.067265 0.2376 -0.16594 0.23136 0.14294 -0.065577 0.56694 -0.14351 0.14826 -0.27664 0.12732 -0.27418 -0.068485 0.2037 
gelatin -0.18376 0.26977 -0.3456 -0.034698 0.34817 0.133 -0.12511 0.34998 -0.065062 -0.066089 0.061922 0.182 -0.066371 -0.26473 -0.1259 0.059505 -0.18228 -0.027557 0.6689 0.21251 -0.30806 -0.3075 0.19303 -0.24699 -0.10735 0.018266 0.05511 0.083832 -0.036275 0.16211 0.23028 -0.028316 -0.31591 -0.0019217 -0.13015 0.48888 0.1459 0.022514 -0.35837 0.14142 -0.17544 0.18918 -0.090529 -0.25644 0.65284 -1.1245 0.3248 -0.0068523 -0.16814 0.032079 -0.70832 0.040277 -0.10363 0.073272 0.34489 0.10678 0.1826 0.46671 -0.18244 0.2922 0.023939 0.072092 0.27423 0.056747 0.063466 0.31626 -0.19573 -0.020506 0.24316 -0.1429 -0.20411 -0.17946 0.13195 -0.0169 -0.26417 -0.078352 0.018268 -0.15363 0.2409 0.26387 0.20405 -0.42399 0.24854 0.28069 0.12764 0.22901 0.16892 0.4577 -0.35662 0.1683 -0.026511 -0.66239 0.032756 -0.35409 -0.29738 -0.13567 0.054073 0.081601 0.24391 0.12543 
turkey -0.037865 0.33258 0.088108 0.010167 -0.21953 -0.027383 0.16456 0.11697 0.40627 -0.098905 -0.19379 -0.38192 0.070706 -0.1198 0.059911 -0.10329 -0.034353 0.18699 -0.22764 0.028334 0.10668 0.1047 0.051998 0.064336 0.041722 -0.11254 -0.080266 0.042754 0.14339 -0.11014 -0.01464 -0.13745 0.10281 0.030193 -0.13594 -0.15903 0.18251 0.15852 0.0095255 0.041391 -0.07266 0.0062423 0.27924 -0.031267 0.091426 0.12844 -0.031486 0.084897 -0.080599 0.034816 0.12931 -0.2487 0.28143 0.14099 0.10424 0.045353 -0.11611 -0.03431 0.23844 -0.144 -0.077803 0.024268 0.18102 0.034119 -0.22259 0.044614 -0.15179 0.023569 0.34243 -0.12641 0.12588 -0.25148 0.095159 0.04328 -0.037206 -0.13045 -0.11267 0.095613 0.27602 -0.10023 0.29399 -0.023501 0.027566 -0.3561 -0.21317 0.15062 0.23793 0.17448 0.090493 0.099788 0.060489 0.26393 0.31466 -0.16279 -0.08018 0.029866 -0.058307 -0.36211 0.12522 -0.09864 
brown_sugar -0.1144 0.25744 -0.12532 -0.3634 0.10835 0.14413 0.10142 0.10032 -0.28926 -0.072148 0.16175 0.14514 0.084872 -0.07991 -0.16055 -0.083682 -0.24205 -0.10772 0.036051 -0.038755 -0.54048 -0.14275 -0.14117 -0.25599 -0.02238 0.046755 -0.17153 0.0056231 -0.13454 -0.021776 -0.22209 0.038345 -0.10618 0.17347 -0.31157 -0.01149 0.12945 -0.51634 -0.15407 -0.1175 0.43144 -0.15089 0.24553 0.21345 -0.040453 0.086542 -0.013507 -0.039353 -0.050777 0.16431 0.29446 -0.44037 0.087865 0.17878 -0.050625 -0.070728 -0.32249 0.25581 0.0099488 0.074182 0.19224 0.20014 0.34894 -0.22249 0.27275 -0.36881 -0.012419 0.11755 0.066115 0.085143 0.043611 0.088543 -0.24862 0.18329 0.14668 -0.030407 0.0052448 0.37916 -0.23936 0.17643 -0.13169 -0.25474 0.029921 0.11073 -0.42473 0.17074 0.048326 -0.16443 0.14039 0.21761 -0.25782 -0.091537 -0.32507 0.0048416 -0.07961 -0.15071 0.17723 -0.055223 0.037961 0.095842 
cooking_spray 0.056857 0.023346 -0.57446 0.17806 -0.1819 -0.54211 0.1773 0.075791 -0.44518 -0.33333 0.13034 0.11004 0.18215 0.05096 -0.021238 -0.18375 0.035774 0.04308 -0.14841 -0.053675 0.029194 0.09899 -0.14108 -0.18503 -0.099994 -0.16657 -0.45285 -0.026823 0.20196 0.35551 -0.15591 -0.12826 0.15687 -0.18666 0.05084 -0.31844 -0.042336 -0.22161 0.0087523 0.092558 0.18034 -0.50453 0.096627 0.1486 -0.042545 0.067566 -0.27902 0.24429 -0.016888 -0.23799 -0.028912 -0.19272 0.023909 0.031726 0.089217 -0.22773 0.10488 -0.00025632 -0.020933 -0.069994 0.31676 0.057057 0.30353 -0.14326 0.063409 0.020991 -0.0015292 0.075974 0.090739 0.093078 0.33213 0.11931 -0.054206 -0.11149 -0.051779 -0.24809 -0.13291 0.22649 0.04413 0.18932 -0.0076765 0.079887 0.12342 0.061868 -0.0146 0.19722 -0.11524 -0.19938 0.13392 0.073373 0.23335 0.21256 -0.16726 -0.32862 0.007021 0.046299 0.13642 -0.20117 -0.079941 0.0092641 
cider 0.081858 0.024083 0.0039927 -0.066212 -0.40107 0.17413 0.047798 0.10049 0.018467 -0.19895 0.091131 0.31371 -0.13313 0.11364 -0.26616 0.23292 -0.18728 0.036411 0.063544 -0.047796 -0.32835 -0.01729 0.073845 0.16792 0.0039671 0.0058737 0.072169 -0.0062319 -0.06063 -0.10151 -0.032341 0.083117 -0.35037 -0.059356 -0.11699 0.012871 -0.036752 -0.088222 -0.30129 -0.1341 0.22258 0.32402 0.082155 -0.1373 -0.16165 0.46317 0.14955 -0.022928 -0.37142 0.36861 -0.10624 -0.092313 -0.23699 -0.16979 0.028593 0.061357 -0.18253 0.11466 0.28868 -0.10827 0.30027 0.52784 0.14384 0.056049 -0.017915 -0.26751 -0.035758 0.091335 0.13827 -0.22289 0.059794 0.039163 0.16096 0.32139 0.1061 -0.37486 0.058263 0.05087 0.068145 -0.10232 0.33838 0.32035 -0.19669 -0.28406 0.13233 -0.091023 0.065778 0.083126 -0.31753 -0.069876 0.20919 0.095332 0.59907 -0.17218 -0.37255 -0.36992 -0.074414 -0.0031174 -0.37618 0.12196 
